-7.907271385192871094e-03
2.048305794596672058e-02
7.112606614828109741e-02
2.555790543556213379e-02
2.627779915928840637e-02
4.117083735764026642e-03
-1.726675219833850861e-02
6.367142498493194580e-02
2.645029127597808838e-02
1.247414015233516693e-02
7.914199680089950562e-02
-1.028539147228002548e-02
-1.679960265755653381e-02
4.283915087580680847e-02
1.055928878486156464e-02
1.398278120905160904e-02
1.182602439075708389e-02
2.861630544066429138e-02
2.066008187830448151e-02
3.109842538833618164e-02
1.477191224694252014e-02
3.462837263941764832e-02
1.215806230902671814e-03
2.580528333783149719e-02
-1.735267601907253265e-02
2.063317410647869110e-02
4.608155286405235529e-04
7.155016064643859863e-02
-2.580673201009631157e-03
9.257816709578037262e-03
-1.761996420100331306e-03
6.655529141426086426e-03
6.517943739891052246e-02
1.296022720634937286e-02
-4.133236128836870193e-03
5.294078961014747620e-03
4.728965833783149719e-02
2.987527288496494293e-02
-4.901436623185873032e-03
-4.144175618421286345e-04
2.550355903804302216e-02
-1.599372015334665775e-03
2.720511332154273987e-02
4.013431072235107422e-02
5.279534030705690384e-03
-2.131937630474567413e-02
1.258473843336105347e-02
-7.415755186229944229e-03
4.251714423298835754e-02
-1.602062024176120758e-02
3.923133015632629395e-02
-4.275150597095489502e-03
-6.804614793509244919e-03
3.047974780201911926e-02
1.493007037788629532e-02
-1.593962125480175018e-02
-2.213480183854699135e-03
4.234208539128303528e-02
-9.738106164149940014e-04
2.725537866353988647e-02
-5.545421503484249115e-03
1.072087604552507401e-02
-9.107590653002262115e-03
3.253645449876785278e-02
2.264210209250450134e-02
9.863653685897588730e-04
4.414549842476844788e-02
1.701785624027252197e-02
5.453070160001516342e-03
1.455806102603673935e-02
-1.385685801506042480e-02
1.548441965132951736e-02
2.812442183494567871e-02
3.473439719527959824e-03
2.744951099157333374e-02
4.183388128876686096e-02
1.106425188481807709e-02
2.819469384849071503e-02
3.287108987569808960e-02
4.975471645593643188e-03
-4.697738680988550186e-03
6.738560646772384644e-02
2.044819854199886322e-02
2.698820456862449646e-02
-5.273117683827877045e-03
-1.796718128025531769e-02
1.197224203497171402e-02
1.855976646766066551e-03
3.292735666036605835e-02
2.475536614656448364e-02
-2.773624612018465996e-03
4.846919327974319458e-02
2.953972294926643372e-02
2.659056149423122406e-02
4.373414069414138794e-02
4.889494553208351135e-02
4.932368174195289612e-02
1.190278399735689163e-02
3.146509081125259399e-02
3.516145795583724976e-02
-6.902316818013787270e-04
3.750438243150711060e-02
3.891849890351295471e-02
-3.664962202310562134e-02
1.255740039050579071e-02
-8.245374192483723164e-04
6.765336729586124420e-03
3.532288223505020142e-02
2.047047391533851624e-02
2.573768980801105499e-02
1.882474496960639954e-02
1.415701769292354584e-02
3.711855784058570862e-02
8.681868202984333038e-03
-1.055557467043399811e-02
-1.158119551837444305e-02
4.279803857207298279e-02
4.531249403953552246e-02
3.834832459688186646e-02
9.278682991862297058e-04
2.601641044020652771e-02
1.534255221486091614e-02
4.327248036861419678e-02
-1.289165299385786057e-02
2.452553948387503624e-03
3.341716900467872620e-02
7.574100792407989502e-02
5.243077129125595093e-02
