-5.343373864889144897e-02,5.641565471887588501e-02,-3.311395645141601562e-02,1.326756551861763000e-02,-2.063075825572013855e-02,-7.673273794353008270e-03,-2.304257079958915710e-02,1.180823799222707748e-02,-5.797341000288724899e-04,1.525861863046884537e-02,-1.589810592122375965e-03,4.144833423197269440e-03,-6.862093508243560791e-02,-3.008101601153612137e-03,1.784467510879039764e-02,1.964339613914489746e-02,-9.489293210208415985e-03,-1.335887517780065536e-02,-1.418195199221372604e-02,1.273615006357431412e-02,6.838060915470123291e-02,5.506966263055801392e-02,4.294119775295257568e-03,-9.184189140796661377e-03,-1.501696836203336716e-02,-3.279804810881614685e-02,-1.302686869166791439e-03,2.226015552878379822e-02,1.406152918934822083e-02,-2.191772684454917908e-02,2.494966238737106323e-02,-1.046245801262557507e-03,-2.602689713239669800e-02,2.316381083801388741e-03,2.048314921557903290e-02,-3.874228894710540771e-02,-1.985406875610351562e-02,-2.592847123742103577e-02,1.434196159243583679e-02,-2.672493644058704376e-02,6.032510846853256226e-02,-3.255212679505348206e-02,-1.792109012603759766e-02,2.040636166930198669e-02,-1.692506484687328339e-03,-2.389451302587985992e-02,-9.717961074784398079e-04,-2.922126092016696930e-02,-2.200135961174964905e-02,-2.110663568601012230e-03,1.776820048689842224e-02,6.271107122302055359e-04,-1.654295437037944794e-02,3.172470256686210632e-02,-2.869201637804508209e-02,-3.760944679379463196e-02,-9.025765582919120789e-03,-1.979663781821727753e-02,-1.181585434824228287e-02,6.115662306547164917e-02,-5.979608371853828430e-02,3.861330077052116394e-02,2.745351195335388184e-02,-3.631351143121719360e-02,4.058177117258310318e-03,3.889770060777664185e-02,-7.233320269733667374e-03,-3.724597394466400146e-02,-3.595696017146110535e-02,-8.847285993397235870e-03,-3.381980815902352333e-03,-3.675022721290588379e-02,6.401625275611877441e-02,3.653594851493835449e-02,-1.229459978640079498e-02,2.178599499166011810e-02,2.396894246339797974e-02,1.630422100424766541e-02,-1.032194402068853378e-02,-1.233880687505006790e-02,-3.126053512096405029e-02,2.651468105614185333e-02,6.596712861210107803e-03,5.344157293438911438e-02,-5.945662036538124084e-03,-6.308457348495721817e-03,-7.614960893988609314e-03,-3.717575222253799438e-02,1.931840553879737854e-02,-8.539758622646331787e-03,5.836160480976104736e-02,-4.322830587625503540e-02,2.122447080910205841e-02,-4.460122808814048767e-02,-1.576266996562480927e-02,-1.701150462031364441e-02,-1.678552851080894470e-02,-1.740438118577003479e-02,-1.447757892310619354e-02,-3.423828631639480591e-02,3.413887321949005127e-02,5.106089264154434204e-02,2.525221556425094604e-02,-2.685944363474845886e-02,-3.242314979434013367e-02,-3.421029075980186462e-02,3.538108617067337036e-02,-8.259138092398643494e-03,-6.533882021903991699e-02,-3.993370756506919861e-02,-2.941701561212539673e-02,1.990378461778163910e-02,1.595604792237281799e-02,-8.988524787127971649e-03,2.279436774551868439e-02,2.097909338772296906e-02,2.458701469004154205e-02,-2.179188467562198639e-02,3.340950980782508850e-02,3.081471845507621765e-02,6.986580789089202881e-02,-5.476339906454086304e-02,-5.530430004000663757e-03,-4.427172988653182983e-02,6.085892021656036377e-02,-1.692445576190948486e-02,-5.989362671971321106e-02,1.081063784658908844e-02
-4.630304500460624695e-02,-5.904184281826019287e-02,9.276745840907096863e-03,5.255461856722831726e-02,-4.143228754401206970e-02,-1.728130877017974854e-02,-2.658178657293319702e-02,1.473783887922763824e-02,5.282087996602058411e-02,2.689586207270622253e-02,2.803457714617252350e-02,-4.826897755265235901e-03,-5.002809688448905945e-02,3.949120268225669861e-02,-4.527159035205841064e-02,-4.753112047910690308e-02,-5.846565961837768555e-02,-5.196690931916236877e-02,-6.971895694732666016e-02,-1.152076385915279388e-02,-2.911754697561264038e-02,-1.757293939590454102e-02,3.482923656702041626e-02,5.266756191849708557e-02,1.773457415401935577e-02,5.146792158484458923e-03,-3.913994878530502319e-02,-3.195893764495849609e-02,2.731499262154102325e-02,6.683351099491119385e-02,1.507071219384670258e-02,1.698860898613929749e-02,6.040092092007398605e-03,2.864793501794338226e-02,2.810779260471463203e-03,3.146466566249728203e-03,-4.455541446805000305e-02,-2.000932954251766205e-02,-1.789113134145736694e-02,1.075382111594080925e-03,7.414566818624734879e-03,-5.988188553601503372e-03,2.959244512021541595e-02,-5.706454813480377197e-02,3.547314926981925964e-02,1.898519136011600494e-02,-1.510394364595413208e-02,1.206514704972505569e-02,-2.825739607214927673e-02,1.285401638597249985e-02,-3.168597444891929626e-02,3.071148879826068878e-02,-2.383128553628921509e-02,-2.962366305291652679e-02,3.969813510775566101e-02,9.593591676093637943e-04,2.942687645554542542e-02,-2.742120251059532166e-02,-6.040371581912040710e-02,-2.968708798289299011e-02,-1.431559491902589798e-02,-2.881633117794990540e-02,3.047721693292260170e-03,2.980170212686061859e-02,-4.838760942220687866e-03,8.948909118771553040e-03,-2.225496282335370779e-04,8.833243511617183685e-03,-3.184477239847183228e-02,3.884930908679962158e-02,-1.493601873517036438e-02,-2.201506122946739197e-02,-5.458300188183784485e-02,-2.770075574517250061e-02,9.112583938986063004e-04,-7.083644717931747437e-02,-3.579177334904670715e-02,1.833317801356315613e-02,3.533555567264556885e-02,1.366049284115433693e-03,5.505847185850143433e-02,8.955556899309158325e-03,-3.441116213798522949e-02,4.938726872205734253e-02,-3.354597836732864380e-02,2.663132920861244202e-02,-5.177027359604835510e-02,2.658216690178960562e-04,-6.239915266633033752e-02,1.922196894884109497e-02,-2.989292331039905548e-02,5.140729621052742004e-02,-4.167775437235832214e-02,-1.605652645230293274e-02,-6.047917157411575317e-02,-2.431352995336055756e-02,9.062748402357101440e-03,-4.920934140682220459e-02,3.575062751770019531e-02,-5.419398099184036255e-02,-1.015454437583684921e-02,1.455283351242542267e-02,-2.351661585271358490e-02,5.379036813974380493e-02,1.469627954065799713e-02,6.572916358709335327e-02,-5.732578691095113754e-03,2.137847011908888817e-03,2.572388201951980591e-02,1.307253818958997726e-02,-3.202657029032707214e-02,-1.499866251833736897e-03,5.515654012560844421e-02,5.264927167445421219e-03,3.528093919157981873e-02,1.524532586336135864e-02,-2.440323494374752045e-02,1.688568107783794403e-02,-4.048381373286247253e-02,-2.383391000330448151e-02,5.753086879849433899e-02,6.749793887138366699e-03,-3.187999129295349121e-02,-7.387847173959016800e-03,-5.811976268887519836e-02,-2.454034611582756042e-02,-2.959901466965675354e-02,7.798226550221443176e-03
-1.914530433714389801e-02,3.066230006515979767e-02,-5.209605395793914795e-02,1.131768804043531418e-02,-4.135773330926895142e-02,8.780973963439464569e-03,3.369559999555349350e-03,-3.476801142096519470e-02,-2.585125900804996490e-02,-2.858720347285270691e-02,-1.949445717036724091e-02,5.583560466766357422e-02,1.042400393635034561e-02,-3.408823907375335693e-02,2.049947716295719147e-02,2.317891083657741547e-02,6.254592537879943848e-02,-8.668868802487850189e-03,6.827859207987785339e-03,-6.060206890106201172e-02,4.590760543942451477e-02,1.966922357678413391e-02,2.853929996490478516e-02,-3.062531910836696625e-02,-1.574272289872169495e-02,-4.262659698724746704e-02,1.603552885353565216e-02,-4.404070600867271423e-02,5.561123788356781006e-02,-3.431332856416702271e-02,-4.993023723363876343e-02,1.106788031756877899e-02,-2.794482372701168060e-02,-3.420669957995414734e-02,-1.906185969710350037e-02,1.281914953142404556e-02,1.023972220718860626e-02,2.901328541338443756e-02,4.182853922247886658e-02,3.921958059072494507e-02,8.904715999960899353e-03,3.163906931877136230e-02,1.866402849555015564e-02,-4.816437140107154846e-02,9.393713437020778656e-03,2.295136637985706329e-02,-4.886911064386367798e-02,7.118754554539918900e-03,3.107573091983795166e-02,3.382557304576039314e-03,-8.269198238849639893e-03,-1.418137457221746445e-03,7.167056668549776077e-03,1.833424530923366547e-02,1.197703648358583450e-02,-4.824376478791236877e-02,-1.353027299046516418e-02,2.035708352923393250e-02,-1.106895785778760910e-02,-3.038826212286949158e-02,3.653357550501823425e-02,-6.113166362047195435e-02,-6.245948746800422668e-02,-3.924994543194770813e-02,3.350568935275077820e-02,7.060546427965164185e-03,-3.134502470493316650e-02,3.210173919796943665e-02,7.877854630351066589e-03,2.247719094157218933e-02,9.116782806813716888e-03,2.006168477237224579e-02,-2.925022691488265991e-02,-2.552290819585323334e-02,3.867664418066851795e-06,4.581785760819911957e-03,-6.296586990356445312e-02,3.718676418066024780e-02,3.168455883860588074e-02,-9.835089556872844696e-03,1.160851772874593735e-02,5.766841024160385132e-02,-2.959508262574672699e-02,2.142969332635402679e-02,-1.972808502614498138e-02,2.692458964884281158e-02,-2.898395806550979614e-02,2.787821181118488312e-02,-8.631068281829357147e-03,-3.616928681731224060e-02,3.127703815698623657e-02,-2.212735451757907867e-02,3.876921162009239197e-02,-2.816202677786350250e-02,1.540728192776441574e-02,1.923879235982894897e-02,7.581179961562156677e-03,1.309810858219861984e-02,1.136760134249925613e-02,5.962774902582168579e-02,-1.942501962184906006e-02,1.082458999007940292e-03,-9.995226748287677765e-03,-2.361741848289966583e-02,-9.438930079340934753e-03,-4.390343651175498962e-02,-3.223673999309539795e-02,6.774785928428173065e-03,-1.859369687736034393e-02,5.303618498146533966e-03,1.375097315758466721e-03,2.632483653724193573e-02,3.226008266210556030e-02,9.967657737433910370e-03,1.355166174471378326e-02,9.196978062391281128e-03,-3.627039492130279541e-02,4.433282464742660522e-02,-1.646407693624496460e-02,-1.999307423830032349e-02,2.080863155424594879e-02,4.274873808026313782e-02,-4.872060194611549377e-02,3.942044079303741455e-02,-2.118446398526430130e-03,5.664534866809844971e-02,-1.960138604044914246e-02,1.888190046884119511e-03
1.397656183689832687e-02,6.083037238568067551e-03,2.797995693981647491e-02,-4.793516418430954218e-04,-2.965948544442653656e-03,-1.096198055893182755e-02,1.749141141772270203e-02,2.849536947906017303e-03,2.811733447015285492e-02,-2.524083666503429413e-02,-7.040408998727798462e-02,-3.859734162688255310e-02,2.601626561954617500e-03,3.805587999522686005e-03,-1.380858384072780609e-02,-1.879637874662876129e-02,5.098851397633552551e-03,-4.320044070482254028e-02,4.020621534436941147e-03,3.639750182628631592e-02,-6.036676000803709030e-03,-4.602026566863059998e-02,6.210338789969682693e-03,-2.212321199476718903e-02,-2.372879721224308014e-02,-3.008294664323329926e-02,-1.670807786285877228e-02,1.640700176358222961e-02,-1.096277963370084763e-02,2.803061902523040771e-02,3.356005251407623291e-02,9.480454027652740479e-03,3.167252242565155029e-02,-2.265427447855472565e-02,9.322761557996273041e-03,1.090797875076532364e-02,-1.124340854585170746e-02,1.752911508083343506e-02,2.629218855872750282e-03,3.023164905607700348e-02,1.461728941649198532e-02,1.616549305617809296e-02,-2.044522576034069061e-02,1.303738821297883987e-02,-3.253696952015161514e-03,-5.730883032083511353e-02,-1.904009096324443817e-02,3.828765824437141418e-03,-3.168068081140518188e-02,-2.789571182802319527e-03,-5.033733695745468140e-02,-2.586771361529827118e-02,-6.123422458767890930e-02,-2.136725932359695435e-02,-3.729954361915588379e-03,1.374778524041175842e-02,1.487222150899469852e-03,-5.916972644627094269e-03,4.863384645432233810e-03,-1.980682834982872009e-02,2.410801872611045837e-02,-7.388657424598932266e-03,-5.716216284781694412e-03,-1.239102892577648163e-02,-3.031872771680355072e-02,1.229917444288730621e-02,-4.917638376355171204e-02,1.016098260879516602e-02,-4.605078324675559998e-02,1.909046247601509094e-02,-1.187332533299922943e-02,1.014120597392320633e-02,-1.039147842675447464e-02,-4.713520035147666931e-02,5.063540302217006683e-03,-3.769700601696968079e-02,-1.749406917952001095e-03,-3.422525152564048767e-02,4.788813740015029907e-02,-5.693526938557624817e-03,6.283266469836235046e-03,3.321357816457748413e-02,-1.852424256503582001e-02,2.523851580917835236e-02,-5.276783183217048645e-02,6.927012465894222260e-03,-3.147309273481369019e-02,-9.992709383368492126e-03,-4.314408451318740845e-02,-2.755351550877094269e-02,1.961744762957096100e-02,-2.449098415672779083e-02,8.424403145909309387e-03,1.100053545087575912e-02,-8.713453076779842377e-03,4.249523207545280457e-02,-1.103173661977052689e-02,-2.052084455499425530e-04,2.095889113843441010e-02,-1.686165481805801392e-02,8.748739957809448242e-03,4.079826176166534424e-02,1.985921896994113922e-02,-5.594364181160926819e-02,4.183393344283103943e-02,2.782418020069599152e-02,-3.543480765074491501e-03,-3.251583501696586609e-02,-1.071443688124418259e-02,-2.809136733412742615e-02,3.989287838339805603e-02,2.784379012882709503e-02,-2.018781378865242004e-02,-6.320364773273468018e-02,2.747414447367191315e-02,5.336437746882438660e-02,3.574696928262710571e-02,3.509879752527922392e-04,-1.013489067554473877e-02,5.259101744741201401e-03,-2.100960537791252136e-02,-2.200950868427753448e-02,-1.537447236478328705e-02,-1.148568559437990189e-02,1.588363759219646454e-02,5.711539462208747864e-02,-6.991070229560136795e-03,-4.061772301793098450e-02
9.351879358291625977e-03,2.049193158745765686e-02,-1.065618358552455902e-02,1.603789976797997952e-03,2.970345504581928253e-02,3.245801106095314026e-02,2.677518688142299652e-02,-2.385101839900016785e-02,-1.367061212658882141e-02,-6.641983985900878906e-02,-6.079831719398498535e-02,-2.988411858677864075e-02,6.858673412352800369e-03,3.143180534243583679e-02,4.716412723064422607e-02,3.093639761209487915e-02,5.148622021079063416e-02,-4.644625633955001831e-02,-3.592660883441567421e-03,-2.085447870194911957e-02,-1.049706526100635529e-02,2.920486964285373688e-02,3.225643560290336609e-02,-1.484386716037988663e-02,-5.810017138719558716e-02,-5.218180641531944275e-02,4.671381413936614990e-02,4.659988731145858765e-02,-2.596057392656803131e-02,-1.783118024468421936e-02,-2.844457328319549561e-02,6.558269378729164600e-04,2.324539795517921448e-02,6.431892514228820801e-02,2.650195546448230743e-02,4.302365705370903015e-02,-2.595784887671470642e-02,-6.553843151777982712e-03,4.281980916857719421e-02,-1.178967184387147427e-03,-1.880097016692161560e-02,-1.224213652312755585e-02,3.693835064768791199e-02,1.450375770218670368e-03,3.317689523100852966e-02,-2.904055453836917877e-02,-1.105256285518407822e-02,-1.992340385913848877e-02,6.088602240197360516e-04,5.988316982984542847e-02,-1.655017212033271790e-02,-6.535443663597106934e-02,-4.405649751424789429e-02,-1.983899250626564026e-02,-2.426185458898544312e-02,-4.050136357545852661e-02,7.367648649960756302e-03,-2.277910476550459862e-03,-5.344247445464134216e-02,-7.384733762592077255e-03,-4.057130962610244751e-02,1.841530576348304749e-02,6.197120063006877899e-03,4.345798864960670471e-02,4.304302111268043518e-02,1.442783419042825699e-02,2.421083115041255951e-02,-1.731547899544239044e-02,-2.820352790877223015e-03,8.502529934048652649e-03,-3.897987306118011475e-02,-3.092982806265354156e-02,-2.248924411833286285e-02,-2.017750591039657593e-02,-5.945649929344654083e-03,7.117049768567085266e-03,-6.371583044528961182e-02,-2.924082241952419281e-02,-2.992574311792850494e-02,5.139017011970281601e-03,1.247526146471500397e-02,4.363398998975753784e-02,1.075527910143136978e-02,-5.043299123644828796e-02,-3.432358801364898682e-02,-7.466689217835664749e-03,-4.577581956982612610e-02,-9.786880575120449066e-03,-6.093876063823699951e-02,-5.863213911652565002e-03,-1.987726613879203796e-02,2.173505909740924835e-02,-1.026304345577955246e-02,-5.024172738194465637e-02,3.067151876166462898e-03,2.976507134735584259e-02,-3.211992233991622925e-02,-1.972753927111625671e-02,-2.316492050886154175e-02,1.514653488993644714e-02,1.603716611862182617e-02,-5.425170436501502991e-02,4.687962308526039124e-02,4.744966700673103333e-02,-5.324771255254745483e-02,-2.765282988548278809e-02,4.018279165029525757e-02,-4.473200067877769470e-02,5.915232002735137939e-02,-1.280130911618471146e-02,-5.392423644661903381e-02,-4.012831300497055054e-02,-7.008695974946022034e-03,-2.626699628308415413e-03,1.331242267042398453e-02,3.260866738855838776e-03,3.336811438202857971e-02,-3.916609287261962891e-02,-7.279869168996810913e-03,2.220032736659049988e-02,7.825664244592189789e-03,-4.716289788484573364e-02,3.502543643116950989e-02,6.439738208428025246e-04,5.495543405413627625e-02,-3.424687776714563370e-03,-3.447742387652397156e-02,2.533894218504428864e-02
-1.903286948800086975e-02,1.303766481578350067e-02,-3.843752294778823853e-02,-5.215587839484214783e-02,-6.461855024099349976e-02,4.362539947032928467e-02,-3.702142462134361267e-02,-4.859503731131553650e-02,6.398756802082061768e-02,-3.153311833739280701e-02,-3.617274016141891479e-02,5.114604160189628601e-02,-4.399254452437162399e-03,-4.521721275523304939e-04,-5.407824646681547165e-03,8.040942251682281494e-03,-1.990538090467453003e-02,-5.267315078526735306e-03,-1.513280533254146576e-02,-1.756833307445049286e-02,3.660961985588073730e-02,2.606014162302017212e-02,-1.990381628274917603e-02,-1.932084909640252590e-03,5.357765406370162964e-02,-4.004890844225883484e-02,-2.660534530878067017e-02,1.123141217976808548e-02,2.262274362146854401e-02,-1.484411582350730896e-02,-2.843168564140796661e-03,1.728147082030773163e-02,1.744751445949077606e-02,3.620850667357444763e-02,-5.148726049810647964e-03,-7.256371434777975082e-03,-2.640382014214992523e-02,-4.587028175592422485e-03,4.541219398379325867e-02,-1.642627827823162079e-02,6.526951491832733154e-02,-3.424807637929916382e-02,-7.705083582550287247e-03,5.635901819914579391e-03,-5.165558680891990662e-02,2.827989496290683746e-02,-2.801810204982757568e-02,-6.081103533506393433e-02,-2.947672083973884583e-02,-9.173263795673847198e-03,2.113492228090763092e-02,-1.333309523761272430e-02,1.668161526322364807e-02,1.619889773428440094e-02,-1.202514860779047012e-02,-2.085364982485771179e-02,-4.897676408290863037e-03,-4.142980277538299561e-02,-4.007507115602493286e-02,-1.307548116892576218e-02,-6.065288186073303223e-02,3.840261488221585751e-04,-2.637803927063941956e-02,1.749658584594726562e-02,1.251666899770498276e-02,5.086967721581459045e-03,-4.551643878221511841e-02,1.651177764870226383e-03,-1.750548742711544037e-02,3.981878980994224548e-02,-4.888254031538963318e-02,2.176796086132526398e-02,-1.683878898620605469e-02,2.713303640484809875e-02,-2.363998070359230042e-02,3.178916126489639282e-02,-3.446394950151443481e-02,-1.024703308939933777e-02,4.222997650504112244e-02,5.451138690114021301e-02,5.516515672206878662e-02,4.074372554896399379e-05,-3.560034930706024170e-02,7.088554091751575470e-03,-6.517116446048021317e-03,4.347847774624824524e-03,6.493950635194778442e-02,-3.441078588366508484e-02,-5.785650759935379028e-02,5.461199581623077393e-02,-1.323187258094549179e-02,-3.023973479866981506e-02,2.040185034275054932e-02,-3.248382732272148132e-02,-6.904321163892745972e-02,-1.115879882127046585e-02,-1.880901493132114410e-02,3.718715161085128784e-02,-8.313760161399841309e-03,-1.110057625919580460e-02,-2.335862256586551666e-02,-3.606590628623962402e-02,-1.224846951663494110e-02,4.784833174198865891e-03,-8.136994205415248871e-03,-1.506043318659067154e-02,-4.285227507352828979e-02,-1.819808594882488251e-02,1.458090264350175858e-02,-1.989684626460075378e-02,6.294168997555971146e-03,5.229352042078971863e-02,8.159708231687545776e-03,-2.940628863871097565e-02,-2.488281344994902611e-03,2.875230088829994202e-02,-1.758625917136669159e-02,-3.159081563353538513e-02,6.706371903419494629e-02,-1.139583531767129898e-02,3.144462406635284424e-02,1.896083354949951172e-02,5.802271421998739243e-03,3.270868211984634399e-02,-7.836788892745971680e-03,2.553175017237663269e-02,3.992701240349560976e-04,-2.916702255606651306e-02
2.003139071166515350e-02,2.142458967864513397e-02,-4.987590759992599487e-02,-1.678824611008167267e-02,1.905413717031478882e-02,6.806458532810211182e-02,4.512644559144973755e-02,9.583149105310440063e-03,-1.014987658709287643e-02,8.040377870202064514e-03,-6.858199089765548706e-02,3.010685928165912628e-02,-5.075705423951148987e-02,4.128848388791084290e-02,-1.727920211851596832e-02,3.510423749685287476e-02,5.737762153148651123e-02,-1.035087835043668747e-02,3.264400735497474670e-02,7.781506981700658798e-03,-1.433903072029352188e-02,-6.967119872570037842e-03,1.692547835409641266e-02,1.885095983743667603e-02,1.543988753110170364e-02,-3.984276205301284790e-02,1.863183639943599701e-02,4.337426647543907166e-02,2.309557981789112091e-02,3.973343968391418457e-02,-7.370417471975088120e-03,-6.461632903665304184e-03,2.272286638617515564e-02,1.503899320960044861e-02,4.005254060029983521e-02,1.740557514131069183e-02,-2.744571305811405182e-02,2.469061128795146942e-02,4.828705452382564545e-03,-1.848153024911880493e-02,1.758124306797981262e-02,-1.538315135985612869e-02,5.981444567441940308e-02,-4.167113918811082840e-03,4.077417403459548950e-02,-5.168432742357254028e-02,-1.627495698630809784e-02,-3.622073680162429810e-02,-6.243343930691480637e-03,6.907455623149871826e-02,-4.583672806620597839e-02,-3.234155848622322083e-02,-2.127635665237903595e-02,2.915651537477970123e-02,3.932595718652009964e-03,5.124621838331222534e-02,-2.649284712970256805e-02,1.047353073954582214e-02,-3.046447597444057465e-02,-2.787439897656440735e-02,-5.127082765102386475e-02,-5.361492931842803955e-02,6.603749841451644897e-02,-1.868316344916820526e-02,-6.310404837131500244e-02,-3.417023690417408943e-03,-1.801063679158687592e-02,5.312109366059303284e-02,-2.398070879280567169e-02,-2.858018269762396812e-03,4.317392408847808838e-02,1.825206726789474487e-02,-1.102172303944826126e-02,3.139284253120422363e-02,3.071849234402179718e-02,7.130225654691457748e-03,4.547223076224327087e-02,3.718989435583353043e-03,1.942251063883304596e-02,-9.203809313476085663e-03,4.059867560863494873e-02,-3.355620428919792175e-02,-1.706857420504093170e-02,3.438069717958569527e-03,3.403549641370773315e-02,-1.131748221814632416e-02,2.188253030180931091e-02,-8.265950600616633892e-04,-1.749924197793006897e-02,1.706778630614280701e-02,-2.770679071545600891e-02,9.616786614060401917e-03,-1.885815709829330444e-02,-3.677364811301231384e-02,-1.180372945964336395e-02,9.630444459617137909e-03,-5.105120688676834106e-02,1.636064611375331879e-02,2.172997221350669861e-03,-2.472959645092487335e-02,-8.821678347885608673e-03,1.665157265961170197e-02,-5.043331533670425415e-02,3.340930864214897156e-02,2.989749424159526825e-03,-1.144873537123203278e-02,4.635927826166152954e-02,-5.153008550405502319e-02,-9.735656902194023132e-03,-2.676251158118247986e-02,3.742093965411186218e-02,-6.522667407989501953e-02,-4.453612491488456726e-03,-3.213775157928466797e-02,6.636743992567062378e-02,-6.443817168474197388e-02,-1.451837737113237381e-02,-4.600563272833824158e-02,1.066575106233358383e-02,2.553582936525344849e-02,1.051578763872385025e-02,2.796196565032005310e-02,3.832199424505233765e-02,-1.191754452884197235e-02,3.892203420400619507e-02,-1.687275618314743042e-02,-1.769167371094226837e-02,2.395442500710487366e-02
-3.271383792161941528e-02,3.140038996934890747e-02,1.873554848134517670e-02,3.762485692277550697e-03,-6.294614076614379883e-02,3.571868687868118286e-02,-3.212930867448449135e-03,-3.636422753334045410e-02,-2.132208272814750671e-02,-4.682202637195587158e-02,7.131980266422033310e-03,-2.779505401849746704e-02,-1.513030752539634705e-02,3.885020036250352859e-03,-4.613181203603744507e-02,-6.131101865321397781e-03,2.106812782585620880e-02,4.123512655496597290e-02,-3.759948909282684326e-02,-2.841142192482948303e-02,3.174466639757156372e-02,1.865763217210769653e-02,3.175668418407440186e-02,7.570220157504081726e-03,2.549094613641500473e-03,2.830026485025882721e-02,-1.644228957593441010e-02,-4.578113183379173279e-02,2.067447081208229065e-02,1.323258969932794571e-02,-3.100483911111950874e-03,2.656842395663261414e-02,4.091221094131469727e-02,1.543983258306980133e-02,1.773286145180463791e-03,3.663467243313789368e-02,-4.307509958744049072e-02,-2.274896390736103058e-02,-3.876541182398796082e-02,2.080053649842739105e-02,-1.369659788906574249e-02,-3.862246498465538025e-02,-6.215230748057365417e-02,2.338991686701774597e-02,8.009158074855804443e-03,-3.544381260871887207e-02,5.421458184719085693e-02,-5.731897428631782532e-02,-1.738973706960678101e-02,-2.904933132231235504e-02,-4.830146953463554382e-02,-2.166086994111537933e-02,-6.775392103008925915e-04,-6.991317123174667358e-02,1.824788749217987061e-02,-8.980852551758289337e-03,-6.282858550548553467e-02,-6.132370326668024063e-03,5.423018336296081543e-02,-3.906191326677799225e-03,1.493899524211883545e-02,3.624145174399018288e-03,3.081002086400985718e-02,9.225412504747509956e-04,-5.154998600482940674e-02,-2.665495732799172401e-03,3.214396908879280090e-02,-5.035815387964248657e-02,1.313610095530748367e-02,-3.967173770070075989e-02,-2.083614841103553772e-02,-3.231347724795341492e-02,6.875788420438766479e-02,1.364798936992883682e-02,-2.146298997104167938e-02,-1.817285642027854919e-02,-3.354075178503990173e-02,1.089078839868307114e-02,1.499252859503030777e-02,7.029124349355697632e-02,3.179796738550066948e-03,-3.904756531119346619e-02,-1.701628230512142181e-02,1.478875894099473953e-02,2.766538225114345551e-02,-3.397620050236582756e-03,-5.524290353059768677e-02,-6.555526051670312881e-03,3.341060597449541092e-03,-2.668810635805130005e-02,1.505516655743122101e-02,2.131565101444721222e-02,-6.259576766751706600e-04,-6.251866370439529419e-02,5.074087530374526978e-02,2.916417457163333893e-02,2.992027439177036285e-02,-5.115253850817680359e-02,3.263021633028984070e-02,-3.283419460058212280e-02,4.281424358487129211e-02,-3.385486826300621033e-02,-3.015325032174587250e-02,-5.102583020925521851e-02,2.133538760244846344e-02,-4.346258938312530518e-02,-1.106405444443225861e-02,-4.316295310854911804e-02,-3.328811377286911011e-02,2.718788012862205505e-02,2.956609474495053291e-03,-1.977023901417851448e-03,-6.715650111436843872e-02,3.545938059687614441e-02,3.234402835369110107e-02,-1.139065437018871307e-02,3.757491707801818848e-02,5.388231948018074036e-03,2.602625824511051178e-02,-6.339940428733825684e-02,-3.212857246398925781e-02,2.053633332252502441e-02,9.019335731863975525e-03,3.855456784367561340e-02,1.248897984623908997e-02,-4.373593721538782120e-03,3.237324580550193787e-02,-1.767990924417972565e-02
-3.009628877043724060e-02,5.488570779561996460e-02,-1.643370091915130615e-02,1.482322230003774166e-03,-1.864373311400413513e-02,3.133666142821311951e-02,7.186420727521181107e-03,-3.986509889364242554e-02,5.207964568398892879e-04,7.554309442639350891e-03,-2.806475013494491577e-02,3.939742967486381531e-02,5.903453007340431213e-02,-3.028291836380958557e-02,-1.320082228630781174e-02,-1.846252125687897205e-03,-9.573082439601421356e-03,6.885405629873275757e-03,3.192870318889617920e-02,-2.007991308346390724e-03,-1.442916411906480789e-02,1.119183190166950226e-02,8.796187117695808411e-03,5.303206387907266617e-03,6.952084600925445557e-02,1.377773471176624298e-02,-3.450538218021392822e-02,3.312626853585243225e-02,6.867951713502407074e-03,-2.806698158383369446e-02,-4.074049938935786486e-04,2.804581262171268463e-02,2.126490324735641479e-02,-3.889529034495353699e-03,-6.287015974521636963e-02,-3.530582040548324585e-02,-5.368696153163909912e-02,1.224764529615640640e-02,1.226239092648029327e-02,2.072470821440219879e-02,2.076037600636482239e-02,5.321757495403289795e-02,-2.062431536614894867e-02,-1.710615120828151703e-02,-3.855069354176521301e-02,5.626722425222396851e-02,-3.254828229546546936e-02,3.239433467388153076e-02,-5.553063005208969116e-02,-3.172313794493675232e-02,-1.610188558697700500e-02,1.748073846101760864e-02,1.661084964871406555e-02,-8.789704879745841026e-04,5.494995415210723877e-02,2.766320249065756798e-03,-6.238841917365789413e-03,3.731828555464744568e-02,9.760468266904354095e-03,3.835583478212356567e-02,6.427994370460510254e-02,-6.111421389505267143e-04,-2.753914333879947662e-02,1.555045228451490402e-02,-1.669715717434883118e-02,-3.848331421613693237e-02,1.091903634369373322e-02,6.176554411649703979e-02,7.190085947513580322e-03,4.016416147351264954e-02,2.410924807190895081e-02,-3.258575219660997391e-03,2.232976694358512759e-04,1.631209254264831543e-02,8.082462474703788757e-03,1.722526177763938904e-02,-2.976121380925178528e-02,1.354529894888401031e-02,-2.828367240726947784e-02,-2.695242315530776978e-02,-1.590398326516151428e-02,3.595416247844696045e-02,-2.531948126852512360e-02,-9.162289090454578400e-03,1.129897776991128922e-02,-3.043859638273715973e-02,-8.030537515878677368e-03,-3.156317025423049927e-02,4.582389723509550095e-03,2.270814590156078339e-02,3.042781539261341095e-02,-1.131235715001821518e-02,-1.806971430778503418e-02,1.479046978056430817e-02,-3.760316222906112671e-02,3.692042455077171326e-02,-2.543075475841760635e-03,-2.888124063611030579e-02,-9.688928723335266113e-03,2.433529682457447052e-02,5.974094942212104797e-02,1.445451844483613968e-02,1.700175739824771881e-02,1.582417078316211700e-02,-4.776624217629432678e-02,-2.138428017497062683e-02,-5.234775133430957794e-03,2.248899824917316437e-02,-3.885996341705322266e-02,1.179884281009435654e-02,-4.507632553577423096e-02,-3.745059296488761902e-02,3.925574570894241333e-02,-3.809979557991027832e-02,1.697537861764431000e-02,3.050804510712623596e-02,-6.729763932526111603e-03,2.360309241339564323e-03,1.401961687952280045e-02,9.260523365810513496e-04,-9.676863439381122589e-03,-7.888574153184890747e-03,5.538133904337882996e-02,-3.924726694822311401e-02,-2.928091213107109070e-02,-3.030874580144882202e-02,-2.395017072558403015e-04,-1.324998959898948669e-02
9.067191742360591888e-03,-2.002446725964546204e-02,4.489744082093238831e-02,-1.270238123834133148e-02,-3.656326234340667725e-02,2.511524222791194916e-02,-2.992244437336921692e-02,-2.716465853154659271e-02,-6.897214800119400024e-03,2.300157584249973297e-02,-1.658499985933303833e-02,2.072309888899326324e-02,1.682728296145796776e-03,-5.700575187802314758e-03,-8.804402314126491547e-03,3.168975934386253357e-02,3.902511298656463623e-02,1.592624746263027191e-02,-2.988450601696968079e-02,2.578638866543769836e-02,-5.949222948402166367e-03,1.372432336211204529e-02,3.978576045483350754e-03,2.907592803239822388e-02,1.641653594560921192e-03,5.555188283324241638e-03,-3.948049619793891907e-03,2.235574461519718170e-02,1.580485701560974121e-02,-2.454478107392787933e-02,-2.607135288417339325e-02,-3.462291788309812546e-03,1.480560470372438431e-02,3.637516126036643982e-02,3.940315917134284973e-02,-1.063957996666431427e-02,-6.206436082720756531e-02,-2.055609785020351410e-02,-4.944550339132547379e-03,-6.474812049418687820e-03,1.401231996715068817e-02,-3.576059639453887939e-02,-1.122817955911159515e-02,-3.423579782247543335e-02,3.245496749877929688e-02,3.481595963239669800e-02,4.725654795765876770e-02,7.234973832964897156e-03,1.117946114391088486e-02,6.050147581845521927e-03,4.696851596236228943e-02,-1.500314008444547653e-02,-1.058446429669857025e-02,-3.160468488931655884e-02,-2.257728949189186096e-02,-5.172085389494895935e-02,2.148618549108505249e-02,1.431725453585386276e-02,6.802239269018173218e-02,1.873729936778545380e-02,2.376056276261806488e-02,-2.523102052509784698e-02,-9.554786607623100281e-03,1.260385289788246155e-02,4.559682309627532959e-02,-4.187370091676712036e-02,3.377643972635269165e-02,-2.627901360392570496e-02,-3.129794076085090637e-02,2.475336194038391113e-03,3.610389679670333862e-02,-3.060471452772617340e-02,-2.773645147681236267e-02,-4.656828008592128754e-03,4.626732319593429565e-02,2.768758684396743774e-02,2.280900371260941029e-04,-1.260913256555795670e-02,5.159776657819747925e-02,2.367991395294666290e-02,1.463747490197420120e-02,-1.458660000935196877e-03,-2.720339689403772354e-03,2.132799662649631500e-02,-2.117059379816055298e-02,3.581875562667846680e-02,1.389390695840120316e-02,1.486523915082216263e-02,2.616450563073158264e-02,3.084435313940048218e-02,3.634087368845939636e-02,-4.587822034955024719e-02,-3.038657270371913910e-02,-5.838290974497795105e-02,-4.349827393889427185e-02,3.358576446771621704e-02,-3.067995235323905945e-02,-2.034600637853145599e-02,6.767933722585439682e-03,5.024285055696964264e-04,6.498498376458883286e-03,2.829900011420249939e-02,-3.694546967744827271e-02,3.595129773020744324e-02,-3.147726133465766907e-02,-3.170593827962875366e-02,-2.844130992889404297e-02,-4.988889768719673157e-02,3.819440305233001709e-02,-1.438383571803569794e-02,3.193227574229240417e-02,5.558804050087928772e-02,-7.295913062989711761e-03,1.949353143572807312e-02,4.518208652734756470e-02,5.090439226478338242e-03,-2.763230167329311371e-02,-3.236250579357147217e-02,7.672610692679882050e-03,2.624803408980369568e-02,-3.383389860391616821e-02,2.564934827387332916e-02,-4.913134127855300903e-02,-5.693591386079788208e-02,9.051258675754070282e-03,-1.456375885754823685e-02,6.249525118619203568e-03,2.920814789831638336e-02
-4.720982164144515991e-02,-2.934227325022220612e-02,1.261260453611612320e-02,1.128576882183551788e-02,-3.339354181662201881e-03,-1.064224448055028915e-02,1.156495604664087296e-02,1.138923969119787216e-02,2.840589731931686401e-02,-6.038995459675788879e-02,1.837112242355942726e-03,1.975567638874053955e-02,2.099600806832313538e-02,-5.457039922475814819e-02,-4.007736966013908386e-02,-1.603572070598602295e-02,-2.437560632824897766e-02,3.925811126828193665e-02,2.023185603320598602e-02,-2.962474897503852844e-02,1.780178770422935486e-02,1.492076087743043900e-03,4.171324428170919418e-03,4.903262946754693985e-03,1.576674357056617737e-02,-2.343764528632164001e-02,-2.026653848588466644e-02,1.300718449056148529e-02,-4.652230069041252136e-02,-4.534693062305450439e-02,2.007056027650833130e-02,3.483759611845016479e-02,2.897953055799007416e-02,-6.414495874196290970e-03,-3.228969499468803406e-02,1.431498024612665176e-02,-1.477974839508533478e-02,-6.494694203138351440e-02,2.311041578650474548e-02,2.187650278210639954e-02,8.427659980952739716e-03,2.548535820096731186e-03,-2.626983914524316788e-03,-5.292119923979043961e-03,2.190296538174152374e-02,6.113354116678237915e-02,-5.232369527220726013e-02,6.057281419634819031e-02,-4.077077656984329224e-02,1.910933875478804111e-03,-3.340462595224380493e-02,-5.197568237781524658e-02,1.629015989601612091e-02,-4.323833063244819641e-02,-4.449667409062385559e-02,-1.673816889524459839e-02,-2.888425812125205994e-02,4.372996836900711060e-02,-2.156428433954715729e-02,5.415342375636100769e-02,4.441978409886360168e-02,-1.228175498545169830e-02,3.459566459059715271e-02,-3.032168000936508179e-02,2.016497589647769928e-02,-9.173308499157428741e-03,4.819771857000887394e-04,-1.130364486016333103e-03,-1.676254090853035450e-03,-2.270123921334743500e-02,3.072577901184558868e-02,-4.321109503507614136e-02,1.950454711914062500e-02,1.572493091225624084e-02,4.780124872922897339e-02,-1.440887153148651123e-02,3.038754314184188843e-02,-4.670502617955207825e-02,6.236056331545114517e-03,-1.613030210137367249e-02,-5.822507664561271667e-02,4.032193869352340698e-02,-5.390328541398048401e-02,-2.112365886569023132e-02,-2.366952411830425262e-02,-3.903660923242568970e-03,5.939604341983795166e-02,4.238071851432323456e-03,-1.110671553760766983e-02,-9.674007073044776917e-03,6.186331156641244888e-03,-2.641420997679233551e-02,-2.989858388900756836e-02,-3.275621682405471802e-02,-2.011702209711074829e-02,3.724393248558044434e-02,-2.808202803134918213e-02,-3.096124622970819473e-03,1.714786328375339508e-02,-8.039077743887901306e-03,-3.708236850798130035e-03,-1.418949197977781296e-02,-2.147675119340419769e-02,2.770251594483852386e-02,-7.095449604094028473e-03,-6.201164424419403076e-02,-2.019920386373996735e-02,-3.525272756814956665e-02,-3.923725336790084839e-02,1.541872788220643997e-02,-6.194261368364095688e-03,-6.461292039602994919e-03,6.612998992204666138e-02,-9.212981909513473511e-03,8.918541483581066132e-03,-3.093189187347888947e-02,-5.711967591196298599e-03,2.314150519669055939e-02,-3.116143122315406799e-02,6.237340718507766724e-02,3.307704627513885498e-02,-1.649743318557739258e-02,2.569323405623435974e-02,7.597854360938072205e-03,3.517327457666397095e-02,2.815770218148827553e-03,-2.109277527779340744e-03,5.392749793827533722e-03
-3.637694939970970154e-02,3.682352136820554733e-03,3.758702427148818970e-03,4.236701503396034241e-02,-1.643865369260311127e-02,-7.502480410039424896e-03,-5.009402334690093994e-02,-4.263948649168014526e-02,-5.817542225122451782e-02,-4.119936749339103699e-02,-4.343050345778465271e-02,-1.687089353799819946e-02,-2.451317757368087769e-02,-5.917214229702949524e-02,1.859581284224987030e-02,1.315802917815744877e-03,-3.646889328956604004e-02,-1.603394560515880585e-02,-3.045952180400490761e-03,3.077004849910736084e-02,3.604099154472351074e-02,-2.773201838135719299e-02,4.476326331496238708e-02,-4.051276668906211853e-02,2.053977921605110168e-02,-1.124465931206941605e-02,4.303165525197982788e-02,-8.197345770895481110e-03,-2.838551625609397888e-02,6.455188989639282227e-02,-2.501474134624004364e-02,9.280271828174591064e-03,3.828608617186546326e-02,-3.424055129289627075e-02,-4.551482573151588440e-02,-3.657421469688415527e-02,-1.666732318699359894e-02,2.261883206665515900e-02,-4.277310520410537720e-02,-1.800122298300266266e-02,3.129598870873451233e-02,4.874885454773902893e-02,-2.659334056079387665e-02,4.289352521300315857e-02,1.642261445522308350e-02,6.958719342947006226e-02,2.731894701719284058e-02,-8.141457103192806244e-03,-5.031137913465499878e-02,5.926590040326118469e-02,2.652951888740062714e-02,3.806029213592410088e-03,-3.388099744915962219e-02,6.088967248797416687e-02,5.811967328190803528e-02,-2.273206040263175964e-02,6.406925618648529053e-02,-7.359960116446018219e-03,5.844665691256523132e-02,-8.117626421153545380e-03,-8.682436309754848480e-04,-6.649436429142951965e-03,-7.939648930914700031e-04,2.577447704970836639e-02,-8.946412126533687115e-04,-1.095375977456569672e-02,3.414174169301986694e-02,1.872891932725906372e-02,-2.298838272690773010e-02,1.033739186823368073e-03,3.024128265678882599e-02,-6.357630342245101929e-02,-3.962860442698001862e-03,-5.712508037686347961e-02,-2.052527479827404022e-02,-1.406309474259614944e-02,1.259082369506359100e-02,3.287287056446075439e-02,2.401927858591079712e-02,-1.734687574207782745e-02,-2.255566790699958801e-02,5.417835898697376251e-03,4.013191163539886475e-02,-5.492398142814636230e-02,1.413386780768632889e-02,5.716350860893726349e-03,7.091459631919860840e-02,1.697774790227413177e-02,-3.098949044942855835e-02,-4.252956807613372803e-02,-1.740591716952621937e-03,-2.623844658955931664e-03,2.613085089251399040e-04,2.095584198832511902e-02,-4.296338930726051331e-02,5.505349114537239075e-02,4.961438849568367004e-02,3.524361178278923035e-02,3.626998141407966614e-02,-2.266358770430088043e-02,-3.876403905451297760e-03,-6.367214024066925049e-02,6.101426482200622559e-02,2.983715198934078217e-02,1.684669032692909241e-02,1.152130868285894394e-02,7.893949514254927635e-04,-3.959926590323448181e-02,-3.406284749507904053e-02,4.723226651549339294e-02,6.769419647753238678e-03,-2.924965880811214447e-02,3.163344785571098328e-02,-1.309142727404832840e-02,4.117705672979354858e-02,4.721788316965103149e-02,-3.587834164500236511e-02,3.352269157767295837e-02,5.100388452410697937e-02,-1.630760729312896729e-02,3.024200722575187683e-02,-1.002657320350408554e-02,1.800908520817756653e-02,5.402300134301185608e-02,-8.106012828648090363e-03,-3.314496204257011414e-02,-3.748502209782600403e-02,1.757331937551498413e-02
-1.084532123059034348e-03,-7.013317663222551346e-03,2.348054014146327972e-02,-2.518311142921447754e-02,2.165303193032741547e-02,7.177368737757205963e-03,-2.480133995413780212e-02,-2.023504488170146942e-02,2.461338602006435394e-02,2.150762081146240234e-02,-9.012231603264808655e-03,2.873939834535121918e-02,-3.997924551367759705e-02,-3.077739849686622620e-03,-2.802304364740848541e-02,-4.067600145936012268e-02,-3.361878171563148499e-02,-1.405417174100875854e-02,-3.943121433258056641e-02,-7.259369362145662308e-03,-2.137617208063602448e-02,-2.661621198058128357e-02,1.102368254214525223e-02,5.038117617368698120e-02,-1.630975678563117981e-02,-6.332798511721193790e-04,-1.139608677476644516e-02,1.632605679333209991e-02,-1.609236700460314751e-03,2.659583650529384613e-02,-5.505862832069396973e-02,6.909583229571580887e-03,-8.842512033879756927e-03,1.743534207344055176e-02,-6.314286496490240097e-03,1.263469364494085312e-02,-1.560705993324518204e-02,3.582835569977760315e-02,6.107436865568161011e-02,3.402017056941986084e-02,-3.105432726442813873e-03,-7.569902576506137848e-03,7.965084165334701538e-03,3.977406769990921021e-02,-1.160926418378949165e-03,-2.355384081602096558e-02,4.870228096842765808e-02,3.731842339038848877e-02,-1.640480570495128632e-02,-2.657531527802348137e-03,2.242035232484340668e-02,5.033480376005172729e-02,-1.125776022672653198e-02,2.946517243981361389e-02,-4.775428213179111481e-03,-1.971406675875186920e-02,-1.718027144670486450e-02,3.354227170348167419e-02,2.502118237316608429e-02,9.512379183433949947e-04,-1.632059738039970398e-02,-5.735248327255249023e-02,-1.025750581175088882e-02,-1.959371380507946014e-02,-3.598949313163757324e-02,-1.796180568635463715e-02,-3.307331353425979614e-02,-4.199101775884628296e-02,-1.371608115732669830e-02,2.695972286164760590e-02,-2.172449044883251190e-02,-5.762315541505813599e-02,3.395050391554832458e-02,-8.224611170589923859e-03,-6.023538857698440552e-02,-5.132043361663818359e-02,-1.426720432937145233e-02,-1.946191489696502686e-02,-1.221072953194379807e-02,1.056938059628009796e-02,-3.013599105179309845e-02,3.283092007040977478e-02,-1.792244426906108856e-02,-3.959786519408226013e-02,-4.639944434165954590e-02,-4.115188028663396835e-03,3.969199210405349731e-02,5.519593134522438049e-03,-5.675033479928970337e-02,-3.354433691129088402e-03,2.076590061187744141e-02,-4.137820564210414886e-03,7.422222755849361420e-03,4.021080583333969116e-02,-2.485047653317451477e-02,-3.139980137348175049e-02,-6.779929995536804199e-02,-2.276461943984031677e-02,-1.287001743912696838e-02,2.084446325898170471e-02,4.572392627596855164e-02,-1.495720911771059036e-02,-4.032340273261070251e-02,-2.761612460017204285e-02,-4.865880589932203293e-03,3.401388972997665405e-02,5.012952722609043121e-03,3.504063189029693604e-02,-5.007820203900337219e-03,-8.654791861772537231e-03,-2.305982075631618500e-02,3.324033319950103760e-02,3.768610581755638123e-02,3.178371489048004150e-02,3.773730620741844177e-02,-9.533599019050598145e-03,4.472130164504051208e-02,4.196656122803688049e-02,-4.118334501981735229e-02,1.499393116682767868e-02,-1.635439693927764893e-03,3.148660808801651001e-02,1.650607958436012268e-02,1.850374601781368256e-02,-3.926391527056694031e-02,-2.676353044807910919e-02,-3.157533239573240280e-03,-3.917730227112770081e-02
-2.045494504272937775e-02,-5.343332514166831970e-02,1.140164304524660110e-02,-1.408618129789829254e-02,9.293658658862113953e-03,-1.228756643831729889e-02,6.335566192865371704e-02,-1.091680256649851799e-03,3.568457439541816711e-02,3.840179741382598877e-02,3.404932469129562378e-02,-4.716108739376068115e-02,5.343727394938468933e-02,3.039798885583877563e-02,-1.021976582705974579e-02,-3.773133084177970886e-02,3.142602369189262390e-02,-9.254571050405502319e-03,2.218717895448207855e-02,5.158714205026626587e-02,6.770062446594238281e-02,1.477303914725780487e-02,1.321820449084043503e-02,1.493089739233255386e-02,-2.182162366807460785e-02,-5.926148034632205963e-03,-1.513528451323509216e-02,2.716961316764354706e-02,-3.418359905481338501e-03,-2.044885884970426559e-03,-4.921804741024971008e-02,5.209764093160629272e-02,4.747479781508445740e-02,1.155193336308002472e-02,-6.346493493765592575e-03,1.096172374673187733e-03,-2.860212884843349457e-02,-1.137089449912309647e-02,2.154554612934589386e-02,-1.501695532351732254e-02,2.040924504399299622e-02,2.028728276491165161e-02,-3.612347319722175598e-02,4.220176488161087036e-02,5.130225908942520618e-04,-4.122694954276084900e-02,4.285261500626802444e-03,2.422055229544639587e-02,1.914016902446746826e-02,7.607345003634691238e-03,2.548170462250709534e-02,-1.822778582572937012e-02,2.090092562139034271e-02,-4.749316722154617310e-02,3.707432746887207031e-02,-4.077332839369773865e-02,3.290938958525657654e-02,2.119872160255908966e-02,7.160202367231249809e-04,2.180416695773601532e-02,-1.875526359071955085e-04,-1.483426545746624470e-03,-1.976148225367069244e-02,1.272746361792087555e-02,2.412122488021850586e-02,-4.157909192144870758e-03,-2.251149527728557587e-02,-7.697083055973052979e-03,-1.756410859525203705e-02,5.030812695622444153e-02,2.551595494151115417e-02,-4.982159007340669632e-04,3.261257708072662354e-02,-2.742187818512320518e-03,-8.089840412139892578e-03,6.314181536436080933e-02,6.576268374919891357e-02,6.721260398626327515e-02,1.214272342622280121e-02,3.683105483651161194e-02,-2.814793260768055916e-03,-3.981986641883850098e-02,7.138359546661376953e-02,-4.547478165477514267e-03,-6.384072359651327133e-03,2.348182164132595062e-02,3.994563221931457520e-02,3.006999008357524872e-02,1.586792804300785065e-02,-5.638929083943367004e-03,1.176487468183040619e-02,1.087207999080419540e-02,-6.801958661526441574e-03,-5.768724903464317322e-02,3.657236695289611816e-02,3.954571112990379333e-02,2.423924766480922699e-02,-1.610499247908592224e-02,-9.242675267159938812e-03,4.272444639354944229e-03,-4.756073653697967529e-02,-2.994422055780887604e-02,-4.902434349060058594e-02,-8.408313617110252380e-03,3.233669325709342957e-02,3.900768235325813293e-02,4.423844441771507263e-02,-3.901642560958862305e-02,-4.328446090221405029e-02,-7.052642107009887695e-02,3.061337582767009735e-02,6.984090898185968399e-03,4.850803688168525696e-02,6.676231976598501205e-03,1.571597531437873840e-02,-4.284578189253807068e-02,1.232689595781266689e-03,4.522467404603958130e-02,1.444522384554147720e-02,1.112860534340143204e-02,5.056782066822052002e-02,2.412531524896621704e-02,2.855579555034637451e-02,-2.619337523356080055e-03,5.312931723892688751e-03,-3.214652836322784424e-02,2.241018787026405334e-02,-1.750776544213294983e-03
-3.453584620729088783e-03,-9.708505123853683472e-03,3.644071519374847412e-02,-4.910864308476448059e-02,1.599838957190513611e-02,-4.437584802508354187e-02,3.077130764722824097e-02,-2.883931249380111694e-02,-1.890884712338447571e-02,-1.895987242460250854e-02,1.822647266089916229e-02,-3.074963018298149109e-02,-5.036131944507360458e-03,8.224312216043472290e-03,-9.584270417690277100e-03,4.585892707109451294e-02,3.684767335653305054e-02,5.173406749963760376e-02,-6.720452010631561279e-02,2.180888131260871887e-02,6.054232642054557800e-02,-4.022949375212192535e-03,-4.474425315856933594e-02,3.926347941160202026e-02,4.217492416501045227e-03,2.577417343854904175e-02,2.059994451701641083e-02,5.995450913906097412e-02,-4.391665570437908173e-03,7.040891796350479126e-02,-4.893912002444267273e-03,-1.505747437477111816e-02,-3.600687161087989807e-02,-4.085915163159370422e-02,3.617298975586891174e-02,5.312746390700340271e-02,5.330024659633636475e-02,1.199328899383544922e-02,-1.221422571688890457e-02,-2.330399677157402039e-02,1.755177509039640427e-03,6.197460368275642395e-02,-2.158663980662822723e-02,1.134338136762380600e-02,-3.648547828197479248e-02,1.278805360198020935e-02,-4.807098209857940674e-02,5.738712474703788757e-02,-2.482501231133937836e-02,4.647802934050559998e-02,-1.591725833714008331e-02,-3.065493330359458923e-02,-7.944772951304912567e-03,1.068946439772844315e-03,-1.672753691673278809e-02,4.252626001834869385e-02,-2.343493886291980743e-02,-1.571283116936683655e-02,2.769184997305274010e-03,-1.418530475348234177e-02,-9.785498492419719696e-03,-4.066980630159378052e-02,1.907246746122837067e-02,4.502123594284057617e-02,-7.518671918660402298e-03,-2.643248066306114197e-02,-3.617440164089202881e-02,-5.158736184239387512e-02,2.529621496796607971e-02,-1.733027398586273193e-02,1.965897530317306519e-02,-2.661335654556751251e-02,-5.297603458166122437e-02,-4.112358205020427704e-03,-2.409893320873379707e-03,3.736658720299601555e-03,3.445354476571083069e-02,2.710996009409427643e-02,5.752420052886009216e-02,1.925588771700859070e-02,-2.208020910620689392e-02,-3.924849256873130798e-02,4.835835192352533340e-03,2.440503425896167755e-02,4.434156045317649841e-02,-2.961083315312862396e-02,-3.034984506666660309e-02,3.497110679745674133e-02,2.105915546417236328e-02,-1.310017704963684082e-02,-4.975433275103569031e-02,1.527074351906776428e-02,1.870730891823768616e-02,4.727576300501823425e-02,3.368597850203514099e-02,2.524441108107566833e-02,1.031668856739997864e-02,3.672509640455245972e-02,-5.670130625367164612e-02,-6.531910598278045654e-02,6.060950458049774170e-02,-4.315892234444618225e-03,6.549722701311111450e-02,1.918077282607555389e-02,2.947467006742954254e-02,3.132816404104232788e-02,3.005375340580940247e-02,-1.189083792269229889e-02,-6.394045799970626831e-02,4.071393609046936035e-02,-4.469219222664833069e-02,1.294764690101146698e-02,-2.007738873362541199e-02,1.424330938607454300e-02,1.533253863453865051e-02,3.639899427071213722e-03,-2.731963805854320526e-02,-3.338526934385299683e-02,-2.999583072960376740e-02,-5.098406970500946045e-02,-3.174849227070808411e-02,-9.856423363089561462e-03,-6.701094657182693481e-02,2.063457109034061432e-02,6.062046438455581665e-02,-1.626914739608764648e-02,-2.803143812343478203e-03,1.354722119867801666e-02
-4.143788479268550873e-03,6.524144206196069717e-03,4.291439428925514221e-02,-2.815272472798824310e-02,-3.217422589659690857e-02,-1.562418788671493530e-02,4.638066515326499939e-02,-1.046193763613700867e-02,-6.447507534176111221e-03,-2.259188517928123474e-02,-1.181807462126016617e-02,1.857708790339529514e-03,-4.005980864167213440e-02,-6.153990514576435089e-03,1.996272243559360504e-02,-6.938382983207702637e-02,-5.286030471324920654e-02,-7.018927484750747681e-02,-6.622407585382461548e-02,3.766944259405136108e-02,3.475259244441986084e-02,4.898979142308235168e-02,-1.647199876606464386e-02,-4.289129748940467834e-02,-4.404892399907112122e-02,1.588337495923042297e-02,-2.431454323232173920e-02,-6.933135539293289185e-02,1.039236690849065781e-02,-3.665495663881301880e-02,-2.791773714125156403e-02,3.452716395258903503e-02,3.318687202408909798e-03,-2.625885605812072754e-02,3.453554585576057434e-02,2.841958962380886078e-02,4.039340466260910034e-02,-2.160589769482612610e-02,-2.468698471784591675e-02,-2.703974721953272820e-03,-2.051162160933017731e-02,-3.611171990633010864e-02,6.510197371244430542e-02,1.740113273262977600e-02,-5.889435112476348877e-02,-6.049653049558401108e-03,-4.240319877862930298e-02,-7.859358564019203186e-03,1.531823188997805119e-03,-1.869784854352474213e-02,-5.864459276199340820e-02,-1.026327628642320633e-02,-1.341773662716150284e-02,-1.649535819888114929e-02,-2.969420980662107468e-03,8.188040927052497864e-03,1.058693137019872665e-02,1.673428155481815338e-02,2.524238266050815582e-02,-6.480074953287839890e-03,-2.446871809661388397e-02,-5.955910310149192810e-03,4.414648562669754028e-02,1.577896252274513245e-02,2.481172792613506317e-02,4.459048435091972351e-02,2.129364944994449615e-02,4.388455301523208618e-02,-6.820283364504575729e-03,-3.477894887328147888e-02,-7.912496104836463928e-03,-1.445342507213354111e-02,-1.935865171253681183e-02,-2.558974362909793854e-02,5.172959342598915100e-02,-8.124001324176788330e-03,1.727614668197929859e-03,-2.318116463720798492e-02,1.287546474486589432e-02,-1.350199431180953979e-02,2.195153757929801941e-02,3.644061461091041565e-02,1.498368848115205765e-02,6.262665987014770508e-02,3.003515489399433136e-02,3.761462867259979248e-02,-2.206496708095073700e-02,2.221973054111003876e-02,5.140018090605735779e-02,2.710321731865406036e-02,4.791566357016563416e-02,5.065939575433731079e-02,2.122118324041366577e-02,-3.414949774742126465e-02,-3.522929549217224121e-02,-2.176785143092274666e-03,4.490491375327110291e-02,-2.917385287582874298e-02,-4.420416057109832764e-02,2.273219265043735504e-02,-7.033278048038482666e-02,-2.674684859812259674e-02,1.724985986948013306e-02,1.649043522775173187e-03,3.357321396470069885e-02,-4.281948879361152649e-02,-5.899439565837383270e-03,-2.075567655265331268e-02,2.239169739186763763e-02,-1.513865031301975250e-02,-1.148185972124338150e-02,-1.084416452795267105e-02,4.042188811581581831e-04,-3.599159047007560730e-02,-6.608281284570693970e-02,-3.516917675733566284e-02,-9.082389995455741882e-03,4.006202518939971924e-02,-2.676632627844810486e-02,4.913306981325149536e-02,-6.070464849472045898e-02,-6.917517632246017456e-03,-3.873090445995330811e-02,2.838815189898014069e-02,-1.080878265202045441e-02,2.686569280922412872e-02,-3.242750465869903564e-02,1.178429648280143738e-02
-3.662577271461486816e-02,5.663921684026718140e-02,-2.242146246135234833e-02,3.637413680553436279e-02,2.439795993268489838e-02,2.002787217497825623e-02,3.287387639284133911e-02,-1.221617124974727631e-02,-1.207398530095815659e-02,-6.662276387214660645e-02,-2.546058222651481628e-02,7.028794381767511368e-03,8.102110587060451508e-03,-3.739488869905471802e-02,-2.747665718197822571e-02,2.853823266923427582e-02,1.993458345532417297e-02,-3.121125698089599609e-02,9.155173785984516144e-03,4.304660111665725708e-02,3.588529303669929504e-02,-2.321605756878852844e-02,2.784334309399127960e-02,2.821732126176357269e-02,-9.862260892987251282e-03,1.748776063323020935e-02,-5.333547666668891907e-02,-2.032480761408805847e-02,-5.653633270412683487e-04,-6.080906372517347336e-03,-8.125301450490951538e-03,4.018598422408103943e-02,1.128855068236589432e-02,-3.070332854986190796e-02,-4.073350876569747925e-02,3.320835903286933899e-02,2.728802338242530823e-02,2.793277148157358170e-03,5.753541830927133560e-03,8.577934466302394867e-03,-3.372398763895034790e-02,-5.014328286051750183e-02,-2.730865031480789185e-02,-4.262429848313331604e-02,4.612347856163978577e-02,6.810352671891450882e-03,-2.183062769472599030e-02,3.544290736317634583e-02,3.813286125659942627e-02,-1.869144034571945667e-03,-7.542934734374284744e-03,-1.844169013202190399e-02,-4.906321410089731216e-04,-2.579483948647975922e-02,-4.672120790928602219e-03,-1.618790999054908752e-02,-1.654595718719065189e-03,1.358374580740928650e-02,-4.134916141629219055e-02,7.764831651002168655e-03,5.105518549680709839e-02,1.636351458728313446e-02,-1.739277504384517670e-02,-2.737474814057350159e-02,-2.543523442000150681e-03,1.180705800652503967e-02,5.200481042265892029e-02,-3.064541891217231750e-02,1.129302475601434708e-02,-1.108081894926726818e-03,-1.418664492666721344e-02,3.276636451482772827e-02,5.549430847167968750e-02,2.962330356240272522e-02,-2.989618573337793350e-03,-3.044351935386657715e-02,-1.242987782461568713e-04,-3.094880841672420502e-02,1.148375682532787323e-02,1.162337791174650192e-02,-8.628044277429580688e-03,-1.672246865928173065e-02,-2.286214940249919891e-02,1.906315982341766357e-02,2.509428374469280243e-02,-4.669750481843948364e-02,-2.473302930593490601e-02,-5.993581563234329224e-02,1.824064925312995911e-02,3.619783557951450348e-03,-1.909962110221385956e-02,2.430291101336479187e-02,1.004304550588130951e-02,-4.811976104974746704e-03,1.321930810809135437e-02,-1.537603326141834259e-02,-4.221267998218536377e-02,-4.809693247079849243e-02,2.990795671939849854e-02,-1.199597306549549103e-02,-9.518649429082870483e-03,-1.174919027835130692e-02,1.832177489995956421e-02,-1.012555975466966629e-02,2.445748820900917053e-02,3.768326714634895325e-02,1.761279627680778503e-02,8.648465387523174286e-03,1.004538312554359436e-02,-4.197103902697563171e-02,-3.053672378882765770e-03,-4.463602975010871887e-02,2.689804695546627045e-02,-1.059888396412134171e-02,-8.700046688318252563e-03,1.099314074963331223e-02,-1.955446787178516388e-03,-7.446099538356065750e-03,2.650980837643146515e-02,1.712897419929504395e-02,-3.567219898104667664e-02,2.055726386606693268e-02,-1.756456098519265652e-03,-2.558044716715812683e-02,-4.475287348031997681e-02,-1.246977783739566803e-02,6.341616390272974968e-04,-4.328644648194313049e-02
-3.700030967593193054e-02,5.959937721490859985e-02,2.958662807941436768e-02,6.542191654443740845e-02,-1.913588680326938629e-02,-4.947202280163764954e-03,5.571773648262023926e-02,5.278899893164634705e-02,-3.933336585760116577e-03,-3.651358652859926224e-03,2.876163646578788757e-02,1.919903419911861420e-02,2.913948334753513336e-02,2.526334486901760101e-02,1.033112965524196625e-02,3.320537135004997253e-02,-2.683204598724842072e-02,3.202503174543380737e-02,-3.273709118366241455e-02,-3.836576640605926514e-02,-7.057154178619384766e-02,-5.282967351377010345e-03,-7.091698795557022095e-02,-3.086369670927524567e-02,2.301382645964622498e-02,1.533375214785337448e-02,1.557442173361778259e-02,-2.250662632286548615e-02,1.624370738863945007e-02,-3.395876148715615273e-03,-1.793887279927730560e-02,1.186470035463571548e-02,2.311697974801063538e-02,-3.779932856559753418e-02,-4.100411385297775269e-02,-6.055359169840812683e-02,-1.645671576261520386e-02,-5.844236537814140320e-02,1.703269034624099731e-02,6.335107143968343735e-03,-3.115917742252349854e-02,2.718445286154747009e-02,-2.055488061159849167e-03,3.184475749731063843e-02,2.230165712535381317e-02,9.806104004383087158e-03,2.772199735045433044e-02,-7.078895810991525650e-03,-4.424690827727317810e-02,1.910681463778018951e-02,5.146293342113494873e-02,1.772920042276382446e-02,7.080724835395812988e-02,-2.766783721745014191e-02,-4.629564657807350159e-02,3.516135737299919128e-02,3.063868544995784760e-02,5.014751479029655457e-02,2.130497805774211884e-02,7.008702959865331650e-03,6.831274181604385376e-02,-3.854276612401008606e-02,-1.350423879921436310e-02,-4.329284187406301498e-03,2.367775700986385345e-02,6.750486791133880615e-02,-2.038848400115966797e-02,-7.458906620740890503e-03,-3.546492382884025574e-02,2.782402932643890381e-02,1.296363491564989090e-02,-2.084183273836970329e-03,2.743911929428577423e-03,3.896202892065048218e-02,2.024263888597488403e-02,-2.484371326863765717e-02,-1.883336529135704041e-02,1.822857186198234558e-02,3.647242486476898193e-02,-1.949569396674633026e-02,1.687311567366123199e-02,3.061977215111255646e-02,2.248560637235641479e-02,2.940790541470050812e-02,-3.142711892724037170e-02,4.439061135053634644e-02,-3.273035213351249695e-02,-2.823497913777828217e-02,-1.267934683710336685e-03,-4.913143441081047058e-02,8.507379330694675446e-03,-2.301561646163463593e-02,-5.262603238224983215e-02,-4.459855146706104279e-03,-6.080399453639984131e-02,1.977934874594211578e-02,1.978646032512187958e-02,-3.164913132786750793e-02,-9.930930100381374359e-03,5.256318673491477966e-02,2.408906444907188416e-02,4.115901142358779907e-02,-1.038415357470512390e-02,-4.808086529374122620e-02,-2.575194276869297028e-02,2.699019387364387512e-02,-1.599759608507156372e-02,1.818097755312919617e-02,6.986222579143941402e-04,2.582373470067977905e-02,-6.258984562009572983e-03,-2.084668353199958801e-02,4.781339317560195923e-02,-5.728511139750480652e-02,6.085902918130159378e-03,-1.941369264386594296e-03,-4.925922676920890808e-02,1.503974385559558868e-02,6.721165031194686890e-02,3.155171498656272888e-02,-6.266427692025899887e-03,1.044684927910566330e-02,3.255124390125274658e-02,6.403245497494935989e-03,-4.618619382381439209e-02,-2.934045158326625824e-02,2.703753672540187836e-02,-2.575945109128952026e-02
-2.875595819205045700e-03,-6.611802615225315094e-03,-2.848150394856929779e-02,1.762676797807216644e-02,-6.697626784443855286e-03,6.784222275018692017e-02,3.868528828024864197e-02,1.447963807731866837e-02,-1.851514726877212524e-02,-1.364435255527496338e-02,7.141055166721343994e-02,2.974029630422592163e-02,8.295438252389431000e-03,-4.462568089365959167e-02,5.895570665597915649e-02,-1.529177092015743256e-02,5.552483256906270981e-03,7.545991800725460052e-03,-3.637227229773998260e-03,-8.181888610124588013e-03,-2.357245393795892596e-04,2.017282508313655853e-02,9.811152704060077667e-03,-6.807886529713869095e-03,-4.030348267406225204e-03,-3.043786622583866119e-02,5.247518792748451233e-02,1.475923694670200348e-02,5.506442487239837646e-02,2.159401960670948029e-02,-5.430010706186294556e-02,4.105982836335897446e-03,-5.240356549620628357e-02,-3.943348675966262817e-02,-2.775069326162338257e-02,-2.593389712274074554e-02,3.136459365487098694e-02,5.704709142446517944e-02,-6.440069526433944702e-02,-3.690584003925323486e-02,-3.084623441100120544e-02,-2.796194702386856079e-02,-1.966600678861141205e-02,3.166350349783897400e-02,5.157243087887763977e-02,6.450914312154054642e-03,-3.371760621666908264e-02,-3.499202057719230652e-02,2.804470947012305260e-03,-3.850672394037246704e-02,-3.818523883819580078e-02,6.456487346440553665e-03,-2.122678793966770172e-03,-2.522420324385166168e-02,4.032158479094505310e-02,-1.536782924085855484e-02,-6.454265862703323364e-02,-5.111091211438179016e-02,-2.318581007421016693e-02,3.137087821960449219e-02,-3.480136394500732422e-02,-4.938303306698799133e-02,2.998157776892185211e-02,4.703932628035545349e-02,-1.696618646383285522e-02,-2.859196392819285393e-03,2.746383287012577057e-02,2.399711124598979950e-02,-4.957594349980354309e-02,-1.109167817048728466e-03,5.712105333805084229e-02,6.365745328366756439e-03,3.212008997797966003e-02,2.364146336913108826e-02,2.157462947070598602e-02,7.451626006513834000e-04,5.504614859819412231e-02,3.034592419862747192e-02,3.312715515494346619e-02,-3.057115711271762848e-02,-1.238889526575803757e-02,9.657775051891803741e-03,-1.258233329281210899e-03,-5.051898583769798279e-02,-4.476572945713996887e-02,-6.227261386811733246e-03,1.942426711320877075e-02,5.041353777050971985e-02,-2.210338786244392395e-02,2.279814891517162323e-02,-1.264003757387399673e-02,-2.082435414195060730e-02,-4.187950119376182556e-02,5.386120080947875977e-02,6.801065057516098022e-02,-2.431133016943931580e-02,3.723304346203804016e-02,4.326097294688224792e-02,2.863385342061519623e-02,-4.142360389232635498e-02,-2.419144660234451294e-02,-1.325133722275495529e-02,-1.536475028842687607e-04,-1.451645605266094208e-02,4.395634308457374573e-02,1.831529475748538971e-02,3.845581086352467537e-03,7.564603351056575775e-03,-9.915038011968135834e-03,-6.164093315601348877e-02,-4.582577571272850037e-02,-2.601554617285728455e-02,-1.406919909641146660e-03,-3.034199401736259460e-02,-1.587795908562839031e-03,-2.725324593484401703e-02,-6.909143924713134766e-02,-2.901686122640967369e-03,6.373540963977575302e-03,-1.593380607664585114e-02,5.590559449046850204e-03,-2.483007265254855156e-04,1.621676981449127197e-02,-1.549918018281459808e-02,-1.225987449288368225e-02,-7.669173646718263626e-03,6.054501980543136597e-02,-3.961495310068130493e-02
1.176393870264291763e-02,1.501619350165128708e-03,-3.858604282140731812e-02,-1.709746196866035461e-03,-2.655719779431819916e-02,4.059804230928421021e-02,1.088078413158655167e-02,3.202094137668609619e-02,2.077246643602848053e-02,5.276740994304418564e-03,5.716772750020027161e-02,-4.516540840268135071e-02,3.046871349215507507e-02,-1.109372265636920929e-02,-2.250669710338115692e-02,-1.601663231849670410e-02,-4.047377035021781921e-02,3.055914118885993958e-02,-5.704171583056449890e-02,5.647296085953712463e-02,1.016758661717176437e-02,1.317981909960508347e-02,5.028940737247467041e-02,-3.768163500353693962e-03,-1.711045019328594208e-02,-6.044919416308403015e-02,9.951880201697349548e-03,-1.116907875984907150e-02,1.747449114918708801e-02,-3.127869591116905212e-02,3.563646925613284111e-03,-5.763789266347885132e-02,-3.288888931274414062e-02,-1.124996412545442581e-02,3.217832744121551514e-02,2.803966403007507324e-02,6.939854472875595093e-03,5.546980351209640503e-02,-3.454184904694557190e-02,-1.951022446155548096e-02,9.298076853156089783e-03,-2.242934145033359528e-02,1.852239482104778290e-02,-4.360841587185859680e-02,3.311365470290184021e-02,4.628379642963409424e-02,2.043869532644748688e-02,-1.152131892740726471e-02,-5.384570360183715820e-02,2.970795333385467529e-02,-1.190465129911899567e-02,-3.344498947262763977e-02,2.255199104547500610e-02,-1.911978819407522678e-03,6.516387313604354858e-02,-5.006668344140052795e-02,2.290432900190353394e-02,-1.075538620352745056e-02,3.284693881869316101e-02,2.886285074055194855e-02,-8.116995915770530701e-03,3.803547471761703491e-02,5.095391720533370972e-02,6.464405357837677002e-02,-7.169703021645545959e-03,2.914742752909660339e-02,2.858274057507514954e-02,2.870658226311206818e-02,-2.502289600670337677e-02,-1.096245460212230682e-02,5.600831657648086548e-02,2.075238525867462158e-02,9.576259180903434753e-03,1.118950359523296356e-02,-8.191812783479690552e-03,2.416598238050937653e-02,3.506864979863166809e-02,8.300266228616237640e-03,-1.079590711742639542e-02,-6.663522869348526001e-02,-2.566010225564241409e-03,-4.285401199012994766e-03,-5.446245428174734116e-03,1.062819827347993851e-02,-4.209594801068305969e-02,-3.434255253523588181e-03,-3.684302419424057007e-02,1.242079865187406540e-02,3.116036020219326019e-02,5.679716356098651886e-03,-5.947985500097274780e-02,-3.588863834738731384e-02,4.064517095685005188e-02,3.378651291131973267e-02,-2.006468921899795532e-02,6.001232191920280457e-03,3.468522056937217712e-02,-5.720068141818046570e-02,1.065072603523731232e-02,-4.499335587024688721e-02,-1.329865888692438602e-03,-1.823594421148300171e-02,-4.683087021112442017e-02,7.070923224091529846e-03,-2.914260886609554291e-02,2.028443850576877594e-02,-5.547775700688362122e-02,-4.683484882116317749e-02,-1.686507835984230042e-02,8.274708874523639679e-03,1.948836073279380798e-02,1.708691567182540894e-02,1.718245260417461395e-02,-3.358691930770874023e-03,4.381245747208595276e-02,9.690986946225166321e-03,-9.745946153998374939e-03,2.980343252420425415e-02,-1.004348229616880417e-02,2.096320874989032745e-02,2.460276894271373749e-02,4.756730049848556519e-02,-3.663872368633747101e-03,-2.246260270476341248e-02,-1.085551688447594643e-03,-1.099048089236021042e-02,4.093126207590103149e-02,1.972103863954544067e-02
-3.477925434708595276e-02,5.141301825642585754e-02,-3.447495400905609131e-02,4.176546260714530945e-02,1.217929832637310028e-02,5.405673757195472717e-02,-3.540270775556564331e-02,-2.825881168246269226e-02,5.052215605974197388e-02,1.104598771780729294e-02,-1.321948366239666939e-03,3.807162120938301086e-02,1.064074132591485977e-02,-9.127664379775524139e-03,3.018895536661148071e-02,5.827450752258300781e-02,-1.157869305461645126e-02,-2.279628627002239227e-02,1.627370365895330906e-03,-3.400675207376480103e-02,4.607394710183143616e-02,6.668273359537124634e-02,6.048141978681087494e-03,-2.439619787037372589e-02,-3.863494470715522766e-02,1.529223192483186722e-02,-3.917630016803741455e-02,-5.728640407323837280e-02,1.685487478971481323e-02,4.701793938875198364e-02,-1.024594763293862343e-03,1.381251774728298187e-02,-2.046691626310348511e-02,-4.698755592107772827e-02,1.012884604278951883e-04,-2.542439475655555725e-02,-8.110444992780685425e-03,-6.761307828128337860e-03,-6.473960727453231812e-02,7.762690540403127670e-03,-1.191156730055809021e-02,2.507769316434860229e-02,-3.118656203150749207e-02,-5.233136564493179321e-02,-9.435449726879596710e-03,-5.424678791314363480e-03,-3.891107439994812012e-02,2.258330024778842926e-02,2.874086983501911163e-02,-1.803669705986976624e-02,1.687285839579999447e-03,2.560527995228767395e-02,2.049164846539497375e-02,2.454329282045364380e-02,3.043538890779018402e-02,-9.423571638762950897e-03,1.433908473700284958e-02,2.395023591816425323e-03,4.961987212300300598e-02,1.801943220198154449e-02,8.710075169801712036e-03,-2.610014751553535461e-02,-5.554117634892463684e-02,2.749245241284370422e-02,3.872121497988700867e-02,-3.055171109735965729e-03,5.369873717427253723e-03,4.581303801387548447e-03,-3.527452703565359116e-03,-2.525688335299491882e-02,-2.474710345268249512e-03,-2.209687419235706329e-02,5.382654443383216858e-02,-3.385099396109580994e-02,-2.687555924057960510e-02,1.267098728567361832e-02,8.534668944776058197e-03,1.931557431817054749e-02,-3.751026466488838196e-02,-6.290347874164581299e-02,3.630715887993574142e-03,6.571316719055175781e-02,-3.626784682273864746e-02,-7.455324754118919373e-03,1.163494400680065155e-02,5.612982437014579773e-02,1.803410425782203674e-02,2.654654532670974731e-02,4.619939997792243958e-02,1.740563102066516876e-02,-3.089817799627780914e-02,5.679870024323463440e-02,-2.156189456582069397e-02,-7.169311400502920151e-03,-1.502596121281385422e-02,6.117561832070350647e-02,5.479057878255844116e-02,2.361687086522579193e-02,8.180656470358371735e-03,2.812044695019721985e-02,4.481012746691703796e-02,7.078194525092840195e-03,-3.072801278904080391e-03,-5.659878998994827271e-02,6.349918432533740997e-03,-5.220683664083480835e-02,-5.713811889290809631e-02,4.383912310004234314e-02,-2.325058542191982269e-02,-2.034950256347656250e-02,-7.397500448860228062e-04,2.238308452069759369e-02,-4.328880459070205688e-02,3.590675443410873413e-02,5.709930323064327240e-03,6.552203092724084854e-03,-3.678281977772712708e-02,7.400531903840601444e-04,3.772192075848579407e-02,4.046086966991424561e-02,-1.700564986094832420e-03,-9.459401480853557587e-03,-4.113335162401199341e-02,4.130496829748153687e-02,-2.401313558220863342e-02,3.640555590391159058e-02,1.766810426488518715e-03,3.191801533102989197e-02
5.918649956583976746e-03,-3.966243006289005280e-03,5.535643547773361206e-02,-2.632462047040462494e-02,-1.735460944473743439e-02,4.704491049051284790e-02,5.558363348245620728e-02,4.123621433973312378e-02,3.165695071220397949e-02,-1.127656642347574234e-02,-2.010627835988998413e-02,1.296699279919266701e-03,-4.407096654176712036e-02,-4.129559919238090515e-02,-4.451361671090126038e-02,-5.011805798858404160e-03,-2.290386706590652466e-03,-2.431605942547321320e-03,-5.789922922849655151e-02,8.930189535021781921e-03,2.042567171156406403e-02,-1.272507198154926300e-02,-2.273342944681644440e-02,-2.428030036389827728e-02,1.404368598014116287e-02,-3.226269036531448364e-02,-5.896463245153427124e-02,1.485372893512248993e-02,6.054101511836051941e-02,-1.605482585728168488e-02,-6.353724002838134766e-02,4.759630654007196426e-03,-2.067276043817400932e-03,4.529100283980369568e-02,-2.791884168982505798e-02,-1.034846156835556030e-02,-1.462903060019016266e-02,-4.426632821559906006e-02,3.205891698598861694e-02,2.406235598027706146e-02,8.577049709856510162e-03,-3.208590205758810043e-04,2.456567250192165375e-02,-4.874550923705101013e-02,1.990724168717861176e-02,-2.530642785131931305e-02,-1.646248251199722290e-02,-6.402163952589035034e-02,-1.540698669850826263e-02,-5.701430886983871460e-02,-9.527914226055145264e-03,-3.974297642707824707e-02,-8.200169540941715240e-03,2.668215660378336906e-03,1.107315439730882645e-02,-9.980528615415096283e-03,-6.196820177137851715e-03,-1.433527842164039612e-02,1.839564181864261627e-02,3.443828225135803223e-02,-2.753776498138904572e-02,-2.342888340353965759e-02,5.642281379550695419e-03,-2.782501839101314545e-02,4.412641376256942749e-02,-2.413404919207096100e-02,4.463334009051322937e-02,-2.780543267726898193e-02,-3.157924395054578781e-03,-3.605303913354873657e-02,2.159174717962741852e-02,-3.092389181256294250e-02,1.857760548591613770e-02,2.422084845602512360e-02,1.001185830682516098e-02,-6.866627931594848633e-02,-7.324040401726961136e-03,3.064449690282344818e-02,5.127399228513240814e-03,4.101517796516418457e-02,4.001066833734512329e-02,9.073387831449508667e-03,-1.804558373987674713e-02,-3.153544664382934570e-02,3.691821917891502380e-02,-9.936461225152015686e-03,-3.631008148659020662e-04,4.635815322399139404e-02,3.107150457799434662e-02,-6.424278835766017437e-04,1.105441595427691936e-03,-2.877082489430904388e-02,4.432303830981254578e-02,-6.293958425521850586e-02,-2.897848375141620636e-02,2.397240139544010162e-02,2.667260915040969849e-02,-2.959144674241542816e-02,-5.419654026627540588e-02,-3.139642626047134399e-02,2.199658378958702087e-02,-2.608935162425041199e-02,5.504704266786575317e-02,1.553143654018640518e-02,4.201847128570079803e-03,7.717874832451343536e-03,3.180447965860366821e-02,-5.371888726949691772e-02,1.675063744187355042e-02,9.258329868316650391e-03,6.204020977020263672e-02,-1.419654581695795059e-02,-1.282440777868032455e-02,2.566973678767681122e-02,1.924438029527664185e-02,-2.064489759504795074e-02,-7.228637114167213440e-03,-5.437985062599182129e-02,-3.947700560092926025e-02,3.806190192699432373e-02,7.313384674489498138e-03,-2.579352073371410370e-02,4.681553691625595093e-02,-1.264901086688041687e-02,5.567516013979911804e-02,-1.453976519405841827e-02,-4.801040515303611755e-02,4.753876850008964539e-02
-3.692113561555743217e-03,1.964488998055458069e-02,-1.003676094114780426e-02,4.236118495464324951e-02,2.531689032912254333e-02,-5.264741927385330200e-02,-2.466418221592903137e-02,-5.335623398423194885e-02,-5.219383910298347473e-02,1.976167783141136169e-02,4.323736205697059631e-02,-2.330787852406501770e-02,-1.348357088863849640e-02,2.169664949178695679e-02,4.951249808073043823e-03,2.769738063216209412e-02,4.570355638861656189e-02,-1.432918943464756012e-02,-4.916533082723617554e-02,-2.179622836410999298e-02,-9.907385334372520447e-03,5.039899423718452454e-02,-3.772881254553794861e-02,-1.719200983643531799e-02,3.181579336524009705e-02,3.200878575444221497e-02,-2.522766124457120895e-03,-6.327441334724426270e-02,-6.022361293435096741e-02,9.134843945503234863e-03,-1.735791191458702087e-02,2.827411299222148955e-05,-8.637513965368270874e-03,5.178735777735710144e-02,2.451504580676555634e-02,5.869501829147338867e-02,-9.859049459919333458e-04,2.035372890532016754e-02,-4.512988030910491943e-02,-1.916572265326976776e-02,-1.496639102697372437e-02,-1.870108954608440399e-02,-2.054964564740657806e-02,2.067008614540100098e-02,-9.517321363091468811e-03,4.957936238497495651e-03,-2.316547743976116180e-02,2.256978861987590790e-02,6.201997748576104641e-04,-5.445857346057891846e-02,2.593516744673252106e-02,3.780042007565498352e-02,-1.673949137330055237e-02,1.967797055840492249e-02,-3.749163355678319931e-03,1.787343062460422516e-02,-4.385930486023426056e-03,-2.203748561441898346e-02,2.982964972034096718e-03,2.023165673017501831e-02,-1.569337211549282074e-02,-5.748686380684375763e-03,-2.828546427190303802e-02,3.191205114126205444e-02,-2.723354101181030273e-02,-1.700365566648542881e-03,-1.492883823812007904e-02,-2.373676560819149017e-02,1.992118172347545624e-02,2.973466878756880760e-03,-3.478549793362617493e-02,3.317793086171150208e-02,-3.812113404273986816e-02,2.218932844698429108e-02,-4.446360841393470764e-02,-5.120647139847278595e-03,-3.659715875983238220e-03,-4.223673045635223389e-02,-3.717600181698799133e-02,-5.968807637691497803e-02,3.709730505943298340e-02,2.367326058447360992e-02,-4.117354284971952438e-03,3.632677346467971802e-02,5.070704594254493713e-02,3.320633620023727417e-02,-1.264074165374040604e-02,-1.128238905221223831e-02,7.025318220257759094e-03,1.786970719695091248e-02,-4.127711872570216656e-04,-2.032718062400817871e-02,-1.528775133192539215e-02,-1.016523875296115875e-02,-2.932406589388847351e-02,1.618941873311996460e-02,4.402289539575576782e-02,-1.384765096008777618e-02,-1.234761346131563187e-02,2.174170874059200287e-02,1.705885864794254303e-02,-5.230979993939399719e-02,-3.955025970935821533e-02,-1.135678868740797043e-02,-3.083712793886661530e-02,1.684983633458614349e-02,-1.762242289260029793e-03,2.532465383410453796e-02,-6.883517652750015259e-02,-6.041148677468299866e-03,3.943947702646255493e-02,-1.370366755872964859e-02,7.479448337107896805e-03,-4.763366281986236572e-02,3.296669945120811462e-02,-5.362918972969055176e-02,-1.247524656355381012e-02,-4.056708514690399170e-02,2.568720467388629913e-02,4.461282864212989807e-02,2.908785268664360046e-02,-2.145464345812797546e-02,1.899163424968719482e-02,-2.702431008219718933e-02,-1.631117053329944611e-02,-1.535652857273817062e-02,4.645927995443344116e-02,-1.730509102344512939e-02
4.136560484766960144e-02,4.810869321227073669e-02,4.454733803868293762e-03,-1.285159611143171787e-03,-2.624424174427986145e-02,4.135171417146921158e-03,-2.658542431890964508e-02,-3.320105001330375671e-02,-7.040994614362716675e-02,1.041001547127962112e-02,1.986303925514221191e-02,-2.074571326375007629e-02,-1.724909991025924683e-02,-5.306584015488624573e-02,1.297899428755044937e-02,2.716247737407684326e-02,8.319510146975517273e-03,7.086722180247306824e-03,8.367038681171834469e-04,-4.439629614353179932e-03,-2.811241894960403442e-02,-3.788106143474578857e-02,3.211339563131332397e-02,6.606083363294601440e-02,-2.055130666121840477e-03,1.782405003905296326e-02,-6.293587852269411087e-03,1.875464990735054016e-02,-1.606257259845733643e-02,-1.252496615052223206e-02,-1.173234637826681137e-02,-4.312497749924659729e-02,1.413177885115146637e-02,7.093476597219705582e-03,-2.205429226160049438e-02,-8.207998238503932953e-03,-2.351025678217411041e-02,-3.703927993774414062e-02,-3.404636681079864502e-02,-4.429538268595933914e-03,-1.118472870439291000e-02,3.065651841461658478e-02,1.531961839646100998e-02,-6.079319864511489868e-02,-4.626507312059402466e-02,3.925706818699836731e-02,-2.005683816969394684e-02,6.037331186234951019e-03,2.734047733247280121e-02,3.424071939662098885e-03,9.480351582169532776e-03,3.434774652123451233e-02,5.433099344372749329e-02,-4.415880888700485229e-02,-2.834693156182765961e-02,-1.231818925589323044e-02,-2.712187916040420532e-02,-1.330238860100507736e-02,-5.944663658738136292e-02,9.846693836152553558e-03,4.051666334271430969e-02,2.389298751950263977e-02,3.060278482735157013e-02,-4.044124484062194824e-02,-3.853306407108902931e-03,8.547664619982242584e-03,1.249310467392206192e-02,2.947633340954780579e-02,3.157676756381988525e-02,-6.600335240364074707e-02,7.096750196069478989e-03,-9.117978624999523163e-03,-5.516507476568222046e-02,-1.728885993361473083e-02,4.563571885228157043e-03,6.464266031980514526e-02,-3.773892670869827271e-02,4.854264482855796814e-02,-6.846377253532409668e-02,5.282788071781396866e-03,-1.828038715757429600e-03,8.748128078877925873e-03,3.241962194442749023e-02,4.667247831821441650e-02,8.571098558604717255e-03,8.457175455987453461e-03,-1.809642836451530457e-02,-3.073667362332344055e-02,2.428912743926048279e-02,-3.612056002020835876e-02,6.079310085624456406e-03,3.590872511267662048e-02,-1.397656928747892380e-02,2.539146691560745239e-02,2.694718306884169579e-03,2.104361169040203094e-02,3.441511839628219604e-02,1.584207289852201939e-03,-4.942439123988151550e-02,-7.603820879012346268e-03,-1.838829484768211842e-03,-1.176939345896244049e-02,7.044642418622970581e-02,5.088625848293304443e-02,-2.494645677506923676e-02,-7.832098752260208130e-03,1.441349275410175323e-02,-3.235866874456405640e-02,3.282830864191055298e-02,-2.416670881211757660e-02,-2.043638750910758972e-02,-1.364220120012760162e-02,-3.594570606946945190e-02,1.546596828848123550e-02,-2.103280462324619293e-02,4.371596500277519226e-02,-2.518464438617229462e-02,-1.947230845689773560e-02,2.249329816550016403e-03,-1.654753275215625763e-02,-2.542630769312381744e-02,-3.972241282463073730e-02,-3.328575938940048218e-02,4.477697238326072693e-02,-5.570908263325691223e-02,2.548053674399852753e-02,4.945632070302963257e-02,6.256841123104095459e-02
2.044243924319744110e-02,-1.847374811768531799e-02,-7.726631127297878265e-03,-4.986377805471420288e-02,2.217543497681617737e-02,-5.902094021439552307e-02,-1.631017215549945831e-02,-1.599156670272350311e-02,-9.937535040080547333e-03,6.142479926347732544e-02,7.670911494642496109e-03,-1.664998196065425873e-02,3.159624757245182991e-03,1.975484658032655716e-03,-1.421096734702587128e-02,2.744019404053688049e-02,4.744471237063407898e-02,-2.351228147745132446e-02,6.391434371471405029e-02,-6.920310109853744507e-02,6.302216090261936188e-03,1.448231749236583710e-02,-5.934505024924874306e-04,1.924944855272769928e-02,1.340443268418312073e-02,-1.075839623808860779e-02,1.952476426959037781e-02,-4.521106556057929993e-02,3.249544277787208557e-02,-5.653864238411188126e-03,-4.258784465491771698e-03,5.996738746762275696e-02,1.045243628323078156e-02,1.921583525836467743e-02,6.302071269601583481e-03,-6.759236752986907959e-02,1.041768305003643036e-02,-1.228547189384698868e-02,-1.552813127636909485e-02,-1.365210954099893570e-02,-2.804093994200229645e-02,2.780072763562202454e-02,-3.547274693846702576e-02,-1.713415421545505524e-02,-6.497363746166229248e-02,-2.393812872469425201e-02,-4.181763902306556702e-02,1.190408878028392792e-02,6.091281026601791382e-02,6.745219230651855469e-03,-1.863696612417697906e-02,2.403353899717330933e-02,-1.598272472620010376e-02,-1.442026440054178238e-02,-5.703523755073547363e-02,-3.321768483147025108e-03,-2.044909074902534485e-02,5.725501105189323425e-02,-2.977238036692142487e-02,1.250601839274168015e-03,6.992550101131200790e-03,1.104938564822077751e-03,3.614069893956184387e-02,-1.307151513174176216e-03,-1.956322230398654938e-02,2.654978772625327110e-03,-1.836085319519042969e-02,1.481709256768226624e-02,9.651962667703628540e-03,-1.968299783766269684e-02,2.536000101827085018e-04,-2.159356884658336639e-02,9.465439245104789734e-03,2.083624526858329773e-02,6.640518456697463989e-02,-1.555246300995349884e-02,-1.360514760017395020e-02,2.341125346720218658e-02,3.991832211613655090e-02,-3.874503308907151222e-03,2.539119310677051544e-02,-3.853076323866844177e-02,-5.120813846588134766e-03,-2.958326600492000580e-02,3.056532330811023712e-02,-4.273246973752975464e-02,6.054119672626256943e-03,7.551214657723903656e-03,3.745988244190812111e-03,1.489927154034376144e-02,1.664786785840988159e-02,-1.246152911335229874e-02,-6.696595996618270874e-02,-4.337928444147109985e-02,-1.721205189824104309e-02,-1.188382692635059357e-02,2.099164016544818878e-02,2.004393190145492554e-02,2.073096856474876404e-02,-2.317419089376926422e-02,1.741131395101547241e-02,1.908982545137405396e-02,2.916091121733188629e-02,-2.040029503405094147e-02,4.189296439290046692e-02,7.432719692587852478e-03,-6.628170609474182129e-02,-1.446215552277863026e-03,-2.438774332404136658e-02,2.420600317418575287e-02,-2.581336535513401031e-02,2.930436283349990845e-02,-1.305616460740566254e-02,-3.905022144317626953e-02,2.923680003732442856e-03,-3.774797171354293823e-02,-1.135784853249788284e-02,1.733741909265518188e-02,2.050985349342226982e-03,-2.682286873459815979e-02,-3.598475083708763123e-02,-4.582755267620086670e-03,-7.104089949280023575e-03,-4.687515646219253540e-02,4.634647443890571594e-02,2.843027934432029724e-02,-3.163858503103256226e-02,-2.191667631268501282e-02
8.259794674813747406e-03,9.320585057139396667e-03,-6.772725284099578857e-02,1.256469264626502991e-02,-5.298605188727378845e-02,-1.574052585056051612e-04,-3.409051895141601562e-02,-3.456009924411773682e-02,5.625845864415168762e-02,6.107521057128906250e-02,-4.376207292079925537e-02,6.926314905285835266e-03,7.206847891211509705e-03,-2.886330522596836090e-02,1.364625245332717896e-02,1.831713132560253143e-02,1.897721737623214722e-02,-3.264278918504714966e-02,-1.267119869589805603e-02,1.393612567335367203e-02,-5.458454042673110962e-02,-5.552491918206214905e-02,-6.375610083341598511e-02,2.671548910439014435e-02,3.404765203595161438e-02,5.145969614386558533e-02,-3.542110323905944824e-02,-5.208564177155494690e-02,-3.162180632352828979e-02,-1.366479694843292236e-02,4.072097688913345337e-02,1.401644200086593628e-02,-1.510699186474084854e-02,-1.454403973184525967e-03,-3.522133827209472656e-02,3.643183503299951553e-03,-2.837478555738925934e-02,2.525059133768081665e-02,-1.250642258673906326e-02,-5.781630426645278931e-02,4.975380748510360718e-02,3.097806870937347412e-02,7.255111820995807648e-03,3.385852649807929993e-02,-1.766039989888668060e-02,-2.141602709889411926e-02,-3.129003196954727173e-02,-3.088014200329780579e-02,4.441591352224349976e-02,-1.782355830073356628e-02,2.770267426967620850e-02,-3.990257531404495239e-02,-9.551509720040485263e-05,6.758763338439166546e-04,-7.401711307466030121e-03,-2.387277036905288696e-02,3.278968855738639832e-02,-5.375879257917404175e-02,-1.709282025694847107e-02,1.356409490108489990e-02,3.892191918566823006e-03,-3.825576603412628174e-02,2.163260802626609802e-02,5.467224493622779846e-02,-1.585492677986621857e-02,1.075141318142414093e-02,3.408133983612060547e-02,3.741359803825616837e-03,-8.602432906627655029e-03,4.091996233910322189e-03,3.273237496614456177e-02,1.647034473717212677e-02,3.460095450282096863e-02,-9.284508996643126011e-04,-3.479623049497604370e-02,2.970055909827351570e-03,6.541136186569929123e-03,-1.971590798348188400e-03,-2.634370885789394379e-02,-2.901121042668819427e-02,-9.834924712777137756e-03,5.163368210196495056e-02,3.754879161715507507e-02,2.888455055654048920e-02,1.611888408660888672e-02,-3.098801709711551666e-02,1.951134763658046722e-02,-1.692731049843132496e-03,1.166779082268476486e-02,2.463466115295886993e-02,-5.587859451770782471e-02,1.166630443185567856e-02,-3.509956877678632736e-03,2.266327850520610809e-02,4.463649168610572815e-02,2.625668793916702271e-02,-4.516439512372016907e-02,-4.658115655183792114e-02,2.257374348118901253e-03,-3.698400408029556274e-02,1.788967405445873737e-03,-1.961947232484817505e-02,2.361558564007282257e-02,2.612778171896934509e-02,-5.045338068157434464e-03,-6.159861013293266296e-02,3.437151433899998665e-03,4.924516659229993820e-03,-3.115378785878419876e-03,-1.324913231655955315e-03,3.339697793126106262e-02,-2.750943973660469055e-02,-1.842896017478778958e-04,1.888873375719413161e-04,-5.608446151018142700e-02,8.678680285811424255e-03,-4.129938781261444092e-02,-6.130429357290267944e-02,3.580480068922042847e-02,3.002378717064857483e-02,2.384823281317949295e-03,3.641978651285171509e-02,-3.109958954155445099e-02,4.628851637244224548e-02,1.349675841629505157e-02,2.797264978289604187e-02,1.679292321205139160e-02,1.644924283027648926e-02
1.321907620877027512e-02,-3.864017128944396973e-02,-4.726551473140716553e-02,2.792891860008239746e-02,-4.730340465903282166e-02,4.166027158498764038e-02,6.432725489139556885e-02,1.080758590251207352e-02,-6.150428205728530884e-02,2.711346186697483063e-02,-3.479355946183204651e-03,8.571645244956016541e-03,-2.160006575286388397e-02,2.178056165575981140e-02,-1.072660554200410843e-02,2.168557792901992798e-02,1.281875185668468475e-02,2.798216789960861206e-02,1.670980267226696014e-02,4.840745031833648682e-02,-1.494648680090904236e-02,-5.497665330767631531e-02,-1.679106429219245911e-02,6.122601684182882309e-03,4.375043790787458420e-03,1.835229434072971344e-02,1.324950344860553741e-02,1.573790237307548523e-02,3.178424760699272156e-02,-5.550210550427436829e-02,5.262522399425506592e-02,4.276467859745025635e-02,-3.423608839511871338e-02,3.843944519758224487e-02,1.591772958636283875e-02,3.170086815953254700e-02,4.439029842615127563e-03,-3.250297904014587402e-02,1.462518610060214996e-02,-4.912065714597702026e-02,-1.944612339138984680e-02,8.527882164344191551e-04,3.623893857002258301e-02,2.638850174844264984e-02,-4.525345750153064728e-03,-4.333585873246192932e-02,9.765777736902236938e-03,1.022210530936717987e-02,-2.689226344227790833e-02,-7.462287321686744690e-03,-3.714162856340408325e-03,-2.284542284905910492e-02,-7.316227070987224579e-03,-2.050663158297538757e-02,9.014792740345001221e-03,-2.647120878100395203e-02,-3.556017205119132996e-02,6.311837583780288696e-02,-5.134071409702301025e-02,-4.091949015855789185e-02,-3.163223713636398315e-02,-1.996229030191898346e-02,6.604107562452554703e-03,4.756088182330131531e-02,-1.806754991412162781e-02,2.087111212313175201e-02,-3.895292431116104126e-02,1.031281985342502594e-02,-1.573873683810234070e-02,-8.164285682141780853e-03,3.620444610714912415e-02,-1.804589852690696716e-02,5.032430961728096008e-02,2.464604750275611877e-02,3.964374959468841553e-02,-2.027871645987033844e-02,-4.180293530225753784e-02,-2.942942827939987183e-02,2.010101219639182091e-03,3.773207962512969971e-02,1.969975605607032776e-02,-1.553240884095430374e-02,-9.520559571683406830e-03,8.484821766614913940e-03,-3.918991237878799438e-02,-1.114466972649097443e-02,3.163375891745090485e-03,-5.345600470900535583e-02,-2.741893986240029335e-03,-3.237029537558555603e-02,-6.151944771409034729e-02,-3.857399523258209229e-02,1.117433793842792511e-02,2.347669564187526703e-03,-4.161198437213897705e-02,2.124680764973163605e-02,-1.645988901145756245e-03,1.937035843729972839e-02,3.998953104019165039e-02,3.973235189914703369e-02,8.607707917690277100e-03,-2.168321982026100159e-02,8.398321457207202911e-03,-2.201565541326999664e-02,1.702628564089536667e-03,6.124051287770271301e-02,-1.017065159976482391e-02,-1.154046878218650818e-02,-3.187517821788787842e-02,-4.748788848519325256e-02,-2.573486790060997009e-02,-3.908554837107658386e-02,4.359169304370880127e-02,-4.473369196057319641e-02,6.816937029361724854e-02,-2.697513066232204437e-02,1.505951303988695145e-02,-7.874723523855209351e-03,1.817287318408489227e-02,-4.722883924841880798e-02,-1.217711810022592545e-02,-1.318183611147105694e-03,-1.026335917413234711e-02,-4.827148094773292542e-02,2.802332118153572083e-02,-5.273425951600074768e-02,2.231609448790550232e-02,5.125941336154937744e-02
3.308977186679840088e-02,-2.572022192180156708e-02,-1.241332571953535080e-02,1.274083647876977921e-02,-1.301311980932950974e-02,2.046061679720878601e-02,1.706024073064327240e-02,-5.406433343887329102e-02,-2.877582050859928131e-02,-3.005483932793140411e-02,-5.667141638696193695e-03,4.092746600508689880e-02,-3.440200537443161011e-02,1.012386288493871689e-02,-6.919495761394500732e-03,2.516132546588778496e-03,9.517181897535920143e-04,-4.353471472859382629e-02,-9.738514199852943420e-03,-2.413709275424480438e-02,-7.180584128946065903e-03,1.278635463677346706e-03,3.252682089805603027e-02,6.545130163431167603e-02,-3.181518241763114929e-02,1.929100602865219116e-02,7.792469579726457596e-03,3.769795875996351242e-03,1.132321264594793320e-02,4.655851051211357117e-02,2.261692658066749573e-02,2.917203865945339203e-02,-4.177754372358322144e-02,5.614450667053461075e-03,-8.919323794543743134e-03,-6.464629620313644409e-02,-3.372604399919509888e-02,-8.243652991950511932e-03,5.952382832765579224e-02,-1.494240481406450272e-02,6.300651282072067261e-02,1.843863353133201599e-02,-5.605307593941688538e-02,-1.687391474843025208e-02,9.904582053422927856e-03,-2.331464784219861031e-03,-2.220240980386734009e-02,-6.526094675064086914e-02,-2.839564159512519836e-02,-2.474004961550235748e-02,-4.434167221188545227e-02,1.147953793406486511e-02,1.702534221112728119e-02,6.892094761133193970e-02,1.916876249015331268e-02,-5.520631745457649231e-02,4.295870289206504822e-02,1.354943774640560150e-02,-1.918401569128036499e-02,-1.998179592192173004e-02,1.954402774572372437e-02,-8.488941006362438202e-03,-2.803268097341060638e-02,-6.271417438983917236e-02,1.087657641619443893e-02,4.908788576722145081e-02,4.517633933573961258e-04,3.222228586673736572e-02,-1.847503334283828735e-02,3.914093598723411560e-02,-9.185355156660079956e-03,3.634284809231758118e-02,-4.371761530637741089e-02,1.335258502513170242e-02,-4.533025785349309444e-04,5.320354178547859192e-02,2.276710420846939087e-02,-7.862675935029983521e-03,-2.162342704832553864e-02,2.175357891246676445e-03,-2.643788047134876251e-02,-2.568839304149150848e-02,-2.483758889138698578e-02,5.001144111156463623e-02,-2.423550933599472046e-03,-4.278912395238876343e-02,-1.150988973677158356e-03,1.409116107970476151e-02,8.991039358079433441e-03,-4.622064530849456787e-02,-6.870027631521224976e-02,1.853336021304130554e-02,9.245736524462699890e-03,-7.993175648152828217e-03,-4.628445208072662354e-02,2.809591032564640045e-02,-4.279125854372978210e-02,2.077004685997962952e-02,-5.153243243694305420e-02,-5.223693326115608215e-02,-2.293359860777854919e-02,4.745973274111747742e-02,9.517006576061248779e-03,-2.574459835886955261e-02,3.982202336192131042e-02,2.822102606296539307e-02,7.536469027400016785e-03,-4.754957184195518494e-02,-1.526783127337694168e-02,-5.939362198114395142e-02,3.992728143930435181e-02,-2.452743612229824066e-02,-8.857901208102703094e-03,-2.271958999335765839e-02,3.867064416408538818e-02,1.105819921940565109e-02,1.341167557984590530e-02,-3.724792227149009705e-02,-5.247638002038002014e-02,-5.740114022046327591e-03,7.469275966286659241e-03,-1.455154363065958023e-02,8.526111021637916565e-03,4.236377030611038208e-02,2.566106244921684265e-02,2.265191264450550079e-02,4.733238369226455688e-02,8.706523105502128601e-03
-4.244973510503768921e-02,1.916689798235893250e-02,1.235321722924709320e-02,-4.354994744062423706e-02,4.226877912878990173e-02,1.005670987069606781e-02,-3.054245375096797943e-02,6.076525524258613586e-02,-3.462395071983337402e-02,6.997785530984401703e-03,-1.468683965504169464e-02,-2.947784215211868286e-02,-6.871706247329711914e-02,-3.606165992096066475e-03,3.861721977591514587e-02,4.383824765682220459e-02,-3.052168712019920349e-02,1.147303916513919830e-02,-2.655868418514728546e-02,5.228998884558677673e-02,6.297969073057174683e-02,-1.285520289093255997e-02,1.578436419367790222e-02,-3.008141554892063141e-02,-6.198545545339584351e-02,1.983416825532913208e-02,-9.229992516338825226e-03,1.568372361361980438e-02,1.839503273367881775e-02,3.060052916407585144e-02,2.661893330514431000e-02,-6.111799553036689758e-02,1.427713129669427872e-02,-2.151459269225597382e-02,4.932256415486335754e-03,-5.234582815319299698e-03,1.327255275100469589e-02,3.924135863780975342e-02,-1.377276796847581863e-02,-4.906631540507078171e-03,-3.806715831160545349e-02,-2.516602980904281139e-04,-2.648880891501903534e-02,4.598576948046684265e-02,-6.367953121662139893e-02,-8.087482303380966187e-03,3.908440098166465759e-02,1.649078330956399441e-04,1.513549219816923141e-02,-8.290676400065422058e-03,-5.935711413621902466e-02,-2.847824618220329285e-02,-5.764958634972572327e-02,1.229079533368349075e-02,-1.816416531801223755e-02,-6.236859038472175598e-02,3.319373726844787598e-02,-9.240734390914440155e-03,3.082544356584548950e-02,8.920120075345039368e-03,9.974824264645576477e-03,1.541059557348489761e-02,3.875807393342256546e-03,-2.760218828916549683e-02,-6.982567161321640015e-02,-4.301442764699459076e-03,-7.861427962779998779e-03,6.988629698753356934e-02,4.958258196711540222e-02,-3.339141607284545898e-02,1.190883945673704147e-02,-9.042342193424701691e-03,-7.976109161972999573e-03,2.670689858496189117e-02,4.468076676130294800e-02,3.733002021908760071e-02,3.910284023731946945e-03,4.170155152678489685e-02,3.964062035083770752e-02,1.700045727193355560e-02,3.304102644324302673e-02,-6.246519088745117188e-02,1.874811574816703796e-02,4.857694264501333237e-03,4.912175610661506653e-02,-1.046912744641304016e-02,2.118301019072532654e-02,-8.310301229357719421e-03,-6.599541008472442627e-02,-2.715568989515304565e-02,1.138598658144474030e-02,2.161874249577522278e-02,-5.204138532280921936e-02,-4.876600578427314758e-03,6.162271648645401001e-02,-1.126191206276416779e-02,-2.270853146910667419e-02,-6.591160490643233061e-05,-4.195385053753852844e-02,4.183454066514968872e-02,3.290112316608428955e-02,1.019618194550275803e-02,3.253760281950235367e-03,3.744760155677795410e-02,2.794486936181783676e-03,-5.016740411520004272e-03,-3.067036159336566925e-02,-2.445912174880504608e-02,-6.957380101084709167e-03,-5.597893521189689636e-02,-2.090320363640785217e-02,2.778690494596958160e-02,1.834803260862827301e-02,-6.996131036430597305e-03,2.147667855024337769e-02,-2.494693174958229065e-02,-1.468392182141542435e-02,-1.620840840041637421e-02,6.091029383242130280e-03,2.184121683239936829e-02,3.209024202078580856e-03,-5.661566555500030518e-02,4.495164006948471069e-02,3.893850743770599365e-02,-1.295219175517559052e-02,-1.978299766778945923e-02,5.307000502943992615e-02,3.452727943658828735e-02
-8.886972442269325256e-03,3.132089599967002869e-02,-3.507522866129875183e-02,1.474583614617586136e-02,-6.484618782997131348e-02,4.239984229207038879e-02,-2.277427539229393005e-02,-3.925108909606933594e-02,-1.942786388099193573e-02,-1.671954989433288574e-02,4.815979301929473877e-02,-3.051040507853031158e-02,-1.125714625231921673e-03,-5.157507210969924927e-02,3.156252950429916382e-02,-5.115837231278419495e-02,3.154146298766136169e-02,-3.222124278545379639e-02,-1.552947983145713806e-02,7.810042239725589752e-03,6.507905200123786926e-03,1.090563181787729263e-02,-6.281618494540452957e-03,1.029523741453886032e-02,1.295556407421827316e-02,1.272036507725715637e-02,-5.523912236094474792e-02,9.645203128457069397e-03,3.219641000032424927e-02,-6.165144965052604675e-02,4.619275406002998352e-02,-4.307623952627182007e-02,1.418090611696243286e-02,2.750219404697418213e-02,3.391664475202560425e-02,2.014094963669776917e-02,-3.945889696478843689e-02,-4.697643592953681946e-02,2.102346159517765045e-02,4.635715112090110779e-02,2.695543505251407623e-02,-1.125058066099882126e-02,5.921710282564163208e-02,2.000566804781556129e-03,3.444605320692062378e-02,-3.525535762310028076e-02,6.481465697288513184e-02,-4.101942852139472961e-02,2.268855087459087372e-02,-9.412563405930995941e-03,2.838108502328395844e-02,1.843573153018951416e-02,-2.831309661269187927e-02,-1.320588216185569763e-02,-3.911733254790306091e-02,1.931776851415634155e-02,1.679415814578533173e-02,-4.143756255507469177e-02,-2.664871700108051300e-02,-9.340642020106315613e-03,-3.852443769574165344e-02,-1.588336750864982605e-02,-7.059991359710693359e-03,2.403055317699909210e-02,-1.714859902858734131e-02,-6.864422466605901718e-03,2.548609487712383270e-02,2.125854045152664185e-02,7.538190111517906189e-03,7.003357168287038803e-03,2.349150367081165314e-02,4.456514492630958557e-02,-2.323542907834053040e-02,3.067212237510830164e-04,-1.851749792695045471e-02,2.945679612457752228e-02,2.061618492007255554e-02,-1.766888052225112915e-02,-2.416322566568851471e-02,-1.584952883422374725e-02,-8.043068461120128632e-03,4.508201405405998230e-02,-2.667666599154472351e-02,5.126378033310174942e-03,4.367574676871299744e-02,-9.214817546308040619e-03,1.279048342257738113e-02,-6.263460963964462280e-02,2.685149759054183960e-02,-4.125580191612243652e-02,-7.989961653947830200e-03,8.283410221338272095e-03,-2.516025677323341370e-03,3.729264065623283386e-02,4.867490753531455994e-02,3.907787613570690155e-03,-5.579809844493865967e-02,1.697239838540554047e-02,-2.331045642495155334e-02,-1.385649852454662323e-02,-4.881610162556171417e-03,1.593063771724700928e-02,-4.741986282169818878e-03,-5.257762223482131958e-02,1.091307681053876877e-02,6.978110759519040585e-04,-5.371265113353729248e-02,-1.249131001532077789e-02,-3.010153025388717651e-02,-1.248981244862079620e-02,3.715251013636589050e-02,-1.562290452420711517e-02,-4.031527496408671141e-04,-4.090464860200881958e-02,-1.285368017852306366e-02,-1.729655265808105469e-02,3.817376121878623962e-02,7.021047174930572510e-03,-7.904492318630218506e-03,2.661427133716642857e-04,3.418767824769020081e-02,2.337026223540306091e-02,-4.619415476918220520e-02,-4.793183878064155579e-02,-3.273131698369979858e-02,8.603214286267757416e-03,1.232635695487260818e-02,-2.892981842160224915e-02
