0.000000000000000000e+00,0.000000000000000000e+00,0.000000000000000000e+00,0.000000000000000000e+00,0.000000000000000000e+00,0.000000000000000000e+00,0.000000000000000000e+00,0.000000000000000000e+00,0.000000000000000000e+00,0.000000000000000000e+00
0.000000000000000000e+00,0.000000000000000000e+00,0.000000000000000000e+00,0.000000000000000000e+00,0.000000000000000000e+00,0.000000000000000000e+00,0.000000000000000000e+00,0.000000000000000000e+00,0.000000000000000000e+00,0.000000000000000000e+00
0.000000000000000000e+00,0.000000000000000000e+00,0.000000000000000000e+00,0.000000000000000000e+00,0.000000000000000000e+00,0.000000000000000000e+00,0.000000000000000000e+00,0.000000000000000000e+00,0.000000000000000000e+00,0.000000000000000000e+00
0.000000000000000000e+00,0.000000000000000000e+00,0.000000000000000000e+00,0.000000000000000000e+00,0.000000000000000000e+00,0.000000000000000000e+00,0.000000000000000000e+00,0.000000000000000000e+00,0.000000000000000000e+00,0.000000000000000000e+00
0.000000000000000000e+00,0.000000000000000000e+00,0.000000000000000000e+00,0.000000000000000000e+00,0.000000000000000000e+00,0.000000000000000000e+00,0.000000000000000000e+00,0.000000000000000000e+00,0.000000000000000000e+00,0.000000000000000000e+00
0.000000000000000000e+00,0.000000000000000000e+00,0.000000000000000000e+00,0.000000000000000000e+00,0.000000000000000000e+00,0.000000000000000000e+00,0.000000000000000000e+00,0.000000000000000000e+00,0.000000000000000000e+00,0.000000000000000000e+00
0.000000000000000000e+00,0.000000000000000000e+00,0.000000000000000000e+00,0.000000000000000000e+00,0.000000000000000000e+00,0.000000000000000000e+00,0.000000000000000000e+00,0.000000000000000000e+00,0.000000000000000000e+00,0.000000000000000000e+00
0.000000000000000000e+00,0.000000000000000000e+00,0.000000000000000000e+00,0.000000000000000000e+00,0.000000000000000000e+00,0.000000000000000000e+00,0.000000000000000000e+00,0.000000000000000000e+00,0.000000000000000000e+00,0.000000000000000000e+00
0.000000000000000000e+00,0.000000000000000000e+00,0.000000000000000000e+00,0.000000000000000000e+00,0.000000000000000000e+00,0.000000000000000000e+00,0.000000000000000000e+00,0.000000000000000000e+00,0.000000000000000000e+00,0.000000000000000000e+00
0.000000000000000000e+00,0.000000000000000000e+00,0.000000000000000000e+00,0.000000000000000000e+00,0.000000000000000000e+00,0.000000000000000000e+00,0.000000000000000000e+00,0.000000000000000000e+00,0.000000000000000000e+00,0.000000000000000000e+00
0.000000000000000000e+00,0.000000000000000000e+00,0.000000000000000000e+00,0.000000000000000000e+00,0.000000000000000000e+00,0.000000000000000000e+00,0.000000000000000000e+00,0.000000000000000000e+00,0.000000000000000000e+00,0.000000000000000000e+00
0.000000000000000000e+00,0.000000000000000000e+00,0.000000000000000000e+00,0.000000000000000000e+00,0.000000000000000000e+00,0.000000000000000000e+00,0.000000000000000000e+00,0.000000000000000000e+00,0.000000000000000000e+00,0.000000000000000000e+00
-2.775625716822105460e-06,-5.162750312592834234e-06,-2.742584911175072193e-04,-2.085645610350184143e-05,-1.300375326536595821e-03,-2.858097104763146490e-05,1.983826048672199249e-03,-5.930401584919309244e-06,-6.618448242079466581e-05,-2.797014894895255566e-04
-1.275798967981245369e-05,-1.218498346133856103e-05,-3.380484995432198048e-04,-5.123840310261584818e-05,-2.966295694932341576e-03,-6.292608304647728801e-05,4.259684123098850250e-03,-1.716043152555357665e-05,-1.514967007096856833e-04,-6.475753616541624069e-04
-7.433926384692313150e-06,-9.796494850888848305e-07,2.920934348367154598e-04,-6.198289156600367278e-06,-1.323376345681026578e-04,-3.823767542598943692e-07,-9.371063788421452045e-05,-4.645859462470980361e-06,-7.317294603126356378e-06,-3.908805592800490558e-05
-3.097469232216099044e-07,-4.081872262418073660e-08,1.217055978486314416e-05,-2.582620481916819699e-07,-5.514068107004277408e-06,-1.593236476082893205e-08,-3.904609911842271686e-06,-1.935774776029575150e-07,-3.048872940780711360e-07,-1.628668883313366678e-06
0.000000000000000000e+00,0.000000000000000000e+00,0.000000000000000000e+00,0.000000000000000000e+00,0.000000000000000000e+00,0.000000000000000000e+00,0.000000000000000000e+00,0.000000000000000000e+00,0.000000000000000000e+00,0.000000000000000000e+00
0.000000000000000000e+00,0.000000000000000000e+00,0.000000000000000000e+00,0.000000000000000000e+00,0.000000000000000000e+00,0.000000000000000000e+00,0.000000000000000000e+00,0.000000000000000000e+00,0.000000000000000000e+00,0.000000000000000000e+00
0.000000000000000000e+00,0.000000000000000000e+00,0.000000000000000000e+00,0.000000000000000000e+00,0.000000000000000000e+00,0.000000000000000000e+00,0.000000000000000000e+00,0.000000000000000000e+00,0.000000000000000000e+00,0.000000000000000000e+00
0.000000000000000000e+00,0.000000000000000000e+00,0.000000000000000000e+00,0.000000000000000000e+00,0.000000000000000000e+00,0.000000000000000000e+00,0.000000000000000000e+00,0.000000000000000000e+00,0.000000000000000000e+00,0.000000000000000000e+00
0.000000000000000000e+00,0.000000000000000000e+00,0.000000000000000000e+00,0.000000000000000000e+00,0.000000000000000000e+00,0.000000000000000000e+00,0.000000000000000000e+00,0.000000000000000000e+00,0.000000000000000000e+00,0.000000000000000000e+00
0.000000000000000000e+00,0.000000000000000000e+00,0.000000000000000000e+00,0.000000000000000000e+00,0.000000000000000000e+00,0.000000000000000000e+00,0.000000000000000000e+00,0.000000000000000000e+00,0.000000000000000000e+00,0.000000000000000000e+00
0.000000000000000000e+00,0.000000000000000000e+00,0.000000000000000000e+00,0.000000000000000000e+00,0.000000000000000000e+00,0.000000000000000000e+00,0.000000000000000000e+00,0.000000000000000000e+00,0.000000000000000000e+00,0.000000000000000000e+00
0.000000000000000000e+00,0.000000000000000000e+00,0.000000000000000000e+00,0.000000000000000000e+00,0.000000000000000000e+00,0.000000000000000000e+00,0.000000000000000000e+00,0.000000000000000000e+00,0.000000000000000000e+00,0.000000000000000000e+00
0.000000000000000000e+00,0.000000000000000000e+00,0.000000000000000000e+00,0.000000000000000000e+00,0.000000000000000000e+00,0.000000000000000000e+00,0.000000000000000000e+00,0.000000000000000000e+00,0.000000000000000000e+00,0.000000000000000000e+00
0.000000000000000000e+00,0.000000000000000000e+00,0.000000000000000000e+00,0.000000000000000000e+00,0.000000000000000000e+00,0.000000000000000000e+00,0.000000000000000000e+00,0.000000000000000000e+00,0.000000000000000000e+00,0.000000000000000000e+00
0.000000000000000000e+00,0.000000000000000000e+00,0.000000000000000000e+00,0.000000000000000000e+00,0.000000000000000000e+00,0.000000000000000000e+00,0.000000000000000000e+00,0.000000000000000000e+00,0.000000000000000000e+00,0.000000000000000000e+00
0.000000000000000000e+00,0.000000000000000000e+00,0.000000000000000000e+00,0.000000000000000000e+00,0.000000000000000000e+00,0.000000000000000000e+00,0.000000000000000000e+00,0.000000000000000000e+00,0.000000000000000000e+00,0.000000000000000000e+00
0.000000000000000000e+00,0.000000000000000000e+00,0.000000000000000000e+00,0.000000000000000000e+00,0.000000000000000000e+00,0.000000000000000000e+00,0.000000000000000000e+00,0.000000000000000000e+00,0.000000000000000000e+00,0.000000000000000000e+00
0.000000000000000000e+00,0.000000000000000000e+00,0.000000000000000000e+00,0.000000000000000000e+00,0.000000000000000000e+00,0.000000000000000000e+00,0.000000000000000000e+00,0.000000000000000000e+00,0.000000000000000000e+00,0.000000000000000000e+00
0.000000000000000000e+00,0.000000000000000000e+00,0.000000000000000000e+00,0.000000000000000000e+00,0.000000000000000000e+00,0.000000000000000000e+00,0.000000000000000000e+00,0.000000000000000000e+00,0.000000000000000000e+00,0.000000000000000000e+00
0.000000000000000000e+00,0.000000000000000000e+00,0.000000000000000000e+00,0.000000000000000000e+00,0.000000000000000000e+00,0.000000000000000000e+00,0.000000000000000000e+00,0.000000000000000000e+00,0.000000000000000000e+00,0.000000000000000000e+00
-3.047269103717553662e-09,-1.567461893614563451e-08,-2.442367303956416436e-06,-2.626379114190058317e-09,-1.138789775723125786e-05,-3.966940909094773815e-08,1.471170617151074111e-05,-1.880939137777204451e-08,-1.794930994947208092e-07,-6.220956265678978525e-07
-8.071388890584785258e-08,-4.641705331209777796e-08,-8.328433978022076190e-06,-1.881874744924516563e-08,-6.598832260351628065e-05,-1.216286875660443911e-07,7.828123489161953330e-05,-4.701109048710350180e-07,-5.399560905061662197e-07,-2.686778771021636203e-06
-1.410207096341764554e-05,-9.943954637492424808e-08,-1.255631796084344387e-04,-3.454280431469669566e-06,-5.560017190873622894e-03,-6.958651738386834040e-06,5.840792320668697357e-03,-3.263789767515845597e-05,-3.386063781363191083e-06,-9.457417036173865199e-05
-2.837584361259359866e-05,-3.179560735588893294e-05,-2.829781442414969206e-04,-8.903607522370293736e-06,-1.322480477392673492e-02,-1.418496867700014263e-05,1.396237406879663467e-02,-1.236185344168916345e-04,-2.033938289969228208e-05,-2.273740683449432254e-04
-3.779594408115372062e-05,-1.514250645413994789e-03,-4.788579462911002338e-05,-6.505294004455208778e-05,-1.284085400402545929e-02,-4.631960473489016294e-05,1.576613076031208038e-02,-5.415230989456176758e-04,-2.563701127655804157e-04,-4.160786629654467106e-04
-5.406119817052967846e-05,-1.279186457395553589e-03,-7.166491704992949963e-04,-1.046244433382526040e-04,-6.552683189511299133e-03,-4.491850631893612444e-05,9.807092137634754181e-03,-4.576273495331406593e-04,-3.049481892958283424e-04,-2.923965221270918846e-04
-3.330353065393865108e-04,-8.595827966928482056e-04,-2.221214585006237030e-03,-1.076042753993533552e-04,-1.348522212356328964e-02,-1.479803759139031172e-04,1.850989274680614471e-02,-3.524960484355688095e-04,-3.526445652823895216e-04,-6.501183379441499710e-04
1.656504580751061440e-03,-5.289858090691268444e-04,-6.569185759872198105e-03,-1.804716303013265133e-04,-1.982230879366397858e-02,-2.263005735585466027e-04,2.925799414515495300e-02,-1.136608072556555271e-03,-5.645118653774261475e-04,-1.886122045107185841e-03
4.135434050112962723e-03,-4.460061900317668915e-04,-5.944174248725175858e-03,-2.925052540376782417e-04,-3.317528590559959412e-02,-9.525196510367095470e-04,4.302122816443443298e-02,-2.541960682719945908e-03,-5.692845443263649940e-04,-3.234903328120708466e-03
1.742864027619361877e-03,-2.663139603100717068e-04,-3.271733643487095833e-03,-1.830072433222085238e-04,-2.065294235944747925e-02,-1.086794654838740826e-03,2.711432240903377533e-02,-6.894221878610551357e-04,-6.621027714572846889e-04,-2.044872613623738289e-03
-3.308334562461823225e-04,4.862333647906780243e-03,3.329263534396886826e-03,-7.078334456309676170e-04,-1.306992117315530777e-02,-7.957881316542625427e-04,8.973880670964717865e-03,-2.053075295407325029e-04,-9.746684227138757706e-04,-1.081121503375470638e-03
2.907476853579282761e-03,7.270986679941415787e-03,5.043671000748872757e-03,-9.401151328347623348e-04,-1.891076564788818359e-02,-9.480402222834527493e-04,1.047044247388839722e-02,-4.158128867857158184e-04,-1.182807842269539833e-03,-3.295039292424917221e-03
8.328267373144626617e-03,-1.775405486114323139e-03,1.565179415047168732e-02,-3.726169525180011988e-04,-1.559616252779960632e-02,-9.558128658682107925e-04,4.225083626806735992e-03,-8.802411612123250961e-04,-1.273975241929292679e-03,-7.350921165198087692e-03
3.092097816988825798e-03,-1.031301100738346577e-03,2.368415705859661102e-03,-1.822582271415740252e-04,-6.588499993085861206e-03,-5.058083334006369114e-04,7.718758191913366318e-03,-4.160921671427786350e-04,-7.584980339743196964e-04,-3.696811851114034653e-03
-1.100289984606206417e-03,-1.135524726123549044e-04,-5.899286363273859024e-03,-1.095204424927942455e-04,-4.326585214585065842e-03,-5.890976171940565109e-04,1.332143880426883698e-02,-1.020048875943757594e-04,-5.581061122938990593e-04,-5.229972884990274906e-04
-4.913303419016301632e-04,-6.781343836337327957e-05,-3.714578226208686829e-03,-5.723080903408117592e-05,-3.055935492739081383e-03,-5.340594798326492310e-04,9.285784326493740082e-03,-1.145234709838405252e-04,-6.139395409263670444e-04,-6.363729480654001236e-04
-1.935331092681735754e-04,-1.013730798149481416e-04,-1.666989177465438843e-03,-4.960186925018206239e-05,-2.325782785192131996e-03,-2.718211617320775986e-04,5.444557871669530869e-03,-5.636927016894333065e-05,-3.414851089473813772e-04,-4.375994903966784477e-04
-8.509549661539494991e-05,-2.539108972996473312e-04,-1.532515045255422592e-03,-8.998950215755030513e-05,-4.557331092655658722e-03,-8.004169649211689830e-05,7.199119776487350464e-03,-7.743994501652196050e-06,-4.212815256323665380e-04,-1.712096709525212646e-04
-1.279537627851823345e-05,-2.202448195021133870e-05,-1.676317770034074783e-04,-7.806829671608284116e-06,-5.313474219292402267e-03,-8.151862857630476356e-06,5.682643968611955643e-03,-1.160002102551516145e-05,-5.548943590838462114e-05,-8.366964175365865231e-05
-3.617404445321881212e-06,-1.665055492594547104e-06,-5.791390503873117268e-05,-7.818603648956923280e-07,-1.473644399084150791e-03,-6.653152468061307445e-06,1.638188259676098824e-03,-1.582758341100998223e-05,-2.104749910358805209e-05,-5.703788337996229529e-05
0.000000000000000000e+00,0.000000000000000000e+00,0.000000000000000000e+00,0.000000000000000000e+00,0.000000000000000000e+00,0.000000000000000000e+00,0.000000000000000000e+00,0.000000000000000000e+00,0.000000000000000000e+00,0.000000000000000000e+00
0.000000000000000000e+00,0.000000000000000000e+00,0.000000000000000000e+00,0.000000000000000000e+00,0.000000000000000000e+00,0.000000000000000000e+00,0.000000000000000000e+00,0.000000000000000000e+00,0.000000000000000000e+00,0.000000000000000000e+00
0.000000000000000000e+00,0.000000000000000000e+00,0.000000000000000000e+00,0.000000000000000000e+00,0.000000000000000000e+00,0.000000000000000000e+00,0.000000000000000000e+00,0.000000000000000000e+00,0.000000000000000000e+00,0.000000000000000000e+00
0.000000000000000000e+00,0.000000000000000000e+00,0.000000000000000000e+00,0.000000000000000000e+00,0.000000000000000000e+00,0.000000000000000000e+00,0.000000000000000000e+00,0.000000000000000000e+00,0.000000000000000000e+00,0.000000000000000000e+00
0.000000000000000000e+00,0.000000000000000000e+00,0.000000000000000000e+00,0.000000000000000000e+00,0.000000000000000000e+00,0.000000000000000000e+00,0.000000000000000000e+00,0.000000000000000000e+00,0.000000000000000000e+00,0.000000000000000000e+00
0.000000000000000000e+00,0.000000000000000000e+00,0.000000000000000000e+00,0.000000000000000000e+00,0.000000000000000000e+00,0.000000000000000000e+00,0.000000000000000000e+00,0.000000000000000000e+00,0.000000000000000000e+00,0.000000000000000000e+00
-2.783540509199156077e-08,-4.484408400173833797e-10,-1.729573568809428252e-07,-1.349263811789569445e-09,-1.442179609512095340e-06,-4.404759579301753547e-07,2.536462034186115488e-06,-8.619115837715796147e-12,-2.072575568945467239e-07,-2.439346076243964490e-07
4.413375281728804111e-04,-4.555728849719997697e-10,-5.351770141714951023e-06,-3.143204594380222261e-07,-3.633101878222078085e-04,-3.956489672418683767e-05,8.430227171629667282e-05,-5.864265767741017044e-05,-3.869982265314320102e-06,-5.458566374727524817e-05
1.730705407680943608e-04,-7.764830343148787506e-07,-3.012486267834901810e-04,-4.059642435549903894e-07,-1.778975856723263860e-04,-6.032890269125346094e-06,3.696597123052924871e-04,-2.123575723089743406e-05,-1.126574443333083764e-05,-2.386753476457670331e-05
-8.162853191606700420e-05,-2.156500158889684826e-06,-7.181543332990258932e-05,-1.240579331351909786e-05,-1.624095311854034662e-04,-7.491696010220039170e-07,3.477111458778381348e-04,-1.998946345338481478e-06,-8.455808711005374789e-06,-6.091605428082402796e-06
-1.302402699366211891e-03,-1.578794945089612156e-05,-5.252976552583277225e-04,-9.500847954768687487e-05,-6.227701436728239059e-03,-1.967073512787465006e-05,8.559271693229675293e-03,-1.742909516906365752e-04,-8.247825462603941560e-05,-1.166351576102897525e-04
-1.820760197006165981e-03,-7.341058226302266121e-04,-1.018985058180987835e-03,-5.089648184366524220e-04,-2.169808186590671539e-02,-4.300982691347599030e-04,2.762318775057792664e-02,-5.654332926496863365e-04,-3.840315912384539843e-04,-4.627265443559736013e-04
-3.595550777390599251e-03,-6.120310164988040924e-03,3.374833846464753151e-03,-2.077491953969001770e-03,-2.942061051726341248e-02,-8.385400287806987762e-04,4.212604090571403503e-02,-1.442574895918369293e-03,-1.059661270119249821e-03,-9.461383451707661152e-04
-8.997954428195953369e-03,-1.105303410440683365e-02,1.615215837955474854e-02,-4.370870534330606461e-03,-3.078647516667842865e-02,-3.608162980526685715e-03,5.189072340726852417e-02,-2.869822550565004349e-03,-4.182793200016021729e-03,-2.173755783587694168e-03
-9.509415365755558014e-03,-1.076418906450271606e-02,1.206737942993640900e-02,-2.152096712961792946e-03,-5.957066640257835388e-02,-8.852774277329444885e-03,9.624896943569183350e-02,-5.777371115982532501e-03,-7.121806032955646515e-03,-4.568063188344240189e-03
-1.340651046484708786e-02,-1.040653605014085770e-02,1.610925421118736267e-02,2.864202484488487244e-03,-7.562484592199325562e-02,-1.607684791088104248e-02,1.242060363292694092e-01,-8.361416868865489960e-03,-1.118879579007625580e-02,-8.114531636238098145e-03
-1.682226732373237610e-02,-2.612341893836855888e-03,1.469112932682037354e-02,1.466334215365350246e-04,-1.062862500548362732e-01,-1.829003542661666870e-02,1.676112264394760132e-01,-7.971948012709617615e-03,-1.765316911041736603e-02,-1.281298510730266571e-02
-1.961779966950416565e-02,2.182466164231300354e-02,7.198509760200977325e-03,-2.790760714560747147e-03,-9.758460521697998047e-02,-2.114734798669815063e-02,1.518386900424957275e-01,-5.461744032800197601e-03,-2.095303684473037720e-02,-1.330661214888095856e-02
-2.649078890681266785e-02,3.155945613980293274e-02,2.104471810162067413e-02,2.238399349153041840e-03,-8.103199303150177002e-02,-2.420864254236221313e-02,1.178717613220214844e-01,-6.944229360669851303e-03,-1.984302140772342682e-02,-1.419561449438333511e-02
-3.351692110300064087e-02,5.531075969338417053e-02,2.367667295038700104e-02,-3.450997406616806984e-03,-8.118694275617599487e-02,-1.832122541964054108e-02,1.034062057733535767e-01,-8.343286812305450439e-03,-2.193885296583175659e-02,-1.563535816967487335e-02
-3.331085294485092163e-02,2.751460671424865723e-02,2.644959650933742523e-02,-4.912139382213354111e-03,-7.696358114480972290e-02,-7.322285324335098267e-03,1.169521063566207886e-01,-6.750170141458511353e-03,-2.330681681632995605e-02,-1.835037581622600555e-02
-2.904591336846351624e-02,4.242415074259042740e-03,5.915472749620676041e-03,-5.559265613555908203e-03,-4.766420647501945496e-02,-7.876653107814490795e-04,1.087910905480384827e-01,-4.986573010683059692e-03,-1.734005101025104523e-02,-1.356528140604496002e-02
-2.401404455304145813e-02,-5.225912536843679845e-05,-5.946158431470394135e-03,-8.327086456120014191e-03,-3.224742785096168518e-02,3.094446612522006035e-03,8.776792883872985840e-02,-2.874118741601705551e-03,-8.008006960153579712e-03,-9.393332526087760925e-03
-1.898684352636337280e-02,1.585321035236120224e-03,-2.507068030536174774e-02,-6.798033602535724640e-03,-1.433628238737583160e-02,2.182323485612869263e-03,8.040333539247512817e-02,-1.812073285691440105e-03,-1.088541094213724136e-02,-6.281595677137374878e-03
-1.096852403134107590e-02,-5.905567202717065811e-03,-1.789338327944278717e-02,-3.539347788318991661e-03,-7.605617400258779526e-03,-5.513691343367099762e-03,6.042364612221717834e-02,-8.032899932004511356e-04,-5.884546320885419846e-03,-2.309651812538504601e-03
-5.423794034868478775e-03,-4.045193549245595932e-03,-1.716477610170841217e-02,-3.062996314838528633e-03,-5.246270913630723953e-03,-4.780156537890434265e-03,4.692346975207328796e-02,-4.307755152694880962e-04,-5.086921155452728271e-03,-1.682545407675206661e-03
-2.682582475244998932e-03,-1.781223691068589687e-03,-1.508736703544855118e-02,-2.195974579080939293e-03,-5.963940173387527466e-03,-2.492140280082821846e-03,3.474564850330352783e-02,-3.291147004347294569e-04,-3.203770378604531288e-03,-1.009502448141574860e-03
-1.234850147739052773e-03,-9.168006945401430130e-04,-4.396393895149230957e-03,-7.205025758594274521e-04,-4.511897452175617218e-03,-2.847005147486925125e-03,1.604827493429183960e-02,-4.743278987007215619e-05,-1.174041652120649815e-03,-1.993465120904147625e-04
-3.685276024043560028e-04,-3.081780741922557354e-04,6.417663767933845520e-03,-8.145283209159970284e-05,-8.566321339458227158e-04,-1.863777753897011280e-03,-2.178732072934508324e-03,-2.031746225839015096e-05,-7.087218109518289566e-04,-3.132424899376928806e-05
-7.725524483248591423e-06,-1.225555843120673671e-05,5.213473457843065262e-03,-7.753487238915113267e-07,-1.537113275844603777e-04,-2.702866913750767708e-04,-4.480771720409393311e-03,-2.990679703884779883e-08,-2.864025591406971216e-04,-1.515273538643668871e-06
0.000000000000000000e+00,0.000000000000000000e+00,0.000000000000000000e+00,0.000000000000000000e+00,0.000000000000000000e+00,0.000000000000000000e+00,0.000000000000000000e+00,0.000000000000000000e+00,0.000000000000000000e+00,0.000000000000000000e+00
0.000000000000000000e+00,0.000000000000000000e+00,0.000000000000000000e+00,0.000000000000000000e+00,0.000000000000000000e+00,0.000000000000000000e+00,0.000000000000000000e+00,0.000000000000000000e+00,0.000000000000000000e+00,0.000000000000000000e+00
0.000000000000000000e+00,0.000000000000000000e+00,0.000000000000000000e+00,0.000000000000000000e+00,0.000000000000000000e+00,0.000000000000000000e+00,0.000000000000000000e+00,0.000000000000000000e+00,0.000000000000000000e+00,0.000000000000000000e+00
0.000000000000000000e+00,0.000000000000000000e+00,0.000000000000000000e+00,0.000000000000000000e+00,0.000000000000000000e+00,0.000000000000000000e+00,0.000000000000000000e+00,0.000000000000000000e+00,0.000000000000000000e+00,0.000000000000000000e+00
-6.249930351032162434e-08,8.952730422606691718e-05,-1.363999399472959340e-05,-2.054655624306178652e-06,-3.189037897755042650e-06,-1.458558813283161726e-06,-5.121801223140209913e-05,-5.511209266728656075e-09,-1.732203782012220472e-05,-5.771638029727910180e-07
8.395453914999961853e-04,2.121362194884568453e-05,-4.366732900962233543e-05,-5.022725872549926862e-06,-1.140640466473996639e-03,-2.360088838031515479e-04,1.048580510541796684e-03,-1.723293389659374952e-04,-1.042883013724349439e-04,-2.073830401059240103e-04
-1.209763111546635628e-03,-3.288604057161137462e-05,-3.199129423592239618e-04,-1.678674743743613362e-04,-5.547056789509952068e-04,8.206057827919721603e-04,1.798204146325588226e-03,-1.730900257825851440e-04,-6.005284012644551694e-05,-1.005321391858160496e-04
-1.061076298356056213e-02,-6.020506843924522400e-04,2.561239758506417274e-03,1.598970592021942139e-02,-1.732585718855261803e-03,-6.632939912378787994e-03,3.700769040733575821e-03,-7.613311172462999821e-04,-1.504134386777877808e-03,-4.079091595485806465e-04
-1.330283842980861664e-02,-1.629752106964588165e-03,8.491161279380321503e-03,1.178476400673389435e-02,-1.251516677439212799e-02,-5.121635738760232925e-03,1.767513155937194824e-02,-1.279434422031044960e-03,-3.304508514702320099e-03,-7.977138739079236984e-04
-1.550264004617929459e-02,-7.008846849203109741e-03,1.831763051450252533e-02,2.536102943122386932e-02,-2.981981635093688965e-02,-1.168653275817632675e-02,3.441960364580154419e-02,-4.952813964337110519e-03,-6.700636819005012512e-03,-2.426939085125923157e-03
-6.565144285559654236e-03,-1.966970413923263550e-02,3.446725383400917053e-02,3.264995664358139038e-02,-5.732114985585212708e-02,-1.377752237021923065e-02,5.535141378641128540e-02,-1.182460505515336990e-02,-8.628279902040958405e-03,-4.682153929024934769e-03
-2.536874078214168549e-02,-3.454974293708801270e-02,1.057168170809745789e-01,1.955891028046607971e-02,-8.134354650974273682e-02,-2.855432033538818359e-02,8.872636407613754272e-02,-1.592313498258590698e-02,-1.815183646976947784e-02,-1.011058408766984940e-02
-2.796239033341407776e-02,-5.321784317493438721e-02,1.386489123106002808e-01,3.516326844692230225e-02,-1.061086431145668030e-01,-3.430496901273727417e-02,1.201178729534149170e-01,-2.709410153329372406e-02,-2.670547552406787872e-02,-1.853640191256999969e-02
-2.310927957296371460e-02,-7.148804515600204468e-02,1.700178533792495728e-01,9.576713293790817261e-02,-1.353471428155899048e-01,-6.041688472032546997e-02,1.341093778610229492e-01,-3.551969304680824280e-02,-4.566717892885208130e-02,-2.834620885550975800e-02
-3.706194460391998291e-02,-4.903264343738555908e-02,1.849558949470520020e-01,1.427533030509948730e-01,-1.896423995494842529e-01,-6.579936295747756958e-02,1.418705135583877563e-01,-3.055001236498355865e-02,-6.080732122063636780e-02,-3.668610006570816040e-02
-2.201282978057861328e-02,-1.983570493757724762e-02,1.840852349996566772e-01,1.409217715263366699e-01,-2.197631299495697021e-01,-6.527342647314071655e-02,1.609307080507278442e-01,-3.287449851632118225e-02,-7.823792099952697754e-02,-4.793976247310638428e-02
-3.507579863071441650e-02,-1.168874371796846390e-02,1.263510435819625854e-01,1.940166801214218140e-01,-1.960125714540481567e-01,-3.805297240614891052e-02,1.580486595630645752e-01,-3.705278784036636353e-02,-1.023152992129325867e-01,-5.821854621171951294e-02
-4.489448666572570801e-02,7.190998643636703491e-03,9.905572235584259033e-02,1.729895323514938354e-01,-1.955465972423553467e-01,-2.383912215009331703e-04,1.623144000768661499e-01,-3.995884209871292114e-02,-9.445770084857940674e-02,-6.645469367504119873e-02
-3.963194042444229126e-02,8.696330711245536804e-03,9.494421631097793579e-02,1.389550864696502686e-01,-1.534226983785629272e-01,-1.037023961544036865e-03,1.422511786222457886e-01,-3.745076805353164673e-02,-8.907819539308547974e-02,-6.422609835863113403e-02
-5.633386969566345215e-02,-2.920700237154960632e-02,3.598495572805404663e-02,1.103735491633415222e-01,-1.174524202942848206e-01,4.385075718164443970e-02,1.774478256702423096e-01,-3.151113912463188171e-02,-8.225583285093307495e-02,-5.089656263589859009e-02
-8.434240520000457764e-02,-4.442315921187400818e-02,-4.481368511915206909e-02,9.444515407085418701e-02,-8.486140519380569458e-02,7.584189623594284058e-02,1.884160339832305908e-01,-2.431241981685161591e-02,-4.616183787584304810e-02,-2.978794649243354797e-02
-8.602094650268554688e-02,-4.643524438142776489e-02,-7.099039852619171143e-02,6.834256649017333984e-02,-3.037013858556747437e-02,5.958437174558639526e-02,1.963968724012374878e-01,-1.437442936003208160e-02,-5.352611467242240906e-02,-2.260628342628479004e-02
-6.358676403760910034e-02,-4.998727887868881226e-02,-8.311356604099273682e-02,4.700735211372375488e-02,-6.228731479495763779e-03,5.215555801987648010e-02,1.675779074430465698e-01,-1.055615302175283432e-02,-3.727273270487785339e-02,-1.599565148353576660e-02
-5.332921445369720459e-02,-3.525801748037338257e-02,-6.931015104055404663e-02,-1.433166768401861191e-02,-3.300312208011746407e-03,2.728921920061111450e-02,1.767115443944931030e-01,-5.894999951124191284e-03,-1.411603577435016632e-02,-8.460298180580139160e-03
-3.449001163244247437e-02,-2.111940272152423859e-02,-5.685864016413688660e-02,-2.112939767539501190e-02,7.122909300960600376e-04,7.760993205010890961e-03,1.308798640966415405e-01,-2.668409608304500580e-03,3.361182752996683121e-04,-3.423321759328246117e-03
-1.285905484110116959e-02,-1.330700702965259552e-02,-3.912865370512008667e-02,-8.838159963488578796e-03,3.361478215083479881e-03,-2.393893338739871979e-02,8.943928033113479614e-02,-9.781714761629700661e-04,7.653264794498682022e-03,-1.403986942023038864e-03
-5.928876344114542007e-03,-9.108631871640682220e-03,-9.311637841165065765e-03,-3.549364628270268440e-03,-2.364463871344923973e-03,-2.038441412150859833e-02,5.062571913003921509e-02,-3.957150329370051622e-04,8.041449473239481449e-04,-3.867495106533169746e-04
-3.130669938400387764e-03,-2.184460172429680824e-03,3.191541647538542747e-03,-2.149898064089938998e-04,-2.107800683006644249e-04,5.511636380106210709e-03,-2.556571969762444496e-03,-3.685981482703937218e-06,-3.737927181646227837e-04,-2.822634451149497181e-05
-6.975752767175436020e-04,-2.671659924089908600e-03,-2.908837050199508667e-04,-1.774203155946452171e-05,-1.010756532195955515e-04,1.256780698895454407e-03,3.750950098037719727e-03,-1.787044539014459588e-07,-1.226540654897689819e-03,-2.075038537441287190e-06
0.000000000000000000e+00,0.000000000000000000e+00,0.000000000000000000e+00,0.000000000000000000e+00,0.000000000000000000e+00,0.000000000000000000e+00,0.000000000000000000e+00,0.000000000000000000e+00,0.000000000000000000e+00,0.000000000000000000e+00
0.000000000000000000e+00,0.000000000000000000e+00,0.000000000000000000e+00,0.000000000000000000e+00,0.000000000000000000e+00,0.000000000000000000e+00,0.000000000000000000e+00,0.000000000000000000e+00,0.000000000000000000e+00,0.000000000000000000e+00
-1.837338636789809243e-08,-2.124491338406642171e-08,-5.516676992556313053e-06,7.770648153382353485e-06,-1.354995760038946173e-07,-1.863822944869752973e-06,-3.027098216534795938e-08,-7.076941699324379442e-09,-1.712697041966748657e-07,-6.352914638796391955e-09
-9.173503713100217283e-06,3.044716431759297848e-04,-2.689165412448346615e-04,2.080475096590816975e-04,-2.618583721414324827e-06,-1.743351604091003537e-04,-2.077819954138249159e-04,-3.430857731245851028e-08,1.508953137090429664e-04,-5.551134449888195377e-07
-1.082470844266936183e-04,-5.566329855355434120e-05,-9.148438693955540657e-04,3.526796819642186165e-03,-1.646054297452792525e-04,-1.552858971990644932e-03,-3.735171922016888857e-04,3.583541547413915396e-05,-2.845404087565839291e-04,-1.083557144738733768e-04
-1.238758442923426628e-03,3.044555705855600536e-05,-6.228999234735965729e-03,1.525714155286550522e-02,1.803262624889612198e-03,-8.967167697846889496e-03,1.748078386299312115e-03,-5.935962544754147530e-04,-1.376631436869502068e-03,-4.337749269325286150e-04
-1.643547974526882172e-02,1.799129182472825050e-03,1.395306736230850220e-02,5.764946714043617249e-02,5.441413260996341705e-03,-3.618057072162628174e-02,-8.527145721018314362e-03,-5.525236483663320541e-03,-8.114655502140522003e-03,-4.059951752424240112e-03
-2.193397097289562225e-02,-7.395309861749410629e-03,4.281232878565788269e-02,7.977394014596939087e-02,-6.773621775209903717e-03,-5.165505409240722656e-02,-5.462835542857646942e-03,-7.383315823972225189e-03,-1.517539378255605698e-02,-6.806804798543453217e-03
-2.029129862785339355e-02,-2.948409691452980042e-02,6.056085973978042603e-02,1.284972876310348511e-01,-2.330738119781017303e-02,-6.400153785943984985e-02,8.579120039939880371e-03,-2.006605081260204315e-02,-2.746439166367053986e-02,-1.302241161465644836e-02
-2.253561653196811676e-02,-4.434844478964805603e-02,1.155987158417701721e-01,1.733967959880828857e-01,-6.659869104623794556e-02,-1.120459437370300293e-01,4.126110672950744629e-02,-3.521814942359924316e-02,-2.637506648898124695e-02,-2.313467673957347870e-02
-1.883806847035884857e-02,-5.533944070339202881e-02,2.167501896619796753e-01,1.867143213748931885e-01,-1.084567010402679443e-01,-1.250616461038589478e-01,3.911240398883819580e-02,-5.713945627212524414e-02,-3.300052508711814880e-02,-4.474128037691116333e-02
-2.717474848031997681e-02,-5.885301157832145691e-02,2.556519806385040283e-01,2.257685661315917969e-01,-1.686524301767349243e-01,-9.416532516479492188e-02,5.408224463462829590e-02,-8.129809796810150146e-02,-4.191899299621582031e-02,-6.344091892242431641e-02
-1.845218800008296967e-02,-7.515450567007064819e-02,2.908432781696319580e-01,2.697826921939849854e-01,-1.950085461139678955e-01,-6.309304386377334595e-02,8.023212663829326630e-03,-9.632217139005661011e-02,-2.537586353719234467e-02,-9.524308145046234131e-02
-4.241230338811874390e-02,4.390815272927284241e-03,2.980732619762420654e-01,2.641707658767700195e-01,-2.223973423242568970e-01,-9.447065740823745728e-02,-1.375441718846559525e-02,-1.166058108210563660e-01,6.046703457832336426e-02,-1.374614536762237549e-01
-3.747712820768356323e-02,1.162087246775627136e-01,2.225179374217987061e-01,2.585806846618652344e-01,-2.048400044441223145e-01,-1.437807083129882812e-01,-4.985602106899023056e-03,-1.372682154178619385e-01,9.338193386793136597e-02,-1.623378545045852661e-01
-4.666109383106231689e-02,1.493190973997116089e-01,1.864437609910964966e-01,2.137385457754135132e-01,-2.194701433181762695e-01,-7.214409112930297852e-02,-9.819716215133666992e-03,-1.551966220140457153e-01,1.568262428045272827e-01,-2.030362933874130249e-01
-1.779420487582683563e-02,1.183042675256729126e-01,1.295956671237945557e-01,1.936451047658920288e-01,-2.087294459342956543e-01,4.554567858576774597e-02,-1.496410276740789413e-02,-1.570608913898468018e-01,1.440581679344177246e-01,-2.325999736785888672e-01
-4.806990176439285278e-02,9.057472646236419678e-02,1.226991862058639526e-01,1.546328216791152954e-01,-1.511281132698059082e-01,9.981339424848556519e-02,5.579454079270362854e-02,-1.474132984876632690e-01,5.644160881638526917e-02,-2.333444803953170776e-01
-2.246795780956745148e-02,4.214603453874588013e-02,8.915024250745773315e-02,8.430600166320800781e-02,-1.130951344966888428e-01,1.287814974784851074e-01,1.304953098297119141e-01,-1.244946643710136414e-01,-3.318842872977256775e-02,-1.816329807043075562e-01
-5.382934957742691040e-02,1.636807061731815338e-02,7.658103480935096741e-03,9.919302910566329956e-02,-7.854888588190078735e-02,1.433872580528259277e-01,1.652067750692367554e-01,-9.905107319355010986e-02,-6.729143857955932617e-02,-1.330925673246383667e-01
-5.214118212461471558e-02,7.421299070119857788e-02,-8.016946911811828613e-02,2.910372614860534668e-02,-1.359792891889810562e-02,4.826241731643676758e-02,2.227799296379089355e-01,-7.209684699773788452e-02,-5.307008698582649231e-02,-1.032835990190505981e-01
-4.947146400809288025e-02,9.269919246435165405e-02,-9.779928624629974365e-02,-3.349821269512176514e-02,3.014147281646728516e-02,-2.783418260514736176e-02,2.246323823928833008e-01,-5.474345758557319641e-02,-1.260709948837757111e-02,-7.151953130960464478e-02
-6.065158173441886902e-02,9.634740650653839111e-02,-1.337496638298034668e-01,-7.813507318496704102e-02,2.620959654450416565e-02,7.320570200681686401e-02,2.246639430522918701e-01,-3.121793828904628754e-02,-6.108307093381881714e-02,-5.558932200074195862e-02
-4.808433726429939270e-02,5.456400662660598755e-02,-1.330235898494720459e-01,-7.313601672649383545e-02,5.319327488541603088e-02,7.780642807483673096e-02,1.923496127128601074e-01,-2.172129228711128235e-02,-6.668136268854141235e-02,-3.526686877012252808e-02
-5.147465318441390991e-02,1.857805997133255005e-02,-9.950945526361465454e-02,-7.936099916696548462e-02,6.616024672985076904e-02,1.015025898814201355e-01,1.226984262466430664e-01,-1.033887919038534164e-02,-5.141460150480270386e-02,-1.684073917567729950e-02
-4.237934947013854980e-02,-2.251674607396125793e-02,-4.918780550360679626e-02,-2.201184071600437164e-02,3.684096038341522217e-02,8.002531528472900391e-02,3.180174902081489563e-02,-3.808510955423116684e-03,-2.382280072197318077e-03,-6.381583865731954575e-03
-1.408454403281211853e-02,-1.565168239176273346e-02,-7.390237879008054733e-03,-3.385652322322130203e-03,3.687211778014898300e-03,2.757221646606922150e-02,3.623048542067408562e-03,-8.390407310798764229e-04,7.817205041646957397e-03,-1.348528778180480003e-03
-1.350122969597578049e-03,-1.896926900371909142e-03,-1.032985746860504150e-03,-6.308971933322027326e-05,-1.611922867596149445e-03,1.935981563292443752e-03,5.351143190637230873e-04,-1.897900365293025970e-04,4.152627661824226379e-03,-4.788832738995552063e-04
-2.353461604798212647e-05,-9.257295168936252594e-04,-7.784853223711252213e-04,-1.595289177203085274e-05,-4.711586516350507736e-04,-3.938071022275835276e-04,2.350983442738652229e-03,-8.815683031571097672e-06,2.941174607258290052e-04,-2.761681571428198367e-05
0.000000000000000000e+00,0.000000000000000000e+00,0.000000000000000000e+00,0.000000000000000000e+00,0.000000000000000000e+00,0.000000000000000000e+00,0.000000000000000000e+00,0.000000000000000000e+00,0.000000000000000000e+00,0.000000000000000000e+00
0.000000000000000000e+00,0.000000000000000000e+00,0.000000000000000000e+00,0.000000000000000000e+00,0.000000000000000000e+00,0.000000000000000000e+00,0.000000000000000000e+00,0.000000000000000000e+00,0.000000000000000000e+00,0.000000000000000000e+00
-5.923734352109022439e-05,3.222783197998069227e-05,4.460423951968550682e-05,7.761437445878982544e-04,-3.239804937038570642e-05,-7.209864561446011066e-04,3.080826354562304914e-05,-5.394436811911873519e-06,-6.366004527080804110e-05,-2.108214630425209180e-06
-9.473260724917054176e-04,1.091811107471585274e-03,3.555327130015939474e-04,1.900488510727882385e-02,6.496766582131385803e-04,-9.969020262360572815e-03,-5.107286386191844940e-03,-2.244331553811207414e-04,-4.097509197890758514e-03,-7.563351537100970745e-04
-6.491601932793855667e-03,6.854799576103687286e-04,3.946225158870220184e-03,5.587714910507202148e-02,3.068120917305350304e-03,-3.525039926171302795e-02,-2.404238097369670868e-03,-1.584197627380490303e-03,-1.270786207169294357e-02,-5.138695240020751953e-03
-2.939822897315025330e-02,9.084095247089862823e-03,2.320628613233566284e-02,1.287050992250442505e-01,1.729451119899749756e-02,-7.188312709331512451e-02,-4.452668502926826477e-02,1.354843284934759140e-02,-2.844647876918315887e-02,-1.758381351828575134e-02
-3.761805221438407898e-02,-1.833799667656421661e-02,7.430614531040191650e-02,1.676224172115325928e-01,1.478827092796564102e-02,-1.023335903882980347e-01,-3.284862637519836426e-02,9.899794124066829681e-03,-3.530025854706764221e-02,-4.017812013626098633e-02
-5.034444481134414673e-02,-6.727755069732666016e-02,1.298396885395050049e-01,2.062959223985671997e-01,2.986037870869040489e-03,-8.225752413272857666e-02,-3.029722720384597778e-02,-3.293136600404977798e-03,-4.365694150328636169e-02,-6.199481710791587830e-02
-4.982025176286697388e-02,-1.197665035724639893e-01,1.969911605119705200e-01,1.949490010738372803e-01,-1.594145596027374268e-02,-8.384317904710769653e-02,1.287524309009313583e-02,-5.162816960364580154e-03,-4.251622408628463745e-02,-8.776471018791198730e-02
-4.352593794465065002e-02,-1.325719207525253296e-01,2.349699288606643677e-01,2.091642916202545166e-01,-2.584963105618953705e-02,-3.830172866582870483e-02,-2.461525378748774529e-03,-4.038283228874206543e-02,-3.246263414621353149e-02,-1.285780370235443115e-01
2.273485530167818069e-03,-9.472637623548507690e-02,2.634869515895843506e-01,1.805047839879989624e-01,-1.020053699612617493e-01,1.906950399279594421e-02,-8.151855319738388062e-03,-1.000969111919403076e-01,-5.405524745583534241e-02,-1.062985435128211975e-01
3.813745453953742981e-03,-6.826528161764144897e-02,2.774547040462493896e-01,1.448926180601119995e-01,-1.395805627107620239e-01,5.140264332294464111e-02,-1.482387483119964600e-01,-1.544301956892013550e-01,7.629300653934478760e-02,-4.334213584661483765e-02
2.206895500421524048e-02,9.854811243712902069e-03,2.425940632820129395e-01,1.057305932044982910e-01,-1.569805145263671875e-01,-1.231841370463371277e-02,-1.306661069393157959e-01,-2.004529535770416260e-01,1.663457900285720825e-01,-4.617602378129959106e-02
1.011384725570678711e-01,9.360548108816146851e-02,2.126251161098480225e-01,9.509781002998352051e-02,-1.694211661815643311e-01,-7.481662929058074951e-02,-1.592322438955307007e-01,-2.596047222614288330e-01,1.800681799650192261e-01,-1.945982687175273895e-02
1.269166320562362671e-01,1.096242889761924744e-01,2.117221355438232422e-01,3.040696680545806885e-02,-9.530483186244964600e-02,-7.686281949281692505e-02,-8.356051892042160034e-02,-3.055428564548492432e-01,1.951930224895477295e-01,-1.125919446349143982e-01
1.435865014791488647e-01,1.093588545918464661e-01,2.257277965545654297e-01,6.775176525115966797e-02,-5.510280281305313110e-02,-5.733790248632431030e-02,-8.045668900012969971e-02,-3.195812702178955078e-01,1.575910449028015137e-01,-1.915372610092163086e-01
1.550300717353820801e-01,-1.178482547402381897e-02,2.449354827404022217e-01,1.133230701088905334e-01,-1.157536543905735016e-02,3.170254826545715332e-02,-5.880845710635185242e-02,-2.889159619808197021e-01,1.455375254154205322e-01,-3.194446861743927002e-01
1.865789592266082764e-01,-5.008769407868385315e-02,2.053962945938110352e-01,1.047439989633858204e-03,-3.326943144202232361e-02,1.028738170862197876e-01,1.244025863707065582e-02,-2.752439677715301514e-01,1.676608771085739136e-01,-3.173962235450744629e-01
1.413282006978988647e-01,-1.392692048102617264e-02,1.107261627912521362e-01,1.110209710896015167e-02,2.852714620530605316e-02,8.645164221525192261e-02,1.187828406691551208e-01,-2.541404068470001221e-01,3.938456997275352478e-02,-2.682356834411621094e-01
4.836095124483108521e-02,4.271336644887924194e-02,-1.438280940055847168e-02,-1.075205951929092407e-02,7.761852443218231201e-02,4.246671870350837708e-02,1.975339800119400024e-01,-2.223165184259414673e-01,6.805030256509780884e-02,-2.292929142713546753e-01
3.548866370692849159e-03,1.428343355655670166e-01,-7.140014320611953735e-02,-5.292372405529022217e-02,6.981960684061050415e-02,9.092295914888381958e-02,1.656167060136795044e-01,-1.761695891618728638e-01,2.252623997628688812e-02,-1.947753429412841797e-01
4.050577525049448013e-03,2.039895653724670410e-01,-7.789485901594161987e-02,-1.357709020376205444e-01,9.009838104248046875e-02,1.066494882106781006e-01,1.237704530358314514e-01,-1.196529120206832886e-01,-2.217683196067810059e-02,-1.730631887912750244e-01
-2.243453264236450195e-02,1.576873064041137695e-01,-1.175152435898780823e-01,-1.464103311300277710e-01,1.512743681669235229e-01,1.857737153768539429e-01,9.394834190607070923e-02,-8.542297780513763428e-02,-6.941349804401397705e-02,-1.474875211715698242e-01
-8.025142550468444824e-02,7.195547223091125488e-02,-1.308746188879013062e-01,-1.463988572359085083e-01,1.920391619205474854e-01,2.250165939331054688e-01,9.103980660438537598e-02,-4.916678369045257568e-02,-7.662630081176757812e-02,-9.673320502042770386e-02
-7.818493992090225220e-02,1.008276082575321198e-02,-7.896335422992706299e-02,-5.472604557871818542e-02,7.581208646297454834e-02,1.891014575958251953e-01,3.331268206238746643e-02,-1.879750192165374756e-02,-3.444691374897956848e-02,-4.318962991237640381e-02
-3.288340196013450623e-02,-2.807102724909782410e-02,-2.028359286487102509e-02,-1.188774872571229935e-02,4.142981953918933868e-03,9.567753970623016357e-02,-5.096036475151777267e-03,-5.435699597001075745e-03,1.714290678501129150e-02,-1.330593600869178772e-02
-1.005464047193527222e-02,-3.813415765762329102e-03,-4.380168393254280090e-03,-1.150006777606904507e-03,-4.340795800089836121e-03,2.358787506818771362e-02,4.553555045276880264e-03,-1.896042143926024437e-03,-4.009729600511491299e-04,-2.105387160554528236e-03
-1.500724931247532368e-03,-1.132077770307660103e-03,-1.149200950749218464e-03,-5.127011536387726665e-05,-9.477672574575990438e-05,1.125464448705315590e-03,3.507361747324466705e-03,-4.516791886999271810e-05,-6.266277050599455833e-04,-3.297951843705959618e-05
0.000000000000000000e+00,0.000000000000000000e+00,0.000000000000000000e+00,0.000000000000000000e+00,0.000000000000000000e+00,0.000000000000000000e+00,0.000000000000000000e+00,0.000000000000000000e+00,0.000000000000000000e+00,0.000000000000000000e+00
-8.273448202089639381e-07,-4.357492855433520162e-07,-3.440449290792457759e-06,6.350668263621628284e-05,-2.524180899854400195e-07,-6.682723778794752434e-06,-8.854136268610091065e-08,-1.011775907500123139e-06,-5.230845999903976917e-06,-4.553683902486227453e-05
-1.820084580685943365e-04,-1.831083791330456734e-03,-1.343597774393856525e-03,1.978886546567082405e-03,-1.392697449773550034e-03,2.350409195059910417e-04,-3.187330148648470640e-04,5.309621337801218033e-03,-9.629408014006912708e-04,-1.492486451752483845e-03
-1.595469308085739613e-03,8.684490603627637029e-05,-1.869336992967873812e-04,4.431298375129699707e-02,-4.823792260140180588e-03,-2.936847321689128876e-02,-9.340971708297729492e-03,2.144277654588222504e-02,-1.201140135526657104e-02,-8.515560068190097809e-03
-1.172948256134986877e-02,-4.067879170179367065e-03,1.742114871740341187e-02,1.075260937213897705e-01,1.162171177566051483e-02,-7.413590699434280396e-02,-1.040153484791517258e-02,2.015045844018459320e-02,-2.619778551161289215e-02,-3.018680214881896973e-02
-2.474923245608806610e-02,-2.065403386950492859e-02,4.574955254793167114e-02,1.708517372608184814e-01,4.629852995276451111e-02,-9.074553847312927246e-02,-4.880247637629508972e-02,4.029130935668945312e-02,-3.901237994432449341e-02,-7.922744750976562500e-02
-4.089647531509399414e-02,-5.224045738577842712e-02,1.159851625561714172e-01,1.982230544090270996e-01,4.711534827947616577e-02,-8.552654087543487549e-02,-7.049379497766494751e-02,6.628116965293884277e-02,-5.174968764185905457e-02,-1.266974359750747681e-01
-5.482651665806770325e-02,-1.019905060529708862e-01,1.495885103940963745e-01,1.603458672761917114e-01,4.241130128502845764e-02,-3.540548309683799744e-02,-3.872458264231681824e-02,7.632279396057128906e-02,-2.626106888055801392e-02,-1.714603006839752197e-01
-7.145868986845016479e-02,-1.676243245601654053e-01,1.549806743860244751e-01,1.821013092994689941e-01,5.121792783029377460e-04,-1.039273850619792938e-02,-3.069399669766426086e-02,1.313522309064865112e-01,4.878807812929153442e-03,-1.936557143926620483e-01
-9.155884385108947754e-02,-2.124110460281372070e-01,1.888071000576019287e-01,1.842926144599914551e-01,-2.341198362410068512e-02,3.236756846308708191e-02,-6.488376855850219727e-02,1.191657111048698425e-01,1.562297530472278595e-02,-1.479901820421218872e-01
-1.671653613448143005e-02,-1.678032428026199341e-01,1.645600348711013794e-01,1.607917398214340210e-01,-8.943792432546615601e-02,6.562674045562744141e-02,-1.399932652711868286e-01,9.837871789932250977e-02,1.323017291724681854e-02,-8.863638341426849365e-02
1.204892294481396675e-03,-7.883168756961822510e-02,8.070763945579528809e-02,9.543034434318542480e-02,-1.749871671199798584e-01,5.268506705760955811e-02,-1.627048850059509277e-01,7.519517093896865845e-02,8.159837871789932251e-02,2.970235981047153473e-02
1.157963927835226059e-02,-5.828608199954032898e-02,5.877923592925071716e-02,8.097090572118759155e-02,-1.966345757246017456e-01,3.914035484194755554e-02,-1.377721428871154785e-01,-2.020147070288658142e-02,1.356505900621414185e-01,8.677341789007186890e-02
1.041571795940399170e-01,-6.664797663688659668e-02,7.459563016891479492e-02,1.610457152128219604e-01,-2.268958240747451782e-01,1.365460362285375595e-02,-1.794137805700302124e-01,-1.389012634754180908e-01,5.266690999269485474e-02,2.057392001152038574e-01
1.189168095588684082e-01,-7.895320653915405273e-02,9.178025275468826294e-02,1.339230984449386597e-01,-2.674959003925323486e-01,4.129513725638389587e-02,-1.528697609901428223e-01,-1.590190827846527100e-01,4.756903648376464844e-02,2.248529791831970215e-01
1.182970032095909119e-01,-1.497053653001785278e-01,1.016633063554763794e-01,1.180135086178779602e-01,-2.510021924972534180e-01,-4.484109580516815186e-02,-1.184669509530067444e-01,-1.103285253047943115e-01,1.847615540027618408e-01,1.516086757183074951e-01
1.623437553644180298e-01,-1.733688265085220337e-01,9.940924495458602905e-02,1.444638967514038086e-01,-2.430810630321502686e-01,-3.891758620738983154e-02,-1.469349414110183716e-01,-9.981217235326766968e-02,1.271928846836090088e-01,1.687056273221969604e-01
2.109648138284683228e-01,-1.660340130329132080e-01,4.855030402541160583e-02,8.061692118644714355e-02,-1.926836073398590088e-01,1.409785915166139603e-02,-1.191071718931198120e-01,-9.163576364517211914e-02,9.020977467298507690e-02,1.250209361314773560e-01
2.188523113727569580e-01,-8.593743294477462769e-02,2.500851452350616455e-02,1.156355142593383789e-01,-1.682071536779403687e-01,6.057475879788398743e-02,-9.585621207952499390e-02,-1.316667795181274414e-01,-2.546640299260616302e-02,8.706337958574295044e-02
1.350917667150497437e-01,-2.539508044719696045e-02,-5.254843086004257202e-02,-2.006809972226619720e-02,-2.995153702795505524e-02,9.951653331518173218e-02,-2.910392545163631439e-02,-1.360221505165100098e-01,9.246599674224853516e-02,-3.398520126938819885e-02
8.283475041389465332e-02,7.856985926628112793e-02,-9.279270470142364502e-02,2.729574963450431824e-02,-3.452176926657557487e-03,8.136823028326034546e-02,-2.037811093032360077e-02,-1.270183026790618896e-01,5.363191664218902588e-02,-8.005931228399276733e-02
1.203117817640304565e-01,1.088473349809646606e-01,-8.227386325597763062e-02,-2.675008773803710938e-02,8.786191046237945557e-02,6.745558232069015503e-02,-2.964917197823524475e-02,-8.672569692134857178e-02,7.585912477225065231e-03,-1.666636615991592407e-01
9.093704819679260254e-02,8.110802620649337769e-02,-1.138601079583168030e-01,-1.300867795944213867e-01,2.262712121009826660e-01,1.746667474508285522e-01,-2.854963205754756927e-02,-9.839399158954620361e-02,1.696523465216159821e-02,-2.190576791763305664e-01
-3.624668344855308533e-02,1.609538681805133820e-02,-1.657369136810302734e-01,-1.495754718780517578e-01,2.557539939880371094e-01,3.053655624389648438e-01,-2.132530324161052704e-02,-8.532308787107467651e-02,6.601339578628540039e-02,-1.850207298994064331e-01
-1.202725991606712341e-01,-2.860268019139766693e-02,-8.701959252357482910e-02,-7.789859920740127563e-02,9.353806823492050171e-02,3.706326186656951904e-01,-1.955412514507770538e-02,-4.662897437810897827e-02,1.762362942099571228e-02,-1.018177121877670288e-01
-7.463657855987548828e-02,-3.072788380086421967e-02,-2.832062542438507080e-02,-2.206866629421710968e-02,5.905176047235727310e-03,1.983312517404556274e-01,-1.495669316500425339e-02,-1.980310305953025818e-02,2.567162364721298218e-02,-3.939457237720489502e-02
-2.950327470898628235e-02,-2.394511131569743156e-03,-3.086513606831431389e-03,-2.593022771179676056e-03,4.928081762045621872e-03,6.420811265707015991e-02,-1.006397884339094162e-02,-6.486358586698770523e-03,-5.004565697163343430e-03,-1.000394392758607864e-02
-5.564821884036064148e-03,-2.327690453967079520e-04,-2.753160370048135519e-04,-2.917387173511087894e-04,-6.212427979335188866e-04,1.003951951861381531e-02,-7.807565270923078060e-04,-5.176193662919104099e-04,-1.297576935030519962e-03,-4.576756327878683805e-04
0.000000000000000000e+00,0.000000000000000000e+00,0.000000000000000000e+00,0.000000000000000000e+00,0.000000000000000000e+00,0.000000000000000000e+00,0.000000000000000000e+00,0.000000000000000000e+00,0.000000000000000000e+00,0.000000000000000000e+00
-1.046304241754114628e-04,-1.480918144807219505e-04,-2.285075606778264046e-04,1.646344666369259357e-03,-1.717471459414809942e-04,-4.129569279029965401e-04,-3.489825394353829324e-05,1.831414178013801575e-03,-8.769060950726270676e-04,-1.500019920058548450e-03
-4.746759950648993254e-04,-1.689698547124862671e-03,2.438355935737490654e-03,-8.583830203860998154e-04,-2.111887326464056969e-03,-5.474638659507036209e-03,-1.131389522925019264e-03,1.707829721271991730e-02,-2.355695236474275589e-03,-5.420285742729902267e-03
-3.046046011149883270e-03,-3.575008129701018333e-03,4.570888355374336243e-03,4.562951996922492981e-02,-3.850276349112391472e-03,-4.146072268486022949e-02,-1.345306169241666794e-02,5.320948734879493713e-02,-1.211750041693449020e-02,-2.590727061033248901e-02
-1.925844885408878326e-02,-6.328929681330919266e-03,5.070994794368743896e-02,1.683425456285476685e-01,1.998677477240562439e-02,-1.424620449542999268e-01,-1.781500875949859619e-02,4.433879256248474121e-02,-2.175949700176715851e-02,-7.575390487909317017e-02
-2.133498340845108032e-02,-3.881355002522468567e-02,6.865487247705459595e-02,2.346196770668029785e-01,6.591945141553878784e-02,-1.457228362560272217e-01,-5.881407856941223145e-02,6.830120831727981567e-02,-1.639204658567905426e-02,-1.564175635576248169e-01
-4.335968941450119019e-02,-8.561202883720397949e-02,1.674836277961730957e-01,1.753830313682556152e-01,3.982890397310256958e-02,-1.024925261735916138e-01,-9.284884482622146606e-02,1.364212483167648315e-01,1.275695580989122391e-02,-2.075604647397994995e-01
-6.838636845350265503e-02,-1.309952288866043091e-01,1.207928359508514404e-01,1.046996563673019409e-01,2.872254885733127594e-02,1.567522622644901276e-02,-4.284167662262916565e-02,1.692789196968078613e-01,3.942018002271652222e-02,-2.363653779029846191e-01
-9.517549723386764526e-02,-2.137623280286788940e-01,1.064620241522789001e-01,7.944594323635101318e-02,-2.172744646668434143e-02,8.484087139368057251e-02,-3.413283824920654297e-02,1.993239820003509521e-01,6.422156095504760742e-02,-1.694961935281753540e-01
-3.838854283094406128e-02,-2.446063309907913208e-01,8.462911844253540039e-02,6.823717802762985229e-02,-6.823415309190750122e-02,9.202311933040618896e-02,-8.773957937955856323e-02,2.177030444145202637e-01,3.308613225817680359e-02,-5.670973658561706543e-02
-1.602293364703655243e-02,-2.169009447097778320e-01,5.483913421630859375e-02,6.367579102516174316e-02,-1.448634117841720581e-01,1.444916129112243652e-01,-1.482601910829544067e-01,2.243605256080627441e-01,3.480166941881179810e-02,3.879078663885593414e-03
1.638461649417877197e-02,-1.631705909967422485e-01,6.424908339977264404e-02,4.322033748030662537e-02,-2.336743474006652832e-01,1.210414543747901917e-01,-1.324653774499893188e-01,2.123177051544189453e-01,-1.885925233364105225e-02,9.095644950866699219e-02
4.790037497878074646e-02,-9.036002308130264282e-02,2.785876020789146423e-02,7.883159816265106201e-02,-3.214509785175323486e-01,3.386135771870613098e-02,-1.550933718681335449e-01,1.615192592144012451e-01,-3.584392368793487549e-03,2.205175310373306274e-01
7.154879719018936157e-02,-1.320756673812866211e-01,8.707962930202484131e-02,1.306212693452835083e-01,-3.000033497810363770e-01,-3.778054937720298767e-02,-1.834163367748260498e-01,5.149406194686889648e-02,-1.214206218719482422e-02,3.246745467185974121e-01
8.054151386022567749e-02,-1.396430134773254395e-01,4.735202342271804810e-02,2.226039320230484009e-01,-3.943186998367309570e-01,2.748640626668930054e-02,-1.516024321317672729e-01,-3.349805995821952820e-02,-1.081317365169525146e-01,4.492106735706329346e-01
9.739854931831359863e-02,-2.277906835079193115e-01,9.823499247431755066e-03,1.840674877166748047e-01,-4.337837100028991699e-01,-6.779073923826217651e-02,-1.417777240276336670e-01,3.165723383426666260e-02,5.209230259060859680e-02,4.961044192314147949e-01
1.461552083492279053e-01,-1.943481266498565674e-01,5.630686879158020020e-03,7.993790507316589355e-02,-3.948073387145996094e-01,2.133013680577278137e-02,-2.395021170377731323e-01,1.020805090665817261e-01,2.426791004836559296e-02,4.492547810077667236e-01
2.050087749958038330e-01,-1.338681280612945557e-01,-8.851730078458786011e-02,8.395867049694061279e-02,-2.728270888328552246e-01,8.596283197402954102e-02,-2.390985488891601562e-01,1.484807580709457397e-01,-6.433691829442977905e-02,2.752366065979003906e-01
2.044953107833862305e-01,-1.240246295928955078e-01,-8.217985183000564575e-02,5.243559181690216064e-02,-2.254350483417510986e-01,8.013295382261276245e-02,-2.563557326793670654e-01,1.575340628623962402e-01,3.704318776726722717e-02,1.563543379306793213e-01
1.442881971597671509e-01,-3.857814520597457886e-02,-4.758963361382484436e-02,6.028200685977935791e-02,-1.092489510774612427e-01,9.539459645748138428e-02,-2.530238032341003418e-01,1.020068079233169556e-01,-1.611869409680366516e-02,6.258745491504669189e-02
6.863051652908325195e-02,1.744403317570686340e-02,-6.769252568483352661e-02,7.953143119812011719e-02,-7.009622454643249512e-02,7.914498448371887207e-02,-2.337093651294708252e-01,6.194328516721725464e-02,3.102404810488224030e-02,3.377994149923324585e-02
8.760304003953933716e-02,-2.269867807626724243e-03,-3.496250510215759277e-02,3.325159894302487373e-03,3.908470645546913147e-02,8.188837766647338867e-02,-1.966780871152877808e-01,7.509816903620958328e-03,6.847020238637924194e-02,-5.397082492709159851e-02
1.249042153358459473e-01,-2.408917807042598724e-02,-3.925017639994621277e-02,-9.610071778297424316e-02,1.902755647897720337e-01,1.647549867630004883e-01,-1.894188225269317627e-01,-1.101646013557910919e-02,9.552581608295440674e-02,-2.155851125717163086e-01
6.059750169515609741e-02,-7.450205087661743164e-02,-1.760697215795516968e-01,-1.571149528026580811e-01,2.042681723833084106e-01,3.573883771896362305e-01,-1.370392739772796631e-01,-3.314484283328056335e-02,1.847078949213027954e-01,-2.290910184383392334e-01
-8.282114565372467041e-02,-1.028637960553169250e-01,-1.200967356562614441e-01,-1.095935031771659851e-01,6.786562502384185791e-02,4.694750308990478516e-01,-5.329883471131324768e-02,-5.083689466118812561e-02,1.313656419515609741e-01,-1.491950899362564087e-01
-9.113582968711853027e-02,-5.309862270951271057e-02,-3.560713678598403931e-02,-2.990714460611343384e-02,2.215276472270488739e-03,3.345097899436950684e-01,-3.825384750962257385e-02,-3.340933099389076233e-02,4.796560388058423996e-03,-6.010969355702400208e-02
-3.418332710862159729e-02,-3.275335533544421196e-03,-3.972248639911413193e-03,-2.283466048538684845e-03,5.807481240481138229e-03,8.512394875288009644e-02,-1.186739001423120499e-02,-7.593831513077020645e-03,-1.279432792216539383e-02,-1.496149413287639618e-02
-2.761203330010175705e-03,-1.284650876186788082e-03,-1.982889953069388866e-04,-1.020009294734336436e-04,-6.048728246241807938e-04,8.109424263238906860e-03,-1.204368425533175468e-03,-3.916708228643983603e-04,-1.128944568336009979e-03,-4.334239347372204065e-04
1.029278733767569065e-03,-1.051553439879171492e-07,-3.721306711668148637e-05,-1.103034108496103727e-07,-4.289690332370810211e-05,-1.043468614625453483e-06,-2.260449036839418113e-06,-4.723577294498682022e-04,-4.058019840158522129e-06,-4.692337242886424065e-04
-2.058963000308722258e-04,-1.717208215268328786e-04,9.621961362427100539e-05,-2.387464512139558792e-03,-3.435969352722167969e-03,-5.815222393721342087e-04,-1.041058712871745229e-04,1.400057692080736160e-02,-1.039027702063322067e-03,-6.171088665723800659e-03
-8.454560302197933197e-04,-8.189600193873047829e-04,2.096247626468539238e-03,-3.973588347434997559e-03,-3.050621831789612770e-03,-7.025477476418018341e-03,-1.425670809112489223e-03,3.574992343783378601e-02,-3.723382716998457909e-03,-1.698299311101436615e-02
-5.262335296720266342e-03,-1.862542470917105675e-03,1.229068730026483536e-02,4.089330136775970459e-02,-8.440971374511718750e-03,-4.666088148951530457e-02,-1.408836618065834045e-02,8.827631920576095581e-02,-8.593025617301464081e-03,-5.655216425657272339e-02
-3.592239692807197571e-02,-9.204456582665443420e-03,6.175581365823745728e-02,1.822213232517242432e-01,5.566557403653860092e-03,-1.760890036821365356e-01,-2.723752520978450775e-02,1.116728261113166809e-01,3.251934889703989029e-03,-1.160152778029441833e-01
-4.377082735300064087e-02,-3.499659895896911621e-02,7.656454294919967651e-02,2.000893950462341309e-01,5.862347781658172607e-02,-1.718061417341232300e-01,-7.652541249990463257e-02,1.192565336823463440e-01,4.897700995206832886e-02,-1.764117926359176636e-01
-6.334166228771209717e-02,-9.214411675930023193e-02,1.117291674017906189e-01,1.545326411724090576e-01,4.232042469084262848e-03,-1.061400026082992554e-01,-1.081390157341957092e-01,1.508539915084838867e-01,9.747911244630813599e-02,-1.490621119737625122e-01
-6.924575567245483398e-02,-1.417836546897888184e-01,1.012956425547599792e-01,6.961491703987121582e-02,-2.096353471279144287e-02,-1.155453920364379883e-02,-7.097923755645751953e-02,2.156214267015457153e-01,1.080452799797058105e-01,-1.800506114959716797e-01
-6.061227247118949890e-02,-2.236367464065551758e-01,1.038660481572151184e-01,3.448730707168579102e-02,-8.377770334482192993e-02,1.033952832221984863e-01,-6.150401011109352112e-02,1.805442422628402710e-01,4.104899242520332336e-02,-3.381101042032241821e-02
8.054525591433048248e-03,-2.672169208526611328e-01,1.084712371230125427e-01,7.882043719291687012e-03,-2.952524460852146149e-02,9.865609556436538696e-02,-1.013410463929176331e-01,1.386094838380813599e-01,8.141597360372543335e-02,-4.500573873519897461e-02
-9.865544736385345459e-03,-2.565279603004455566e-01,1.669277846813201904e-01,1.433230657130479813e-02,-1.324329078197479248e-01,1.158032864332199097e-01,-1.374897807836532593e-01,1.489143520593643188e-01,8.927588909864425659e-02,1.062120543792843819e-03
-3.178853075951337814e-04,-1.890354901552200317e-01,1.483753472566604614e-01,-3.196863085031509399e-02,-1.547635793685913086e-01,1.413953155279159546e-01,-1.342892795801162720e-01,2.300749272108078003e-01,3.309633955359458923e-02,-4.256658628582954407e-02
6.255208700895309448e-02,-1.015395298600196838e-01,6.934382021427154541e-02,3.284007543697953224e-04,-2.147080153226852417e-01,4.192318767309188843e-02,-1.478111147880554199e-01,2.296505421400070190e-01,1.233166679739952087e-01,-6.305538862943649292e-02
3.985466435551643372e-02,-5.716877803206443787e-02,4.962150007486343384e-02,7.363746315240859985e-02,-2.305284589529037476e-01,-5.087714642286300659e-02,-1.987706720829010010e-01,1.334596872329711914e-01,1.079613342881202698e-01,1.328107118606567383e-01
8.166027069091796875e-02,-2.583106979727745056e-02,8.445641398429870605e-02,1.923667937517166138e-01,-4.204162657260894775e-01,-9.199284017086029053e-02,-2.055563777685165405e-01,1.756044477224349976e-01,-8.041994273662567139e-02,2.901280522346496582e-01
1.383708119392395020e-01,-1.221413724124431610e-02,9.952183812856674194e-02,1.996694505214691162e-01,-4.482401609420776367e-01,-1.511302590370178223e-01,-2.399836331605911255e-01,2.320797741413116455e-01,-9.343480318784713745e-02,2.753614485263824463e-01
2.512869834899902344e-01,-8.512759208679199219e-02,3.525301069021224976e-02,1.265479922294616699e-01,-3.636037409305572510e-01,-9.165728837251663208e-02,-3.151961863040924072e-01,2.908366918563842773e-01,-2.604672312736511230e-02,1.777075678110122681e-01
2.267459481954574585e-01,-5.112685263156890869e-03,-3.479523956775665283e-02,1.184161975979804993e-01,-2.194405496120452881e-01,-4.453948140144348145e-02,-3.575513660907745361e-01,2.660190165042877197e-01,-2.509099617600440979e-02,7.534956932067871094e-02
1.767392605543136597e-01,-7.883082330226898193e-02,-7.425465434789657593e-02,1.748179346323013306e-01,-1.097800284624099731e-01,-3.079044446349143982e-02,-4.353565871715545654e-01,2.567428648471832275e-01,6.763891130685806274e-02,5.307392403483390808e-02
1.356801837682723999e-01,-8.066625148057937622e-02,2.241941541433334351e-02,1.328811347484588623e-01,-7.424607872962951660e-02,2.137449570000171661e-02,-4.253054559230804443e-01,1.657710075378417969e-01,1.039668396115303040e-01,-1.874685403890907764e-03
1.031732708215713501e-01,-9.776913374662399292e-02,-1.199148222804069519e-02,1.723906099796295166e-01,-3.868935257196426392e-02,8.504370599985122681e-02,-3.444330990314483643e-01,1.269158273935317993e-01,4.305806756019592285e-02,-3.769806772470474243e-02
5.965569242835044861e-02,-1.318512558937072754e-01,-3.369972854852676392e-02,1.077381446957588196e-01,-2.335758879780769348e-03,1.105944216251373291e-01,-2.787489891052246094e-01,3.741740807890892029e-02,9.112939238548278809e-02,4.010042175650596619e-02
1.569840013980865479e-01,-1.638416945934295654e-01,-5.803102627396583557e-02,3.150964900851249695e-02,5.027044564485549927e-02,1.612533777952194214e-01,-2.663052380084991455e-01,4.824142158031463623e-02,1.762669384479522705e-01,-1.363482028245925903e-01
1.758921295404434204e-01,-1.925020068883895874e-01,-1.129280626773834229e-01,-1.887891143560409546e-01,6.320068985223770142e-02,4.577287435531616211e-01,-2.080270797014236450e-01,-1.321591087616980076e-03,2.081570923328399658e-01,-2.014113962650299072e-01
-2.652663178741931915e-02,-1.468537300825119019e-01,-1.388094723224639893e-01,-1.441999822854995728e-01,2.357282442972064018e-03,6.352593898773193359e-01,-1.211118400096893311e-01,-6.496721506118774414e-02,1.433349847793579102e-01,-1.384830027818679810e-01
-9.527831524610519409e-02,-6.424075365066528320e-02,-4.744456708431243896e-02,-4.057690128684043884e-02,-1.438159402459859848e-02,4.367795586585998535e-01,-6.062248349189758301e-02,-4.354897141456604004e-02,-7.029270287603139877e-03,-6.365679949522018433e-02
-2.868519723415374756e-02,-6.929317023605108261e-03,-5.195505451411008835e-03,-2.881112275645136833e-03,-1.618423126637935638e-02,1.065048649907112122e-01,-2.625921741127967834e-02,-1.041727419942617416e-02,2.728680381551384926e-03,-1.268170028924942017e-02
-1.624763011932373047e-03,-9.449537610635161400e-04,-2.762498916126787663e-04,-3.309435487608425319e-05,-6.122710183262825012e-04,6.798492744565010071e-03,-1.015996094793081284e-03,-2.366836648434400558e-03,6.300967070274055004e-04,-5.544224986806511879e-04
-1.922569936141371727e-06,-1.678528519732935820e-06,-2.696686806302750483e-06,-5.456648068502545357e-05,-2.167986967833712697e-04,-2.011689684877637774e-05,-1.766725063134799711e-06,7.540215738117694855e-04,-1.379628065478755161e-05,-4.406794905662536621e-04
-3.223819658160209656e-04,-5.085717202746309340e-05,-2.799791982397437096e-04,-2.345030428841710091e-03,-4.207464400678873062e-03,-6.525573553517460823e-04,-6.667949492111802101e-05,1.717720367014408112e-02,-7.212331984192132950e-04,-8.531016297638416290e-03
-5.225115455687046051e-04,-8.419444784522056580e-04,4.185047000646591187e-03,2.259224653244018555e-03,-6.304610520601272583e-03,-4.515428561717271805e-03,-2.160527743399143219e-03,4.077366366982460022e-02,-7.502227555960416794e-03,-2.537064626812934875e-02
-7.209672592580318451e-03,-2.027390524744987488e-03,1.754166185855865479e-02,3.580637276172637939e-02,-3.468203917145729065e-02,-4.448583349585533142e-02,-1.634039357304573059e-02,1.258845925331115723e-01,-1.083929929882287979e-02,-6.364800035953521729e-02
-3.574329242110252380e-02,-1.133887190371751785e-02,5.434069409966468811e-02,1.563258022069931030e-01,-3.697689995169639587e-02,-1.461673229932785034e-01,-3.176353499293327332e-02,1.735324710607528687e-01,2.855119667947292328e-02,-1.507602930068969727e-01
-4.340016469359397888e-02,-5.379359051585197449e-02,1.065824404358863831e-01,1.173314973711967468e-01,-5.238143727183341980e-03,-1.415186524391174316e-01,-9.520860016345977783e-02,1.465062648057937622e-01,8.540593087673187256e-02,-1.166669949889183044e-01
-6.829636543989181519e-02,-9.221364557743072510e-02,8.045984804630279541e-02,8.063600212335586548e-02,-6.248382106423377991e-02,-5.120890215039253235e-02,-1.048930436372756958e-01,1.009945571422576904e-01,1.211241409182548523e-01,-4.118822980672121048e-03
-6.635559350252151489e-02,-1.049485281109809875e-01,2.995903603732585907e-02,3.388692438602447510e-02,-6.711181998252868652e-02,7.006711512804031372e-02,-4.410378634929656982e-02,7.050092518329620361e-02,9.491684287786483765e-02,-1.681093499064445496e-02
-4.067238047719001770e-02,-1.659490019083023071e-01,1.178892049938440323e-02,-3.699084371328353882e-02,-5.585632845759391785e-02,1.663788855075836182e-01,-3.651767224073410034e-02,4.736045375466346741e-02,9.395841509103775024e-02,1.649984903633594513e-02
4.365081898868083954e-03,-2.201725989580154419e-01,6.228691339492797852e-02,-1.046881228685379028e-01,-2.994795888662338257e-02,1.439590752124786377e-01,-1.012392118573188782e-01,5.064474791288375854e-02,1.598065793514251709e-01,3.498553484678268433e-02
2.143066190183162689e-02,-2.106521427631378174e-01,1.225493922829627991e-01,-1.856651604175567627e-01,-8.193084597587585449e-02,1.759520322084426880e-01,-1.158738732337951660e-01,3.501646220684051514e-02,1.758292019367218018e-01,6.334426254034042358e-02
-1.828646473586559296e-02,-1.325859576463699341e-01,8.268658071756362915e-02,-3.122230768203735352e-01,-9.300025552511215210e-02,2.742517590522766113e-01,-9.466063231229782104e-02,1.220098808407783508e-01,1.541851013898849487e-01,1.762309670448303223e-02
7.648604456335306168e-03,-7.095605880022048950e-02,4.371100664138793945e-02,-2.633812725543975830e-01,-5.130328238010406494e-02,1.601338833570480347e-01,-1.339146643877029419e-01,1.878774464130401611e-01,1.024982705712318420e-01,1.768617331981658936e-02
7.799407839775085449e-02,5.246501415967941284e-02,4.954665154218673706e-02,-8.457438647747039795e-02,-1.590388566255569458e-01,1.078259106725454330e-02,-1.889762878417968750e-01,1.779879033565521240e-01,1.460829377174377441e-02,4.920554533600807190e-02
3.589503839612007141e-02,1.881994903087615967e-01,1.000498831272125244e-01,1.738343685865402222e-01,-4.738211035728454590e-01,-1.289296746253967285e-01,-1.486819237470626831e-01,2.819724082946777344e-01,-1.867921203374862671e-01,1.582736223936080933e-01
2.102432772517204285e-02,2.881994545459747314e-01,1.494449526071548462e-01,2.995353639125823975e-01,-3.899666666984558105e-01,-2.643529474735260010e-01,-2.715081572532653809e-01,3.310191333293914795e-01,-3.064506947994232178e-01,1.430564522743225098e-01
1.191331148147583008e-01,1.087504103779792786e-01,1.773407310247421265e-01,2.402970045804977417e-01,-1.474892497062683105e-01,-2.739274501800537109e-01,-4.053916037082672119e-01,3.750571608543395996e-01,-1.913319826126098633e-01,-2.438251860439777374e-03
1.953645348548889160e-01,6.420237477868795395e-03,5.799314379692077637e-02,1.453414559364318848e-01,-4.848956689238548279e-02,-1.958492398262023926e-01,-4.759500622749328613e-01,3.431266546249389648e-01,-3.729188069701194763e-02,9.334534406661987305e-03
2.010724693536758423e-01,-1.012334972620010376e-01,5.517976358532905579e-02,1.474832445383071899e-01,-1.550466660410165787e-02,-1.329144090414047241e-01,-4.888412058353424072e-01,2.464713156223297119e-01,5.363583564758300781e-02,3.465086594223976135e-02
1.849080622196197510e-01,-1.675400286912918091e-01,1.882065460085868835e-02,1.562090367078781128e-01,-1.373579539358615875e-02,-6.501153111457824707e-02,-4.409984350204467773e-01,2.381493598222732544e-01,9.695781767368316650e-02,-7.759517058730125427e-03
1.181123033165931702e-01,-2.032549530267715454e-01,-2.547304704785346985e-02,2.445264011621475220e-01,-2.686382830142974854e-02,2.737384662032127380e-02,-3.387109339237213135e-01,1.560759842395782471e-01,7.205213606357574463e-02,-2.383782900869846344e-02
4.747642949223518372e-02,-2.395175993442535400e-01,-6.491973251104354858e-02,1.638226360082626343e-01,-3.283914551138877869e-02,1.493010520935058594e-01,-2.653120458126068115e-01,1.594223231077194214e-01,1.172965466976165771e-01,-3.473025187849998474e-02
1.328084021806716919e-01,-2.506085634231567383e-01,-3.951998054981231689e-02,5.590028688311576843e-02,-4.080692678689956665e-02,2.528944909572601318e-01,-2.731577455997467041e-01,8.520746976137161255e-02,1.730807274580001831e-01,-9.579823166131973267e-02
2.335268110036849976e-01,-2.151763439178466797e-01,-1.091107800602912903e-01,-1.281912475824356079e-01,-7.833905518054962158e-02,5.201429724693298340e-01,-1.909724622964859009e-01,-3.784679248929023743e-02,1.794700920581817627e-01,-1.735030561685562134e-01
4.551394283771514893e-02,-1.325828731060028076e-01,-1.290850490331649780e-01,-1.191049888730049133e-01,-1.304331123828887939e-01,7.435994148254394531e-01,-1.446129232645034790e-01,-6.765624880790710449e-02,6.503406167030334473e-02,-1.306721717119216919e-01
-9.659229964017868042e-02,-5.489672720432281494e-02,-4.034034162759780884e-02,-2.829687483608722687e-02,-8.903005719184875488e-02,5.232394933700561523e-01,-1.035865917801856995e-01,-3.208821266889572144e-02,-2.043110318481922150e-02,-5.797755345702171326e-02
-2.825458906590938568e-02,-7.109842263162136078e-03,-5.639475304633378983e-03,-3.052167361602187157e-03,-2.404472418129444122e-02,1.137169897556304932e-01,-3.666244447231292725e-02,-6.464950740337371826e-03,1.415682397782802582e-02,-1.664563268423080444e-02
-6.129217799752950668e-04,-1.180247869342565536e-03,-5.107491742819547653e-04,-2.071386115858331323e-04,-2.111348789185285568e-03,7.923276163637638092e-03,-2.490603597834706306e-03,3.192878561094403267e-03,-2.341349842026829720e-03,-1.661796239204704762e-03
-3.412816113268490881e-06,-1.987060613828361966e-06,-5.202657575864577666e-06,-8.103535947157070041e-05,-2.541805733926594257e-04,-2.664068415469955653e-05,-2.106379270117031410e-06,1.043808646500110626e-03,-1.835662624216638505e-05,-6.508872611448168755e-04
-3.304611018393188715e-04,-2.097119613608811051e-05,-9.766224684426560998e-05,-1.920971786603331566e-03,-3.779954975470900536e-03,-6.327650626190006733e-04,-3.416061736061237752e-05,1.624959334731101990e-02,-4.275898099876940250e-04,-9.005056694149971008e-03
3.210949478670954704e-03,-8.431090391241014004e-04,1.645788201130926609e-03,3.781643463298678398e-03,-1.143458671867847443e-02,-4.476502072066068649e-03,-6.031012162566184998e-03,5.293405055999755859e-02,-7.480357773602008820e-03,-3.130683675408363342e-02
-1.152921840548515320e-02,-4.972640890628099442e-03,1.657745428383350372e-02,5.052808672189712524e-02,-4.073667153716087341e-02,-3.548606857657432556e-02,-1.785272732377052307e-02,1.253431737422943115e-01,-2.003459632396697998e-02,-6.183666363358497620e-02
-3.657878935337066650e-02,-9.422836825251579285e-03,-3.884543431922793388e-03,6.474382430315017700e-02,-4.268918931484222412e-02,-6.624508649110794067e-02,-4.378334432840347290e-02,1.846903562545776367e-01,5.834104120731353760e-02,-1.051711589097976685e-01
-3.874539211392402649e-02,-5.262098833918571472e-02,4.795050248503684998e-02,4.924632143229246140e-03,-5.101879313588142395e-02,-6.322303414344787598e-02,-8.597815036773681641e-02,1.471298635005950928e-01,8.826062083244323730e-02,3.320739604532718658e-03
-5.514071509242057800e-02,-9.106845408678054810e-02,2.572645060718059540e-02,-5.597123876214027405e-02,-8.297736197710037231e-02,2.008703537285327911e-02,-7.055338472127914429e-02,4.188777878880500793e-02,1.419062763452529907e-01,1.261035203933715820e-01
-5.250519886612892151e-02,-1.058312281966209412e-01,-9.353534132242202759e-02,-1.399611085653305054e-01,-3.439033403992652893e-02,1.425380855798721313e-01,1.085510477423667908e-02,2.326195314526557922e-02,1.664449572563171387e-01,8.312352746725082397e-02
-3.668119385838508606e-02,-1.334212273359298706e-01,-1.097315251827239990e-01,-2.546220421791076660e-01,1.277306210249662399e-02,2.146690934896469116e-01,7.393645588308572769e-03,-4.165112227201461792e-02,1.791144311428070068e-01,1.621567606925964355e-01
-3.117213025689125061e-03,-1.800228655338287354e-01,-1.299432963132858276e-01,-3.479275107383728027e-01,1.062023863196372986e-01,2.462217658758163452e-01,-6.344673037528991699e-02,2.617924660444259644e-02,2.283470928668975830e-01,1.175069957971572876e-01
-5.215348303318023682e-02,-1.453046649694442749e-01,-1.257787942886352539e-01,-4.034536778926849365e-01,6.362315267324447632e-02,2.334336936473846436e-01,-1.591145060956478119e-02,3.798080980777740479e-02,2.500108778476715088e-01,1.575539261102676392e-01
-2.119180187582969666e-02,-9.061184525489807129e-02,-1.397935003042221069e-01,-4.276782572269439697e-01,5.106720328330993652e-02,2.849520742893218994e-01,-4.757685214281082153e-02,-3.863051068037748337e-03,2.062022238969802856e-01,1.884939074516296387e-01
-1.382807502523064613e-03,-1.638884842395782471e-02,-2.163956612348556519e-01,-3.408810198307037354e-01,1.293473988771438599e-01,2.629582285881042480e-01,-9.264741837978363037e-02,5.203818436712026596e-04,1.587771624326705933e-01,1.160927265882492065e-01
2.714100852608680725e-02,1.607603728771209717e-01,-2.682272195816040039e-01,-3.576611727476119995e-02,-1.752406805753707886e-01,1.737872660160064697e-01,-3.492417559027671814e-02,1.563446223735809326e-01,6.510901451110839844e-02,-6.898435950279235840e-02
-5.539518594741821289e-02,4.132874310016632080e-01,-1.261306554079055786e-01,1.796056032180786133e-01,-5.236431956291198730e-01,6.329768151044845581e-02,-1.541040092706680298e-01,2.667019367218017578e-01,-5.446621403098106384e-02,-9.153904393315315247e-03
-1.120000481605529785e-01,4.901376664638519287e-01,-7.060575485229492188e-02,2.332310825586318970e-01,-2.187999635934829712e-01,-7.768519222736358643e-02,-3.399611711502075195e-01,3.873444199562072754e-01,-2.273643165826797485e-01,-6.429622322320938110e-02
-7.113362103700637817e-02,1.858531385660171509e-01,5.394981428980827332e-02,2.284197509288787842e-01,9.147569537162780762e-03,-1.892917752265930176e-01,-4.005362093448638916e-01,4.724030792713165283e-01,-2.697432637214660645e-01,-1.906930282711982727e-02
8.640594035387039185e-02,-2.806260716170072556e-03,5.613184347748756409e-02,1.776164770126342773e-01,5.783057957887649536e-02,-2.799600660800933838e-01,-4.021688997745513916e-01,3.408794403076171875e-01,-1.066542714834213257e-01,7.272493839263916016e-02
1.358388364315032959e-01,-1.538642644882202148e-01,6.867538392543792725e-02,1.754729896783828735e-01,-2.804268151521682739e-03,-2.811576724052429199e-01,-3.795802295207977295e-01,2.676211893558502197e-01,1.067631095647811890e-01,6.303531676530838013e-02
1.199097409844398499e-01,-1.829227060079574585e-01,2.875465527176856995e-02,1.915048658847808838e-01,3.584344685077667236e-02,-2.123036980628967285e-01,-3.586696982383728027e-01,2.695501446723937988e-01,9.060665220022201538e-02,1.772673800587654114e-02
1.258241534233093262e-01,-2.541146576404571533e-01,-4.890423268079757690e-02,2.596805691719055176e-01,-6.689418107271194458e-02,-1.022715121507644653e-01,-2.530590593814849854e-01,2.423266768455505371e-01,4.598764330148696899e-02,5.142514780163764954e-02
9.519217163324356079e-02,-2.372372150421142578e-01,-5.648770928382873535e-02,1.157846525311470032e-01,-8.517098426818847656e-02,-2.674528770148754120e-02,-1.738395392894744873e-01,2.232049703598022461e-01,1.024636551737785339e-01,4.283545538783073425e-02
1.931623071432113647e-01,-1.989101916551589966e-01,-6.162991374731063843e-02,-2.925969287753105164e-02,-1.186797395348548889e-01,6.222579628229141235e-02,-1.447635889053344727e-01,1.077271774411201477e-01,1.989735960960388184e-01,-8.845397271215915680e-03
2.773663699626922607e-01,-1.595516949892044067e-01,-8.410975337028503418e-02,-9.925752133131027222e-02,-1.966602802276611328e-01,3.053056895732879639e-01,-9.027550369501113892e-02,-7.221186161041259766e-02,1.994891315698623657e-01,-8.009423315525054932e-02
1.105024069547653198e-01,-1.065297499299049377e-01,-9.338203817605972290e-02,-7.647050172090530396e-02,-1.631151288747787476e-01,5.657652020454406738e-01,-1.111318096518516541e-01,-7.312486320734024048e-02,6.291726231575012207e-02,-1.154306754469871521e-01
-8.841539919376373291e-02,-3.757854551076889038e-02,-3.146222233772277832e-02,-1.625021547079086304e-02,-9.669665247201919556e-02,4.834552705287933350e-01,-1.092601269483566284e-01,-2.918863482773303986e-02,-1.870766468346118927e-02,-5.589584633708000183e-02
-3.291244059801101685e-02,-8.945276960730552673e-03,-2.952430164441466331e-03,-2.159042051061987877e-03,-2.245619520545005798e-02,1.225529462099075317e-01,-3.143283352255821228e-02,-6.818924099206924438e-03,2.803885377943515778e-03,-1.767965033650398254e-02
-4.924890818074345589e-04,-1.584965066285803914e-04,-2.797847555484622717e-04,-7.414821448037400842e-05,-6.236367044039070606e-04,5.305381026118993759e-03,-5.172745324671268463e-03,1.371146063320338726e-04,4.437677096575498581e-03,-3.078872570767998695e-03
-3.336858208058401942e-05,-2.584515414127963595e-06,-1.002149474516045302e-05,-7.892587018432095647e-05,-5.864212289452552795e-05,-5.271590998745523393e-05,-4.943377462041098624e-06,7.120897062122821808e-04,-2.760622010100632906e-05,-4.432819841895252466e-04
1.098645851016044617e-03,4.661573257180862129e-05,-1.604222925379872322e-04,-1.206623273901641369e-03,-4.753824789077043533e-03,-2.419941592961549759e-03,-6.304569251369684935e-05,1.973173767328262329e-02,-5.561740836128592491e-04,-1.171696931123733521e-02
-3.083306597545742989e-03,-3.655131149571388960e-04,-1.399894710630178452e-03,3.063733223825693130e-03,-2.625605650246143341e-02,-6.444010883569717407e-03,-1.201100647449493408e-03,8.702162653207778931e-02,-6.147791165858507156e-03,-4.518763348460197449e-02
-1.976122893393039703e-02,-2.962013240903615952e-03,-9.064657613635063171e-03,3.861750289797782898e-02,-3.589688241481781006e-02,-3.168375790119171143e-02,-1.559329498559236526e-02,1.445330679416656494e-01,-1.010285131633281708e-02,-5.808583647012710571e-02
-7.159616798162460327e-02,-2.323804423213005066e-03,-5.113948881626129150e-02,1.910145021975040436e-02,-5.887875705957412720e-02,-2.410716377198696136e-02,-3.524353727698326111e-02,1.963232904672622681e-01,3.829637914896011353e-02,-1.043195743113756180e-02
-5.797434598207473755e-02,-3.068421781063079834e-02,-9.577436745166778564e-02,-9.777996689081192017e-02,-4.991175234317779541e-02,4.781458526849746704e-03,-3.491701558232307434e-02,1.008534505963325500e-01,1.204482242465019226e-01,1.409587860107421875e-01
-3.214081749320030212e-02,-7.853181660175323486e-02,-2.048692852258682251e-01,-2.031527012586593628e-01,-1.346472371369600296e-02,1.124621257185935974e-01,-8.451614528894424438e-03,4.343724995851516724e-02,1.726119965314865112e-01,2.120993733406066895e-01
-3.597563365474343300e-03,-1.114790961146354675e-01,-3.198395967483520508e-01,-3.312528431415557861e-01,5.277789011597633362e-02,1.435998827219009399e-01,7.465863972902297974e-02,6.613506376743316650e-02,2.611717283725738525e-01,1.678255796432495117e-01
-3.034773049876093864e-03,-1.391922533512115479e-01,-3.593150079250335693e-01,-3.729847669601440430e-01,1.392405033111572266e-01,1.601811796426773071e-01,3.776555880904197693e-02,-1.405107788741588593e-03,2.512258887290954590e-01,2.875194549560546875e-01
-5.387510359287261963e-02,-1.801858544349670410e-01,-3.547105491161346436e-01,-3.624694943428039551e-01,2.117862552404403687e-01,1.571289151906967163e-01,4.261987656354904175e-02,7.793714851140975952e-02,2.828965485095977783e-01,1.788720935583114624e-01
-5.889772251248359680e-02,-1.866296380758285522e-01,-4.322041571140289307e-01,-3.131886124610900879e-01,2.576508224010467529e-01,1.732306778430938721e-01,5.535262450575828552e-02,8.298911154270172119e-02,1.968986690044403076e-01,2.247982174158096313e-01
-4.659323394298553467e-02,-1.893640607595443726e-01,-4.823117256164550781e-01,-1.892943978309631348e-01,2.396173030138015747e-01,2.274104505777359009e-01,2.172609046101570129e-02,2.776495739817619324e-02,1.604389250278472900e-01,2.306056171655654907e-01
-4.151943325996398926e-02,-8.097173273563385010e-02,-5.734342336654663086e-01,-9.476698189973831177e-02,2.599771916866302490e-01,2.967084944248199463e-01,8.413475006818771362e-02,-4.385994002223014832e-02,1.954338699579238892e-01,-1.701231580227613449e-03
-6.400167196989059448e-02,1.971971988677978516e-01,-5.770974755287170410e-01,1.215666905045509338e-01,-2.829523980617523193e-01,3.451273441314697266e-01,6.398918479681015015e-02,1.877795532345771790e-02,2.641045749187469482e-01,-8.671187609434127808e-02
-2.621071338653564453e-01,5.751450657844543457e-01,-4.221910536289215088e-01,1.761569380760192871e-01,-4.539345502853393555e-01,1.448974013328552246e-01,-1.935494691133499146e-01,1.561611741781234741e-01,2.816682755947113037e-01,-2.246076706796884537e-03
-4.134741723537445068e-01,5.720070004463195801e-01,-2.865335643291473389e-01,1.895350813865661621e-01,-1.442654244601726532e-02,-5.409491807222366333e-02,-3.698525726795196533e-01,3.207478225231170654e-01,-3.707892447710037231e-02,9.317228943109512329e-02
-3.781819343566894531e-01,1.731495857238769531e-01,-1.046629771590232849e-01,1.119533553719520569e-01,2.635179758071899414e-01,-1.695366501808166504e-01,-2.808554470539093018e-01,3.803111612796783447e-01,-1.669793277978897095e-01,1.712849289178848267e-01
-1.639527976512908936e-01,-4.074148088693618774e-02,-1.279743313789367676e-01,1.855359375476837158e-01,1.315055489540100098e-01,-2.366192340850830078e-01,-2.510964274406433105e-01,3.181982636451721191e-01,-9.196909517049789429e-02,2.771146893501281738e-01
-5.711725354194641113e-02,-1.085771396756172180e-01,-3.829136863350868225e-02,1.605108380317687988e-01,1.023216079920530319e-02,-2.453952729701995850e-01,-2.152598053216934204e-01,3.055747747421264648e-01,-2.431244961917400360e-02,2.126350104808807373e-01
6.127928569912910461e-02,-1.757419705390930176e-01,6.705996394157409668e-02,1.707670539617538452e-01,-8.515713736414909363e-03,-3.434379696846008301e-01,-2.161661833524703979e-01,1.979586482048034668e-01,1.925381273031234741e-02,2.275434881448745728e-01
1.123021692037582397e-01,-1.829331964254379272e-01,-2.879853174090385437e-02,1.567217111587524414e-01,-6.269109994173049927e-02,-4.206938147544860840e-01,-1.324467211961746216e-01,2.085874974727630615e-01,2.286655083298683167e-02,3.270856440067291260e-01
1.471407860517501831e-01,-1.417305022478103638e-01,-3.307329863309860229e-02,-6.371953338384628296e-02,-8.901233226060867310e-02,-3.898206651210784912e-01,-7.262785919010639191e-03,1.637851744890213013e-01,1.588675528764724731e-01,2.548262476921081543e-01
2.331789135932922363e-01,-1.007336601614952087e-01,-9.289977699518203735e-02,-1.121364757418632507e-01,-1.375820040702819824e-01,-3.430677354335784912e-01,6.185537576675415039e-02,7.400330901145935059e-02,2.726441621780395508e-01,1.447378098964691162e-01
2.888038456439971924e-01,-7.451277971267700195e-02,-9.658538550138473511e-02,-1.064973175525665283e-01,-1.656594872474670410e-01,-1.241700723767280579e-01,1.078822463750839233e-01,-5.579707399010658264e-02,2.505192756652832031e-01,-2.398357354104518890e-02
1.660831123590469360e-01,-5.093690380454063416e-02,-5.062277615070343018e-02,-5.879700928926467896e-02,-1.276994943618774414e-01,9.811581671237945557e-02,-3.481940599158406258e-03,-5.593614652752876282e-02,1.644168943166732788e-01,-8.114152401685714722e-02
-4.751612618565559387e-02,-2.424827404320240021e-02,6.522801239043474197e-03,-6.268510594964027405e-03,-5.781095847487449646e-02,2.191582173109054565e-01,-6.035044416785240173e-02,-2.335105650126934052e-02,3.461333364248275757e-02,-4.074904322624206543e-02
-1.947675645351409912e-02,-6.654780358076095581e-03,1.834881695685908198e-04,-1.270777429454028606e-03,-9.593639522790908813e-03,6.878042221069335938e-02,-2.728831395506858826e-02,-6.501985713839530945e-03,1.455581746995449066e-02,-1.273346040397882462e-02
-3.179747727699577808e-04,3.886022022925317287e-04,-5.971783321001566947e-05,-1.291136959480354562e-05,-4.105035914108157158e-04,3.027381841093301773e-03,-2.938196295872330666e-03,-3.392641374375671148e-04,2.350597875192761421e-03,-1.688014366663992405e-03
-9.418936315341852605e-07,-2.435738544193100097e-08,-2.412192770862020552e-06,-8.523469659849070013e-06,-1.641167841626156587e-06,-3.322581960674142465e-06,-1.639572744238648738e-08,5.694903666153550148e-04,-8.262610208475962281e-06,-5.443461122922599316e-04
-6.734541966579854488e-05,-3.353743886691518128e-05,-1.300751682720147073e-05,-1.474542310461401939e-03,-8.357875049114227295e-03,-3.048460232093930244e-03,-1.222056016558781266e-04,2.367169782519340515e-02,-4.482988151721656322e-04,-1.010642666369676590e-02
-3.262643236666917801e-03,-5.030707106925547123e-04,-6.202982622198760509e-04,-5.379845388233661652e-03,-3.122712299227714539e-02,-5.500280298292636871e-03,-1.157198101282119751e-03,9.475790709257125854e-02,-3.631226485595107079e-03,-4.347620904445648193e-02
-2.446438930928707123e-02,7.610705779370618984e-06,-2.610230259597301483e-02,-1.900137402117252350e-03,-5.287661775946617126e-02,-1.201704330742359161e-02,-1.312838308513164520e-02,1.636695414781570435e-01,4.764110315591096878e-03,-3.795235976576805115e-02
-7.216729968786239624e-02,2.112425630912184715e-03,-8.558601886034011841e-02,-3.524452447891235352e-02,-8.341363817453384399e-02,1.070553623139858246e-02,-4.045476764440536499e-02,1.979197561740875244e-01,8.818961679935455322e-03,9.730958193540573120e-02
-2.329250797629356384e-02,-2.460073120892047882e-02,-2.514791190624237061e-01,-1.395881772041320801e-01,-3.233986720442771912e-02,4.550197347998619080e-02,-1.619444414973258972e-02,1.036472246050834656e-01,1.047112941741943359e-01,2.336341291666030884e-01
5.493774265050888062e-02,-5.265881866216659546e-02,-4.421699047088623047e-01,-2.584011256694793701e-01,8.895079791545867920e-02,1.546579152345657349e-01,6.964183598756790161e-02,1.193076651543378830e-02,1.228889524936676025e-01,2.502223849296569824e-01
5.043167248368263245e-02,-7.939819991588592529e-02,-5.186904072761535645e-01,-3.365983068943023682e-01,1.966314911842346191e-01,1.458233296871185303e-01,1.143073067069053650e-01,1.019714549183845520e-01,1.567997783422470093e-01,1.687210947275161743e-01
1.178775355219841003e-02,-1.186109408736228943e-01,-4.535824060440063477e-01,-3.162468671798706055e-01,2.770234644412994385e-01,1.067985519766807556e-01,8.155466616153717041e-02,1.176883950829505920e-01,1.127866879105567932e-01,1.808012574911117554e-01
-2.596827968955039978e-02,-1.649366468191146851e-01,-4.505907893180847168e-01,-1.714003235101699829e-01,2.562246918678283691e-01,3.853677213191986084e-02,1.187936067581176758e-01,1.905524544417858124e-02,1.434474736452102661e-01,2.368389517068862915e-01
1.667166501283645630e-02,-2.640482783317565918e-01,-4.769155979156494141e-01,-5.345100909471511841e-02,3.781525194644927979e-01,2.027714401483535767e-01,8.632447570562362671e-02,-7.698486745357513428e-02,-2.721067145466804504e-02,2.146898806095123291e-01
3.108972683548927307e-02,-3.370689153671264648e-01,-4.896964132785797119e-01,-6.278707087039947510e-02,4.817708432674407959e-01,3.211928606033325195e-01,1.664778143167495728e-01,-1.981140226125717163e-01,-1.163387019187211990e-02,9.876870363950729370e-02
5.099115893244743347e-02,-1.302877068519592285e-01,-5.023686885833740234e-01,1.378856971859931946e-02,4.355935454368591309e-01,3.471555709838867188e-01,1.595333963632583618e-01,-3.997136354446411133e-01,1.751301139593124390e-01,-1.498225182294845581e-01
-1.244590356945991516e-01,1.952359527349472046e-01,-4.512583017349243164e-01,1.460441946983337402e-01,-7.379962503910064697e-02,2.943940162658691406e-01,5.875457450747489929e-02,-4.527406394481658936e-01,4.034021198749542236e-01,4.427532665431499481e-03
-4.435817897319793701e-01,6.993049979209899902e-01,-3.824718892574310303e-01,2.710239887237548828e-01,-2.696790099143981934e-01,3.595455735921859741e-02,-1.854071021080017090e-01,-1.900254189968109131e-01,2.577426731586456299e-01,2.071387171745300293e-01
-5.596501827239990234e-01,5.121818780899047852e-01,-3.277556598186492920e-01,1.498125493526458740e-01,1.247817575931549072e-01,-1.483468711376190186e-01,-2.006785273551940918e-01,1.428912729024887085e-01,5.765532702207565308e-02,2.491092681884765625e-01
-4.994966685771942139e-01,1.125533729791641235e-01,-2.110942304134368896e-01,8.092879503965377808e-02,3.460987508296966553e-01,-3.107967972755432129e-01,-7.335735112428665161e-02,2.998693585395812988e-01,-1.117604784667491913e-02,2.664711773395538330e-01
-2.469633519649505615e-01,-5.873902700841426849e-03,-1.979400366544723511e-01,9.319765865802764893e-02,1.621366739273071289e-01,-2.799530029296875000e-01,-8.108145743608474731e-02,2.724441289901733398e-01,-2.170610986649990082e-02,3.057399690151214600e-01
-8.954390883445739746e-02,-1.072096377611160278e-01,-8.033784478902816772e-02,9.616082161664962769e-02,5.719350278377532959e-02,-2.228946983814239502e-01,-1.331720203161239624e-01,2.269440591335296631e-01,-2.708818763494491577e-02,2.799481749534606934e-01
5.604244302958250046e-03,-1.593453288078308105e-01,6.154803931713104248e-02,-2.005174756050109863e-03,5.078943073749542236e-02,-2.722176015377044678e-01,-1.679022759199142456e-01,7.485343515872955322e-02,5.108169466257095337e-02,3.575935959815979004e-01
1.567661017179489136e-02,-1.232169717550277710e-01,-1.005330029875040054e-02,-7.821390032768249512e-02,1.990376040339469910e-02,-3.924940526485443115e-01,-4.903669655323028564e-02,9.508913755416870117e-02,1.502193957567214966e-01,3.721258342266082764e-01
1.126564517617225647e-01,-7.630750536918640137e-02,-3.594519197940826416e-02,-2.309829592704772949e-01,1.057626213878393173e-02,-5.000265240669250488e-01,1.128089576959609985e-01,3.943278640508651733e-02,2.422928065061569214e-01,3.254950344562530518e-01
2.750057876110076904e-01,-5.341922864317893982e-02,-1.181121692061424255e-01,-1.846590936183929443e-01,-3.660483658313751221e-02,-5.260248780250549316e-01,2.156248688697814941e-01,1.470535062253475189e-02,2.360603213310241699e-01,1.774234026670455933e-01
3.409009277820587158e-01,-3.268675878643989563e-02,-1.618905216455459595e-01,-1.056188493967056274e-01,-9.466245025396347046e-02,-4.050372838973999023e-01,2.635594308376312256e-01,-2.737285941839218140e-02,2.069993317127227783e-01,1.580873318016529083e-02
2.311488389968872070e-01,-2.332134544849395752e-02,-7.602162193506956100e-03,-4.241919890046119690e-02,-5.049037933349609375e-02,-2.541326880455017090e-01,1.183649897575378418e-01,-3.237504512071609497e-02,1.392973959445953369e-01,-7.847058773040771484e-02
-7.849894464015960693e-03,-1.084671542048454285e-02,4.659664630889892578e-02,-4.613620694726705551e-04,-1.383134536445140839e-02,8.703431230969727039e-04,-1.988478563725948334e-02,1.886740559712052345e-03,3.627892211079597473e-02,-3.275851160287857056e-02
-8.375517092645168304e-03,-4.400962032377719879e-03,2.675338275730609894e-02,-2.582500455901026726e-04,-5.162004847079515457e-03,1.940241083502769470e-02,-2.849331125617027283e-02,4.138529766350984573e-03,5.948493257164955139e-03,-9.552763774991035461e-03
-6.170020787976682186e-05,1.573214540258049965e-04,3.183379070833325386e-03,-1.622437775949947536e-05,-1.774138538166880608e-03,-5.694819847121834755e-04,-1.900256844237446785e-03,2.515896921977400780e-03,-1.022546086460351944e-03,-5.122495349496603012e-04
-7.030194648649512601e-09,2.168784340028651059e-05,-2.766637180684483610e-06,-5.665870958182495087e-06,-1.176078825437798514e-07,-8.739283430259092711e-07,-1.031766146297741216e-06,-2.679063527466496453e-06,-3.186463345627998933e-06,-5.359403985494282097e-06
2.470220788381993771e-04,-8.029804121179040521e-06,-1.255511051567737013e-05,-9.808118920773267746e-04,-7.167187519371509552e-03,-7.106050616130232811e-04,-1.402742782374843955e-04,1.386618241667747498e-02,-1.277206902159377933e-04,-4.966019652783870697e-03
-1.364794094115495682e-03,-2.257846063002943993e-04,-3.685713454615324736e-04,-3.405045717954635620e-03,-1.979857869446277618e-02,-2.023835433647036552e-03,-4.038430633954703808e-04,5.983408167958259583e-02,-1.178403268568217754e-03,-3.106522373855113983e-02
-1.870616339147090912e-02,1.142563764005899429e-03,-3.027481585741043091e-02,-3.278595628216862679e-03,-3.981773182749748230e-02,-1.327432692050933838e-03,-1.033244561403989792e-02,1.177918985486030579e-01,1.886604353785514832e-03,-1.708385720849037170e-02
-4.393076151609420776e-02,-1.346913359157042578e-05,-1.344176083803176880e-01,-5.879088863730430603e-02,-3.190817683935165405e-02,2.811851538717746735e-02,-4.152682423591613770e-02,1.235524415969848633e-01,-2.350860275328159332e-02,1.824256181716918945e-01
2.425855584442615509e-02,-2.328438684344291687e-02,-3.384370505809783936e-01,-1.460028588771820068e-01,7.910339534282684326e-02,7.710264623165130615e-02,1.398133486509323120e-02,4.291637614369392395e-02,-9.716575033962726593e-03,2.800786793231964111e-01
1.309606879949569702e-01,-4.798381775617599487e-02,-4.951188564300537109e-01,-2.454905211925506592e-01,2.361312955617904663e-01,7.395909726619720459e-02,1.329436451196670532e-01,7.801261264830827713e-03,-4.430045373737812042e-03,2.112275063991546631e-01
1.466999948024749756e-01,-7.488061487674713135e-02,-4.691663980484008789e-01,-2.941824793815612793e-01,3.045875430107116699e-01,1.245793029665946960e-01,8.887080848217010498e-02,4.900335893034934998e-02,-2.596047148108482361e-02,1.504493057727813721e-01
8.284183591604232788e-02,-9.685929864645004272e-02,-3.502787649631500244e-01,-2.252261936664581299e-01,3.254478275775909424e-01,9.315551072359085083e-02,1.032417491078376770e-01,1.244564075022935867e-02,-7.728529721498489380e-02,1.325169056653976440e-01
5.625224485993385315e-02,-1.917921453714370728e-01,-2.758100628852844238e-01,-9.262139350175857544e-02,2.708180248737335205e-01,1.221586018800735474e-01,1.350235491991043091e-01,-8.299493789672851562e-02,-4.086681827902793884e-02,9.983324259519577026e-02
1.108933091163635254e-01,-3.799497187137603760e-01,-2.163832485675811768e-01,-1.048971042037010193e-01,4.238546788692474365e-01,2.283243685960769653e-01,1.711987555027008057e-01,-1.985346823930740356e-01,-1.280333101749420166e-01,9.352692961692810059e-02
9.276363998651504517e-02,-4.477385878562927246e-01,-1.317268162965774536e-01,-1.097090393304824829e-01,5.677039027214050293e-01,2.917642295360565186e-01,1.789518445730209351e-01,-4.657371342182159424e-01,4.075165838003158569e-02,-1.702343299984931946e-02
1.741416566073894501e-02,-1.980341672897338867e-01,-1.369393765926361084e-01,8.006571978330612183e-02,3.525606393814086914e-01,3.183928430080413818e-01,1.383525580167770386e-01,-7.090377211570739746e-01,2.376520633697509766e-01,-1.004261001944541931e-01
-3.033366203308105469e-01,2.696150839328765869e-01,-3.576023504137992859e-02,2.086480855941772461e-01,-4.338439926505088806e-02,1.896156072616577148e-01,-2.083522640168666840e-02,-6.900552511215209961e-01,3.333974182605743408e-01,9.209640324115753174e-02
-5.189861655235290527e-01,6.505024433135986328e-01,-5.406716465950012207e-02,1.755458414554595947e-01,-9.127235412597656250e-02,-9.712215512990951538e-03,-1.250766962766647339e-01,-3.427949249744415283e-01,8.376371115446090698e-02,2.320965826511383057e-01
-5.934171676635742188e-01,4.101251959800720215e-01,-1.965194046497344971e-01,-3.594393655657768250e-02,2.029737830162048340e-01,-2.193123400211334229e-01,8.627361617982387543e-03,-4.717823583632707596e-03,1.967921108007431030e-01,2.313927114009857178e-01
-4.992840290069580078e-01,8.980615437030792236e-02,-2.154958099126815796e-01,5.480310320854187012e-02,2.993120253086090088e-01,-3.317807316780090332e-01,2.044619619846343994e-02,1.509101688861846924e-01,8.991084992885589600e-02,3.413721621036529541e-01
-2.646833360195159912e-01,-2.769449725747108459e-02,-1.248027831315994263e-01,1.068790256977081299e-01,2.452851384878158569e-01,-2.081581801176071167e-01,-9.047680348157882690e-02,1.336759924888610840e-01,-6.230486929416656494e-02,2.922809720039367676e-01
-1.184416487812995911e-01,-1.968233734369277954e-01,-8.535259962081909180e-02,8.553834259510040283e-02,1.629180014133453369e-01,-1.072870194911956787e-01,-1.470772176980972290e-01,1.459953039884567261e-01,-7.373995147645473480e-03,2.679040431976318359e-01
-8.837739378213882446e-02,-1.869933456182479858e-01,-3.619677200913429260e-02,-9.195540100336074829e-02,1.311874687671661377e-01,-8.009885251522064209e-02,-6.856094300746917725e-02,7.971324026584625244e-02,1.265341322869062424e-02,3.286293745040893555e-01
-9.921717643737792969e-02,-1.265266388654708862e-01,-4.590626433491706848e-02,-2.459969967603683472e-01,1.504628211259841919e-01,-1.099732592701911926e-01,-1.178567670285701752e-02,1.112629920244216919e-01,6.717333942651748657e-02,3.105068802833557129e-01
7.398096472024917603e-02,-8.124812692403793335e-02,-7.146476209163665771e-02,-2.225669473409652710e-01,8.938323706388473511e-02,-2.591453492641448975e-01,1.766843199729919434e-01,7.069455832242965698e-02,4.655205644667148590e-03,2.190263122320175171e-01
2.581813037395477295e-01,-6.161056458950042725e-02,-1.119625419378280640e-01,-2.000427544116973877e-01,3.985435515642166138e-02,-3.205776214599609375e-01,2.892225980758666992e-01,2.245741710066795349e-02,3.188090398907661438e-02,5.259632319211959839e-02
3.337774574756622314e-01,-4.929745569825172424e-02,-1.117096468806266785e-01,-1.028157696127891541e-01,-2.483744919300079346e-02,-3.406352102756500244e-01,3.394660651683807373e-01,9.146730415523052216e-03,3.272167220711708069e-02,-8.581654727458953857e-02
2.120846211910247803e-01,-3.520162031054496765e-02,4.128545522689819336e-02,-4.107737541198730469e-02,-4.601879417896270752e-02,-2.245569080114364624e-01,1.775478571653366089e-01,1.156102493405342102e-02,2.017250470817089081e-02,-1.157969161868095398e-01
7.521388120949268341e-03,-1.706634089350700378e-02,1.065478101372718811e-01,-4.124507308006286621e-03,-1.895679160952568054e-03,-3.597633540630340576e-02,-2.375956997275352478e-02,1.165047194808721542e-02,3.083257004618644714e-03,-4.598043113946914673e-02
-2.492592204362154007e-03,-7.175776641815900803e-03,6.616324186325073242e-02,-5.142580484971404076e-04,-2.645557746291160583e-03,-2.891580341383814812e-03,-3.399699181318283081e-02,8.768507395870983601e-04,-4.467033315449953079e-03,-1.285629812628030777e-02
