-3.072372078895568848e-02,-7.057699561119079590e-02,-7.252162694931030273e-02,-1.072465777397155762e-01,5.624697729945182800e-02,1.337425559759140015e-01,2.037013173103332520e-01,7.354626804590225220e-02,-1.185365468263626099e-01,5.697738006711006165e-02,7.075058668851852417e-02,7.196383923292160034e-02,3.316126763820648193e-03,-3.012389061041176319e-04,5.085197836160659790e-02,-5.610946938395500183e-02,-1.364196278154850006e-02,-3.787964209914207458e-02,8.515968918800354004e-02,-9.209010750055313110e-02,-8.218953758478164673e-02,-1.091201081871986389e-01,3.924627974629402161e-02,9.796344675123691559e-03,-2.010654099285602570e-02,-4.567635431885719299e-02,7.067756354808807373e-02,6.396055966615676880e-02,-1.447648182511329651e-02,-6.739041209220886230e-02,-1.769003830850124359e-02,-2.037277258932590485e-02
4.357421770691871643e-02,-9.037096798419952393e-02,9.905689209699630737e-02,-9.522002935409545898e-02,8.091347664594650269e-02,4.053543135523796082e-02,1.569011956453323364e-01,-7.260549813508987427e-02,-1.513809263706207275e-01,-3.380150347948074341e-02,-6.620566546916961670e-02,3.893578052520751953e-02,-6.566321104764938354e-02,3.623765334486961365e-02,6.005930900573730469e-02,-1.634745858609676361e-02,9.240978211164474487e-02,-5.250965803861618042e-02,7.541295140981674194e-03,1.381216105073690414e-02,8.443254977464675903e-02,-1.639317534863948822e-02,-1.679279655218124390e-01,-2.731556771323084831e-03,4.859149083495140076e-02,-7.756119593977928162e-03,-2.479157783091068268e-02,5.922816228121519089e-03,-1.249129399657249451e-01,6.641791015863418579e-02,-6.461024284362792969e-02,7.959592342376708984e-02
1.108772903680801392e-01,-1.758627593517303467e-01,1.983276940882205963e-02,-8.747540414333343506e-03,5.274701118469238281e-02,-2.871275506913661957e-02,-2.220026254653930664e-01,7.496344298124313354e-02,5.510572716593742371e-02,3.457028418779373169e-02,1.999506950378417969e-01,6.117038056254386902e-02,2.959771454334259033e-01,-9.209948778152465820e-02,1.128104776144027710e-01,-1.350306719541549683e-01,-2.200111299753189087e-01,-1.916518062353134155e-02,-2.474503591656684875e-02,5.738308653235435486e-02,-1.984208822250366211e-02,1.024990156292915344e-01,-3.323316574096679688e-02,2.050958387553691864e-02,3.635039180517196655e-02,1.310509741306304932e-01,-8.378109335899353027e-02,-3.653706749901175499e-03,1.437518894672393799e-01,-7.746636122465133667e-02,1.499861180782318115e-01,2.780223824083805084e-02
-4.846404865384101868e-02,2.312105521559715271e-02,-8.125265687704086304e-02,-6.345836818218231201e-02,-1.515187025070190430e-01,-1.281806677579879761e-01,-2.421470545232295990e-02,1.296091973781585693e-01,-2.501290440559387207e-01,2.059247642755508423e-01,-1.257910132408142090e-01,1.736589223146438599e-01,-3.019343689084053040e-02,9.095545858144760132e-02,-1.019646078348159790e-01,-7.942815870046615601e-02,8.505956083536148071e-02,-8.873165398836135864e-02,4.955480620265007019e-02,2.695476412773132324e-01,-1.202107965946197510e-01,1.687851399183273315e-01,6.314631551504135132e-02,1.074828281998634338e-01,-7.973814010620117188e-02,3.986877202987670898e-02,2.699948847293853760e-01,6.955455988645553589e-02,-1.277911942452192307e-02,1.278414856642484665e-02,-7.304858416318893433e-02,-1.183147877454757690e-01
-9.213211387395858765e-02,-2.824405580759048462e-02,8.365921676158905029e-02,1.001850888133049011e-01,-1.774962544441223145e-01,4.932487756013870239e-02,8.717869222164154053e-02,7.870057225227355957e-02,2.906344644725322723e-02,-9.316392242908477783e-02,9.118099510669708252e-02,3.821944817900657654e-02,9.457270056009292603e-02,-1.820337772369384766e-02,-1.131464168429374695e-01,-1.589819602668285370e-02,-5.636612325906753540e-02,-1.419780403375625610e-01,-1.084206253290176392e-02,2.136892974376678467e-01,3.177634999155998230e-02,-6.854829553049057722e-05,-6.386239081621170044e-02,1.379030048847198486e-01,-1.111901849508285522e-01,7.928051054477691650e-03,2.305930107831954956e-01,-1.240275204181671143e-01,1.236738171428442001e-02,6.982403248548507690e-02,-1.384849697351455688e-01,3.842956200242042542e-02
6.272158026695251465e-02,1.159501150250434875e-01,1.291214525699615479e-01,-1.049444451928138733e-01,1.104980707168579102e-01,1.588294655084609985e-01,-1.852893382310867310e-01,1.178031321614980698e-02,3.186852484941482544e-02,1.306114643812179565e-01,-1.467869617044925690e-02,-9.030037373304367065e-02,-9.189847111701965332e-02,-3.023905307054519653e-02,7.482344284653663635e-03,1.151437088847160339e-01,1.275809705257415771e-01,2.085304558277130127e-01,-1.299909800291061401e-01,-7.349751889705657959e-02,9.879163652658462524e-02,-1.659895293414592743e-02,9.585402160882949829e-02,-2.679052762687206268e-02,-1.501998957246541977e-02,1.767348870635032654e-02,-3.068139776587486267e-02,-3.175340220332145691e-02,4.684437066316604614e-02,6.740597635507583618e-02,2.459349669516086578e-02,2.472717873752117157e-02
-1.612667590379714966e-01,-1.353027969598770142e-01,-6.481018662452697754e-02,1.114380061626434326e-01,-4.638671502470970154e-02,1.056256815791130066e-01,-5.377957597374916077e-03,1.499821245670318604e-01,1.573159173130989075e-02,9.100096672773361206e-02,2.414088509976863861e-02,8.725483715534210205e-02,1.164960339665412903e-01,6.329132616519927979e-02,1.417667791247367859e-02,-1.228358894586563110e-01,-1.026020869612693787e-01,9.581923484802246094e-02,1.126722395420074463e-01,-1.351877897977828979e-01,-1.060811579227447510e-01,1.070626005530357361e-01,1.948333680629730225e-01,-8.781766891479492188e-02,-4.599716141819953918e-02,-1.055857837200164795e-01,-7.189371436834335327e-02,5.851888656616210938e-02,1.319584548473358154e-01,-1.549155116081237793e-01,8.933852612972259521e-02,8.089123666286468506e-02
-5.217876657843589783e-02,2.120516635477542877e-02,1.335899252444505692e-02,-1.086932644248008728e-01,7.051011547446250916e-03,-2.184535115957260132e-01,-1.261185258626937866e-01,1.060024425387382507e-01,1.902902871370315552e-01,1.558961812406778336e-02,2.530029714107513428e-01,-1.097551286220550537e-01,7.451713830232620239e-02,-1.097526624798774719e-01,-2.334135398268699646e-02,1.259880810976028442e-01,2.986391773447394371e-03,9.832800924777984619e-02,-1.214934214949607849e-01,3.642848925665020943e-03,1.548254936933517456e-01,2.906479313969612122e-02,3.931060433387756348e-02,-9.801305085420608521e-02,2.845561206340789795e-01,-2.101697772741317749e-02,-1.525036096572875977e-01,9.244339168071746826e-02,2.552614361047744751e-02,-4.707114398479461670e-02,4.831796884536743164e-02,-1.482973098754882812e-01
-1.240458805114030838e-02,-8.407101966440677643e-03,8.412473835051059723e-03,3.935792949050664902e-03,6.406403332948684692e-02,-4.943940788507461548e-02,-1.683828383684158325e-01,-1.051475033164024353e-01,1.399455871433019638e-02,8.822640776634216309e-02,-9.812119603157043457e-02,-1.851958334445953369e-01,1.141545325517654419e-01,1.283919513225555420e-01,-3.999836742877960205e-02,4.714618250727653503e-02,-1.130616962909698486e-01,2.082675844430923462e-01,-5.815599858760833740e-02,-9.008101187646389008e-03,-2.473413571715354919e-02,8.204003423452377319e-02,-6.735240574926137924e-03,-6.355363875627517700e-02,1.503462940454483032e-01,-3.114802390336990356e-02,-8.759314566850662231e-02,1.910084635019302368e-01,1.922749876976013184e-01,-1.180790662765502930e-01,-2.608867548406124115e-02,-1.482561528682708740e-01
-1.393101364374160767e-01,3.045346140861511230e-01,-3.708122298121452332e-02,4.782381281256675720e-02,-1.250807046890258789e-01,1.316043287515640259e-01,-8.257645368576049805e-02,7.683828473091125488e-02,-5.154924467206001282e-02,6.390991061925888062e-02,-8.547013998031616211e-02,8.551371283829212189e-03,-1.697304844856262207e-01,8.560217916965484619e-02,9.921713173389434814e-02,-1.075452342629432678e-01,2.187349945306777954e-01,1.446816027164459229e-01,1.483605522662401199e-02,-2.799204550683498383e-02,6.488518416881561279e-02,-3.848996385931968689e-02,-1.286984682083129883e-01,-1.363567262887954712e-02,2.998725743964314461e-03,1.345636844635009766e-01,1.208279468119144440e-02,1.391566246747970581e-01,-9.288863837718963623e-02,1.066475957632064819e-01,6.803649663925170898e-02,-1.779384762048721313e-01
3.039840608835220337e-02,5.402964353561401367e-02,-1.268533617258071899e-02,-4.101406782865524292e-02,3.533247858285903931e-02,1.784374862909317017e-01,2.441622316837310791e-02,3.790173679590225220e-02,2.354414761066436768e-01,-1.478722393512725830e-01,5.226094275712966919e-02,5.633584409952163696e-02,2.009785920381546021e-01,-1.005259156227111816e-01,1.299991738051176071e-02,-4.092546552419662476e-02,1.414031237363815308e-01,5.727455019950866699e-02,-4.448248445987701416e-02,-1.465947180986404419e-01,-6.462189555168151855e-02,-4.696161672472953796e-02,-1.241996604949235916e-02,1.009128391742706299e-01,2.456689029932022095e-01,5.182876065373420715e-02,-9.544560313224792480e-02,-1.164022013545036316e-01,1.454803943634033203e-01,-1.454340219497680664e-01,-8.179500699043273926e-02,1.477109827101230621e-02
1.954134553670883179e-01,1.546126008033752441e-01,-6.063077226281166077e-02,4.555511474609375000e-02,1.497765928506851196e-01,1.882205903530120850e-01,2.585556916892528534e-02,5.954251810908317566e-02,-7.756025344133377075e-02,-1.775744408369064331e-01,6.119413301348686218e-02,-2.083132229745388031e-02,-8.541244268417358398e-02,-1.593916094861924648e-04,1.106831654906272888e-01,4.192634951323270798e-03,2.314765006303787231e-02,1.433129608631134033e-01,7.396359741687774658e-02,-7.092822343111038208e-03,1.958200521767139435e-02,9.296026825904846191e-02,-6.020457018166780472e-03,1.504454165697097778e-01,1.377650187350809574e-03,-7.312067598104476929e-02,-6.471375375986099243e-02,4.919905588030815125e-02,-9.646672010421752930e-02,-1.180510520935058594e-01,1.239650323987007141e-01,3.745617717504501343e-02
2.184667158871889114e-03,3.833550587296485901e-02,-3.659646585583686829e-02,-5.307758226990699768e-02,3.147977869957685471e-03,2.189992666244506836e-01,-2.832177095115184784e-02,4.800230264663696289e-02,1.790951341390609741e-01,-2.006010338664054871e-02,6.992761790752410889e-02,-2.042992413043975830e-02,4.797619767487049103e-03,1.692509055137634277e-01,-1.000832417048513889e-04,-4.010128229856491089e-02,-4.015753790736198425e-02,2.461904138326644897e-01,6.410551071166992188e-02,-1.736975461244583130e-01,-2.926826477050781250e-02,9.925833344459533691e-02,2.252839952707290649e-01,-1.531819403171539307e-01,-6.921209394931793213e-02,5.857386812567710876e-02,-1.821787655353546143e-01,1.392620950937271118e-01,-1.357948482036590576e-01,1.822432130575180054e-02,4.404279962182044983e-02,-1.020226627588272095e-02
1.781335920095443726e-01,1.077396273612976074e-01,6.352241337299346924e-02,1.578370779752731323e-01,1.595449149608612061e-01,-1.155090853571891785e-01,-1.187354177236557007e-01,8.639767020940780640e-02,6.212334614247083664e-03,-1.365409977734088898e-02,-1.674925982952117920e-01,1.074408814311027527e-01,1.123218424618244171e-02,9.375382959842681885e-02,-1.899531483650207520e-02,-7.231028378009796143e-02,3.898595273494720459e-02,5.012182518839836121e-02,1.543715149164199829e-01,7.996788620948791504e-02,-1.424864530563354492e-01,8.259709924459457397e-02,1.758988946676254272e-01,-1.295326054096221924e-01,1.438512355089187622e-01,-6.928932853043079376e-03,4.306533187627792358e-02,1.627939343452453613e-01,-5.171145126223564148e-02,1.889956742525100708e-02,1.278410665690898895e-02,5.934377387166023254e-02
-7.921599596738815308e-02,2.095689773559570312e-01,-5.194353312253952026e-02,-8.984256535768508911e-02,1.030889600515365601e-01,4.260085150599479675e-02,-1.029470041394233704e-01,1.544762104749679565e-01,-7.354049012064933777e-03,4.390342161059379578e-02,9.804649651050567627e-02,1.985180191695690155e-03,-1.835004836320877075e-01,-7.999003864824771881e-03,-3.328517079353332520e-03,-1.165891587734222412e-01,7.831275463104248047e-02,2.454438246786594391e-02,2.278096377849578857e-01,1.156478822231292725e-01,6.586854904890060425e-02,9.847939014434814453e-02,-1.363657563924789429e-01,-1.815583370625972748e-02,8.570564538240432739e-02,1.443038508296012878e-02,5.992045626044273376e-02,1.863288432359695435e-01,-1.052399724721908569e-01,3.788111731410026550e-02,-6.804974377155303955e-02,1.013316661119461060e-01
1.147366166114807129e-01,-3.864459320902824402e-02,1.586746424436569214e-02,1.309505552053451538e-01,-3.016707487404346466e-02,1.954797059297561646e-01,-2.168724313378334045e-02,-1.274269223213195801e-01,1.491675227880477905e-01,5.606727208942174911e-03,1.561520099639892578e-01,7.354214787483215332e-02,1.384215205907821655e-01,2.287745662033557892e-02,-7.316223531961441040e-02,1.192411556839942932e-01,-1.244037374854087830e-01,-2.843669801950454712e-02,1.506084650754928589e-01,5.429181084036827087e-02,9.866974502801895142e-02,9.413603693246841431e-02,1.717098616063594818e-02,3.665714338421821594e-02,-1.532378792762756348e-01,1.374981701374053955e-01,2.223892360925674438e-01,-7.234779000282287598e-02,7.800821680575609207e-03,-6.738180667161941528e-02,6.286416202783584595e-02,-3.155333548784255981e-02
-3.788427636027336121e-02,3.114064596593379974e-02,7.084583491086959839e-02,-1.090183481574058533e-01,1.309989094734191895e-01,-1.060933321714401245e-01,-9.633454680442810059e-02,3.982841968536376953e-02,-2.346247062087059021e-02,3.530193492770195007e-02,-5.071997269988059998e-02,4.867099970579147339e-02,1.584275439381599426e-02,2.720054984092712402e-02,-1.476476788520812988e-01,1.448463089764118195e-02,1.599339395761489868e-02,-6.008822843432426453e-02,-1.422962397336959839e-01,2.517895400524139404e-02,-1.950776949524879456e-02,-1.296934932470321655e-01,-2.989698760211467743e-02,-4.723374918103218079e-02,1.032667234539985657e-01,-1.127596348524093628e-01,9.105184674263000488e-02,8.836839348077774048e-02,-3.975447639822959900e-02,-8.347501605749130249e-02,5.142771825194358826e-02,3.272904828190803528e-02
-1.136023923754692078e-01,-4.046045616269111633e-02,1.321997940540313721e-01,-1.609545014798641205e-02,-1.172998268157243729e-02,9.850374609231948853e-02,-1.175964102149009705e-01,6.472677923738956451e-03,-8.282073587179183960e-02,3.270430862903594971e-02,-4.637533798813819885e-02,-1.541406363248825073e-01,-5.332016944885253906e-02,-9.825919568538665771e-02,2.067090570926666260e-02,5.654616281390190125e-02,8.252830803394317627e-02,-2.670092508196830750e-03,7.104177027940750122e-03,1.634879708290100098e-01,-1.516237705945968628e-01,-1.446985602378845215e-01,-2.461118698120117188e-01,-5.851737037301063538e-02,1.531762182712554932e-01,-9.432358667254447937e-03,-2.018664963543415070e-03,1.833305358886718750e-01,-2.363993786275386810e-02,9.169027954339981079e-02,1.444226205348968506e-01,-1.393991112709045410e-01
8.921483159065246582e-02,1.909645944833755493e-01,9.748435020446777344e-02,-1.053982004523277283e-01,1.332703381776809692e-01,-3.978859633207321167e-02,-3.371690958738327026e-02,7.748901378363370895e-03,9.281655400991439819e-02,8.609481155872344971e-02,-4.800429195165634155e-02,6.746520847082138062e-02,-7.557930052280426025e-02,6.382272578775882721e-03,3.996473178267478943e-02,3.691128641366958618e-02,5.827816948294639587e-02,4.577331617474555969e-02,-4.577230289578437805e-02,2.273858524858951569e-03,-1.007293611764907837e-01,-1.020124629139900208e-01,-4.435670375823974609e-02,6.623587757349014282e-02,-8.331478387117385864e-02,-5.912290513515472412e-02,2.049864977598190308e-01,6.959103792905807495e-02,4.094335809350013733e-02,1.816104911267757416e-02,6.036945804953575134e-02,-3.401995450258255005e-02
4.307985305786132812e-02,9.881211072206497192e-02,-9.180534631013870239e-02,7.931090146303176880e-02,9.925513714551925659e-02,-5.969482287764549255e-02,8.113118261098861694e-02,-4.830173403024673462e-02,2.757775597274303436e-02,-6.854087114334106445e-02,-7.915370166301727295e-03,-9.292310103774070740e-03,2.731518633663654327e-02,-5.258693173527717590e-02,-2.857718616724014282e-02,5.903339013457298279e-02,1.692354977130889893e-01,5.025353655219078064e-02,-8.855090290307998657e-02,3.181057795882225037e-02,7.143721729516983032e-02,-3.327842801809310913e-02,-6.855306681245565414e-03,-2.410070598125457764e-02,5.595478042960166931e-02,1.883821189403533936e-02,-2.278210222721099854e-02,-9.902664460241794586e-03,-5.839075148105621338e-02,-7.651230692863464355e-02,-2.553322166204452515e-02,-1.702462285757064819e-01
-4.148944839835166931e-02,1.737380921840667725e-01,-6.427152454853057861e-02,-7.866312563419342041e-02,7.997541874647140503e-02,1.339878141880035400e-02,1.811663061380386353e-02,-4.964748769998550415e-02,-4.291657730937004089e-02,-1.793665140867233276e-01,-3.639067709445953369e-02,4.365071281790733337e-02,-7.433116436004638672e-02,-9.910827130079269409e-02,-3.675741702318191528e-02,-5.968725308775901794e-02,1.619779132306575775e-02,1.817941814661026001e-01,-2.049172967672348022e-01,1.156422961503267288e-02,1.333512961864471436e-01,1.823746599256992340e-02,2.313203364610671997e-02,1.376017332077026367e-01,5.343155562877655029e-02,1.175522357225418091e-01,-2.276535518467426300e-02,1.614493280649185181e-01,-9.201207756996154785e-02,2.171761542558670044e-02,-8.503784239292144775e-02,4.768989607691764832e-02
1.278560757637023926e-01,2.459472268819808960e-01,7.863717526197433472e-02,-4.786717891693115234e-02,1.825122907757759094e-02,1.198442503809928894e-01,3.985061869025230408e-02,-4.727905616164207458e-02,3.547177650034427643e-03,8.060210943222045898e-02,6.342915445566177368e-02,5.635578185319900513e-02,-8.011826872825622559e-02,2.205544710159301758e-01,-1.421343442052602768e-02,-2.563996799290180206e-02,1.342104822397232056e-01,6.289998441934585571e-02,4.538225382566452026e-02,-1.079158112406730652e-01,6.219135597348213196e-03,5.994383990764617920e-02,1.207710951566696167e-01,2.811932750046253204e-02,5.352732911705970764e-02,3.977077454328536987e-02,9.451275318861007690e-02,-4.897688515484333038e-03,2.648877911269664764e-02,2.590682804584503174e-01,2.213647402822971344e-02,3.973867744207382202e-02
-1.246902272105216980e-01,-3.944921493530273438e-02,6.843490898609161377e-02,-2.069568261504173279e-02,4.767340421676635742e-02,5.606421083211898804e-02,-1.544898003339767456e-01,3.300520405173301697e-02,-9.524528682231903076e-02,1.216676831245422363e-01,-1.854524016380310059e-02,1.091960966587066650e-01,1.638314872980117798e-01,1.137784942984580994e-01,-8.665445446968078613e-02,1.579683972522616386e-03,1.323367059230804443e-01,9.984534233808517456e-02,2.448045089840888977e-02,8.316160738468170166e-02,-5.590658262372016907e-02,6.999548524618148804e-02,1.040530949831008911e-01,4.311505332589149475e-02,-1.418229490518569946e-01,-1.213842928409576416e-01,-5.135124549269676208e-02,-2.546106465160846710e-03,-8.631700277328491211e-02,1.157344356179237366e-01,-2.806796506047248840e-02,1.610688306391239166e-02
2.354926168918609619e-01,8.090525865554809570e-02,-1.550449430942535400e-01,-9.024216979742050171e-02,1.518393605947494507e-01,7.151696085929870605e-02,-1.524939537048339844e-01,-8.668400347232818604e-02,1.562883853912353516e-01,-3.792444989085197449e-02,-3.867284627631306648e-03,7.749389857053756714e-02,-1.755839139223098755e-01,1.120793819427490234e-01,1.246420014649629593e-02,-3.552042692899703979e-02,7.124991714954376221e-02,1.042583510279655457e-01,1.433221697807312012e-01,-1.466889828443527222e-01,-7.798737287521362305e-02,-6.048933044075965881e-02,1.649055927991867065e-01,-7.213816046714782715e-02,3.251988440752029419e-02,1.015870831906795502e-02,9.574765712022781372e-02,-1.531731784343719482e-01,1.228741109371185303e-01,1.127233728766441345e-01,3.808804787695407867e-03,2.303815819323062897e-02
-1.198015809059143066e-01,-6.837467104196548462e-02,-7.175467163324356079e-02,1.163201332092285156e-01,9.821240603923797607e-02,3.580361232161521912e-02,5.182832106947898865e-02,5.456152185797691345e-02,1.357564926147460938e-01,-1.554581709206104279e-02,3.437049599597230554e-06,-1.436041891574859619e-01,-6.880458444356918335e-02,6.705237925052642822e-02,-1.103447228670120239e-01,8.508142828941345215e-02,-5.989159271121025085e-02,-4.424608871340751648e-02,1.157094687223434448e-01,-3.704054513946175575e-03,2.442023344337940216e-02,-1.189795956015586853e-01,2.270307689905166626e-01,7.460536062717437744e-02,4.607201740145683289e-02,-3.806300833821296692e-02,-1.849618554115295410e-01,1.722464263439178467e-01,2.439647726714611053e-02,-9.099604189395904541e-02,1.100920289754867554e-01,1.345598399639129639e-01
1.008932143449783325e-01,2.418263405561447144e-01,1.379869133234024048e-01,-1.511996388435363770e-01,5.079590901732444763e-02,2.571469405665993690e-03,5.083560943603515625e-03,-6.178068742156028748e-02,-1.669811904430389404e-01,1.911899894475936890e-01,-1.033082008361816406e-01,1.876973509788513184e-01,-6.219801306724548340e-02,1.431554853916168213e-01,1.587074249982833862e-01,-9.741320391185581684e-04,2.117835581302642822e-01,-1.708522089757025242e-03,-1.376734375953674316e-01,-4.073735699057579041e-02,1.303424835205078125e-01,-4.445316269993782043e-02,5.645503848791122437e-02,6.134696677327156067e-02,-1.117017567157745361e-01,5.442347377538681030e-02,-3.618846088647842407e-02,2.063896059989929199e-01,2.827974222600460052e-02,1.208507642149925232e-02,2.782339043915271759e-02,-4.148080572485923767e-02
-5.765913799405097961e-02,8.442180603742599487e-02,4.073134157806634903e-03,1.251631826162338257e-01,2.937985118478536606e-03,4.197438806295394897e-02,-1.024608612060546875e-01,-1.404836177825927734e-01,1.470142696052789688e-02,6.750050932168960571e-02,-1.004347354173660278e-01,-4.107800498604774475e-02,7.821089029312133789e-02,-2.009821869432926178e-02,-4.795105196535587311e-03,3.877967363223433495e-03,7.581301033496856689e-02,3.605082258582115173e-02,-7.648590207099914551e-02,-5.207653343677520752e-02,6.353126466274261475e-02,2.235335297882556915e-02,1.296641379594802856e-01,-5.357051268219947815e-03,-5.542532354593276978e-02,6.793884187936782837e-02,1.176592260599136353e-01,-1.088546141982078552e-01,3.025836870074272156e-02,4.122758284211158752e-02,-1.784184202551841736e-02,-1.849438436329364777e-02
-1.283253878355026245e-01,8.394506573677062988e-02,4.466827213764190674e-02,-2.664959803223609924e-02,-1.226773336529731750e-01,-3.794468194246292114e-02,1.761776506900787354e-01,2.739185988903045654e-01,-1.535951793193817139e-01,2.243638187646865845e-01,9.013446420431137085e-02,2.408917695283889771e-01,5.031971260905265808e-03,2.374245822429656982e-01,-5.203290656208992004e-02,4.242858663201332092e-02,6.083130091428756714e-02,-2.086972258985042572e-02,-3.509756550192832947e-02,2.819572985172271729e-01,3.845596313476562500e-02,9.712175279855728149e-02,8.372602611780166626e-02,-6.069346889853477478e-02,1.709516644477844238e-01,-8.019219338893890381e-02,7.213038951158523560e-02,2.750094532966613770e-01,3.723270073533058167e-02,1.811016499996185303e-01,-6.725976616144180298e-02,-7.062944024801254272e-02
5.505396425724029541e-02,1.511888056993484497e-01,2.151676826179027557e-02,-4.437207058072090149e-02,3.749708831310272217e-02,-1.064099185168743134e-02,-2.076549679040908813e-01,-8.145485073328018188e-02,6.719429045915603638e-02,2.604522556066513062e-02,-1.055417116731405258e-02,9.562322497367858887e-02,2.297812327742576599e-02,-4.590845853090286255e-02,-7.578681409358978271e-02,1.364464610815048218e-01,-6.972437351942062378e-02,2.657988108694553375e-02,1.894093006849288940e-01,-6.901004165410995483e-02,-8.090235292911529541e-03,-1.010934412479400635e-01,1.533020101487636566e-02,-1.512591075152158737e-02,-1.463972628116607666e-01,3.652888908982276917e-02,-2.944980189204216003e-02,2.898029750213027000e-03,-7.308264821767807007e-02,-5.364135652780532837e-02,4.582229256629943848e-02,-6.258973479270935059e-02
6.914458423852920532e-02,-9.772485494613647461e-02,1.701667346060276031e-02,5.848441645503044128e-02,2.542699687182903290e-02,7.449239492416381836e-03,5.204167589545249939e-02,6.103050708770751953e-02,-9.129032492637634277e-03,1.762733794748783112e-02,-7.846257835626602173e-02,2.955370023846626282e-02,3.688538447022438049e-02,-1.765219308435916901e-02,-2.205242030322551727e-02,-9.528705477714538574e-02,1.772139072418212891e-01,-1.121465303003787994e-02,-2.579077146947383881e-02,1.388002783060073853e-01,-3.141053766012191772e-02,-9.637644141912460327e-02,3.716368600726127625e-02,1.359074115753173828e-01,2.619161270558834076e-02,3.460556641221046448e-02,-9.484317898750305176e-02,1.972804404795169830e-02,-8.189669996500015259e-02,-1.298583149909973145e-01,4.612298309803009033e-02,8.698283880949020386e-02
-5.672215670347213745e-02,-5.078472569584846497e-02,-2.786036767065525055e-02,8.830969035625457764e-02,1.295080482959747314e-01,1.544130593538284302e-01,-3.249372169375419617e-02,-3.592384280636906624e-03,-5.779821798205375671e-02,-1.650846153497695923e-01,9.802586585283279419e-02,-2.300608344376087189e-02,2.400564029812812805e-03,1.764606833457946777e-01,-4.763295873999595642e-02,6.039957329630851746e-02,4.996543005108833313e-02,2.152157276868820190e-01,1.109596639871597290e-01,5.677731335163116455e-02,-3.311616554856300354e-02,-1.202863007783889771e-01,-4.191305954009294510e-03,-3.356906771659851074e-02,-7.834800332784652710e-02,2.258860971778631210e-03,1.068058237433433533e-01,1.002670750021934509e-01,-1.114018540829420090e-02,2.031200937926769257e-02,8.400657027959823608e-02,-1.808262020349502563e-01
-1.122609600424766541e-01,-2.126549370586872101e-02,-3.857759758830070496e-03,6.676534563302993774e-02,-7.997685670852661133e-02,-4.218460619449615479e-02,-2.560213021934032440e-02,-5.535299703478813171e-02,5.835580825805664062e-02,-1.077027916908264160e-01,-5.853184312582015991e-02,1.161738336086273193e-01,2.956460695713758469e-03,-6.017353013157844543e-02,-1.439068019390106201e-01,2.105506137013435364e-02,-7.803548872470855713e-02,2.580027328804135323e-03,1.050478406250476837e-02,5.288895592093467712e-02,2.130462601780891418e-02,6.963607668876647949e-02,-4.500144347548484802e-02,4.448559880256652832e-02,7.365855388343334198e-03,-5.344105511903762817e-02,-7.042144984006881714e-02,-5.132060125470161438e-02,-6.691326200962066650e-02,-1.400459930300712585e-02,8.851215988397598267e-02,-7.239804416894912720e-02
2.208599746227264404e-01,6.573566794395446777e-02,4.412085935473442078e-02,4.366630688309669495e-02,1.439505517482757568e-01,3.538596630096435547e-02,1.275828666985034943e-02,-2.206009626388549805e-02,-1.868609897792339325e-02,-1.772739738225936890e-02,1.067919358611106873e-01,6.291166692972183228e-02,7.139342278242111206e-02,3.621503710746765137e-02,1.584185212850570679e-01,2.958423085510730743e-02,6.173877418041229248e-02,-1.468907721573486924e-04,4.941702261567115784e-02,1.035761311650276184e-01,-1.135667636990547180e-01,-8.392185717821121216e-02,-1.042717769742012024e-01,-4.347576200962066650e-02,2.169806361198425293e-01,3.353817388415336609e-02,5.090607330203056335e-03,-1.226936355233192444e-01,-1.296224594116210938e-01,-8.620463311672210693e-02,-1.444465965032577515e-01,-1.202394664287567139e-01
8.245727419853210449e-02,1.266544014215469360e-01,-1.522713061422109604e-02,2.807041816413402557e-02,-3.601932898163795471e-02,5.026888847351074219e-02,2.790572121739387512e-03,1.158281117677688599e-01,1.322738081216812134e-01,-1.836997643113136292e-02,1.428946703672409058e-01,8.190681040287017822e-02,-8.541080355644226074e-02,-1.838815659284591675e-01,-8.251797407865524292e-02,2.736632339656352997e-02,-1.440406683832406998e-02,1.133497059345245361e-02,1.468377560377120972e-01,5.345540493726730347e-02,5.361481383442878723e-02,6.309664249420166016e-02,-2.080494910478591919e-01,1.270870678126811981e-02,-1.642182022333145142e-01,4.712415859103202820e-02,1.922643184661865234e-01,-2.337518893182277679e-02,-5.695667117834091187e-02,6.577719002962112427e-02,-9.047663211822509766e-02,-3.785805031657218933e-02
1.114209443330764771e-01,1.216624900698661804e-01,-1.055160984396934509e-01,-1.584409177303314209e-02,-1.803556978702545166e-01,4.856417700648307800e-02,5.364362522959709167e-02,5.207873880863189697e-02,6.170187518000602722e-02,-6.318671163171529770e-03,7.492482662200927734e-02,2.526167221367359161e-02,-2.596052549779415131e-02,6.042711064219474792e-02,-5.525606498122215271e-02,-1.266678273677825928e-01,4.192971065640449524e-02,-6.525428034365177155e-03,5.908420681953430176e-02,3.046553395688533783e-02,1.201883107423782349e-01,1.844668537378311157e-01,1.998368799686431885e-01,-1.087856218218803406e-01,-8.861114829778671265e-02,-1.396095659583806992e-02,1.551668047904968262e-01,-4.295732080936431885e-02,-1.294139176607131958e-01,2.043944224715232849e-02,-8.075581490993499756e-02,-2.484623529016971588e-02
1.190257221460342407e-01,3.546714037656784058e-02,-7.287766039371490479e-02,-1.202492862939834595e-01,5.633137654513120651e-03,1.255929935723543167e-02,1.023186445236206055e-01,-1.219387874007225037e-01,-1.219322457909584045e-01,7.759924978017807007e-02,1.622245609760284424e-01,6.333070993423461914e-02,-1.000846773386001587e-01,-1.318782288581132889e-02,7.523362990468740463e-03,3.352142870426177979e-02,-9.981806576251983643e-02,7.465644925832748413e-02,-2.254255674779415131e-02,8.238397538661956787e-02,-2.359328046441078186e-02,1.867234334349632263e-02,-4.728427156805992126e-02,-4.197951348032802343e-04,-4.424916114658117294e-03,1.202636212110519409e-02,-4.327826574444770813e-02,-3.241651132702827454e-02,-1.421867124736309052e-02,4.094408079981803894e-02,9.186721593141555786e-02,7.608141005039215088e-02
6.262751668691635132e-02,-1.223518997430801392e-01,-4.823562130331993103e-02,3.940232470631599426e-02,6.464497745037078857e-02,-1.630286276340484619e-01,-1.811512513086199760e-03,-5.210931971669197083e-02,1.262446492910385132e-01,5.317810177803039551e-02,1.413565278053283691e-01,1.358969360589981079e-01,2.747977972030639648e-01,-6.822574883699417114e-02,-4.216374829411506653e-03,6.613278388977050781e-02,-6.778220087289810181e-02,1.609434722922742367e-03,1.324851904064416885e-02,-8.849843591451644897e-02,-6.833350658416748047e-02,6.432610750198364258e-02,2.025373727083206177e-01,1.486764848232269287e-01,-9.069988131523132324e-02,-1.714593023061752319e-01,5.379626154899597168e-02,-9.685519151389598846e-03,1.584777235984802246e-01,2.236866205930709839e-02,-3.865601494908332825e-02,7.103681564331054688e-02
1.637055911123752594e-02,-7.767413277179002762e-03,-1.384119596332311630e-02,2.194434031844139099e-02,8.853150159120559692e-02,-8.787282276898622513e-04,1.037680879235267639e-01,3.236002847552299500e-02,-5.612553283572196960e-02,1.592950075864791870e-01,-1.506790984421968460e-02,7.477733492851257324e-02,3.070505335927009583e-02,-7.041791081428527832e-02,3.406716138124465942e-02,2.076707407832145691e-02,4.965613409876823425e-02,-1.375056356191635132e-01,-5.011268705129623413e-02,1.055300608277320862e-01,7.246249914169311523e-02,-1.492118239402770996e-01,1.803098469972610474e-01,-9.545046091079711914e-02,1.441030800342559814e-01,4.795871302485466003e-02,2.874954044818878174e-02,-5.915611609816551208e-02,-3.863740339875221252e-02,1.497626006603240967e-01,-5.963950604200363159e-02,-1.781949959695339203e-02
1.636057496070861816e-01,-9.495785087347030640e-02,-1.397881358861923218e-01,-8.443261682987213135e-02,-4.439193382859230042e-02,6.231279671192169189e-02,2.426585182547569275e-03,4.605786874890327454e-02,-2.487285062670707703e-02,9.930741041898727417e-02,-1.314918994903564453e-01,9.302289783954620361e-02,-2.578413859009742737e-02,-1.647729426622390747e-02,-7.386620342731475830e-02,-1.317678093910217285e-01,1.283519864082336426e-01,1.032758802175521851e-01,1.206783875823020935e-01,-2.024215180426836014e-03,7.326025515794754028e-02,5.933986976742744446e-02,2.206830121576786041e-02,-4.491935670375823975e-02,-4.559291154146194458e-02,8.283691853284835815e-02,1.257559061050415039e-01,-9.676146507263183594e-02,8.445374667644500732e-02,-2.977105043828487396e-02,-3.828794509172439575e-02,1.660414040088653564e-02
1.597553864121437073e-02,1.119892150163650513e-01,8.853694796562194824e-02,-8.635932207107543945e-02,5.853548645973205566e-03,1.256069540977478027e-02,1.285900175571441650e-01,3.939077258110046387e-02,2.289805002510547638e-02,1.202009469270706177e-01,-2.440387755632400513e-02,1.637401878833770752e-01,-5.256885197013616562e-03,-1.209493428468704224e-01,-7.950338721275329590e-02,1.212237868458032608e-02,-1.513103842735290527e-01,-1.125545520335435867e-02,-1.449222266674041748e-01,-4.304393753409385681e-02,-7.492256909608840942e-02,-1.540624350309371948e-01,-6.770902872085571289e-02,2.240248955786228180e-02,1.529840286821126938e-02,-2.153003960847854614e-02,-6.472705304622650146e-02,-2.097234688699245453e-02,-3.339448943734169006e-02,-5.655533168464899063e-03,4.029162600636482239e-02,4.609177261590957642e-02
2.228214889764785767e-01,2.438348233699798584e-01,-6.550946831703186035e-02,5.077802017331123352e-02,1.236036419868469238e-01,1.220189929008483887e-01,-2.445831894874572754e-02,-1.382772773504257202e-01,1.746731102466583252e-01,-1.253751218318939209e-01,-5.201223492622375488e-02,7.938674092292785645e-02,-9.730912744998931885e-02,-1.881123632192611694e-01,-4.042682051658630371e-02,-3.078810125589370728e-02,-8.356175571680068970e-02,4.798296466469764709e-02,8.554901182651519775e-02,9.958773152902722359e-04,-2.287534065544605255e-02,-2.062539756298065186e-01,-1.994074136018753052e-01,-1.513024568557739258e-01,-1.141856759786605835e-01,-9.595872834324836731e-03,1.309386640787124634e-01,-1.397822648286819458e-01,6.540953367948532104e-02,2.608839236199855804e-02,-8.144374191761016846e-02,-3.531816601753234863e-02
2.629366703331470490e-02,8.790475875139236450e-02,9.232695400714874268e-02,4.511582478880882263e-02,1.318509597331285477e-02,1.262185573577880859e-01,1.002372652292251587e-01,-4.102195426821708679e-02,-3.148977085947990417e-02,4.235656233504414558e-04,4.660055041313171387e-02,-8.086295425891876221e-02,1.018487066030502319e-01,1.366073191165924072e-01,-2.868286892771720886e-02,-1.305984705686569214e-01,1.027035191655158997e-01,-1.263967454433441162e-01,1.547228638082742691e-02,1.477726697921752930e-01,1.302385777235031128e-01,6.009642034769058228e-02,8.858265727758407593e-02,-1.363602280616760254e-01,1.080267364159226418e-03,-1.005226969718933105e-01,-2.561782114207744598e-02,1.020067110657691956e-01,-6.578519940376281738e-02,-1.385719925165176392e-01,-7.199885696172714233e-02,4.423992335796356201e-02
-7.410413771867752075e-02,1.000491008162498474e-01,-3.498147055506706238e-02,1.110125109553337097e-01,5.255898460745811462e-02,4.539576917886734009e-02,8.709997055120766163e-04,6.607270985841751099e-02,-1.581559777259826660e-01,6.796178966760635376e-02,4.462882876396179199e-03,-2.046027183532714844e-01,1.216176524758338928e-01,5.805810168385505676e-02,-1.248327493667602539e-01,9.837895631790161133e-02,-3.199699148535728455e-02,1.230272278189659119e-01,-1.426001787185668945e-01,-1.092697456479072571e-01,8.802155405282974243e-02,-3.160437941551208496e-02,-7.412618491798639297e-03,-1.820655912160873413e-02,1.712232977151870728e-01,7.731553167104721069e-02,6.217732559889554977e-03,1.545417904853820801e-01,-2.307132631540298462e-02,1.194703653454780579e-01,-6.095697358250617981e-02,-3.030420094728469849e-02
1.760394126176834106e-01,2.600516192615032196e-02,-1.297755390405654907e-01,-5.770705267786979675e-02,8.885870873928070068e-02,3.908299282193183899e-02,6.463641673326492310e-02,4.378283023834228516e-02,7.633212953805923462e-02,-3.212136775255203247e-02,2.681951038539409637e-02,6.757757812738418579e-02,7.785671949386596680e-02,6.318826228380203247e-02,-3.979040309786796570e-02,8.585394918918609619e-02,-2.824740856885910034e-02,1.162372622638940811e-02,-1.320893764495849609e-01,-1.447720676660537720e-01,1.130252927541732788e-01,-1.725831031799316406e-01,-6.900186836719512939e-02,-1.461284309625625610e-01,4.441755637526512146e-02,2.951969159767031670e-03,-2.808763645589351654e-02,-1.362777352333068848e-01,7.888580858707427979e-02,3.890104591846466064e-02,5.647229775786399841e-02,1.238231360912322998e-01
-4.281110316514968872e-02,-8.465293794870376587e-02,-5.354203656315803528e-02,-8.766283094882965088e-02,3.645505383610725403e-02,-1.344484686851501465e-01,2.205669414252042770e-03,-1.812535524368286133e-02,1.410614848136901855e-01,-5.933963507413864136e-02,1.224054321646690369e-01,6.325411796569824219e-02,-5.882377550005912781e-02,3.431943058967590332e-02,-9.646826237440109253e-02,-1.694150120019912720e-01,-1.360338479280471802e-01,-1.059080883860588074e-01,-6.786578893661499023e-02,9.976783767342567444e-03,-8.767727762460708618e-02,3.441929817199707031e-02,-5.176410824060440063e-02,-1.174622960388660431e-02,-8.460252732038497925e-02,-6.819165498018264771e-02,-5.295411124825477600e-02,5.279338359832763672e-02,-1.010633707046508789e-01,-3.150212019681930542e-02,-2.445905655622482300e-02,3.319086134433746338e-02
1.193164438009262085e-01,1.468186080455780029e-01,-7.503696531057357788e-02,-1.270886212587356567e-01,-2.154062315821647644e-02,9.033953398466110229e-02,-5.782065168023109436e-02,-1.250145435333251953e-01,-1.035492047667503357e-01,-2.536674961447715759e-02,-3.348826244473457336e-02,-5.723004043102264404e-02,-1.507469862699508667e-01,9.749968349933624268e-02,2.018252760171890259e-02,-1.305440515279769897e-01,-1.277635097503662109e-01,2.029826790094375610e-01,3.121999651193618774e-02,-7.655510306358337402e-02,-1.770342700183391571e-02,-1.701515913009643555e-02,7.450573146343231201e-03,1.479463130235671997e-01,-7.393848150968551636e-02,1.728767454624176025e-01,8.815964311361312866e-02,8.127757161855697632e-02,-1.248226594179868698e-02,8.416357636451721191e-02,-1.516456902027130127e-01,5.187924206256866455e-02
-2.596525289118289948e-02,3.826892375946044922e-02,-9.143897891044616699e-02,-3.897490724921226501e-02,-6.321913003921508789e-02,-4.804616421461105347e-02,7.829596102237701416e-02,-4.643632099032402039e-02,1.671082675457000732e-01,-5.122623220086097717e-02,-5.630492046475410461e-02,-4.808072000741958618e-02,1.048918291926383972e-01,-3.951280936598777771e-02,3.448104485869407654e-02,-4.195278137922286987e-02,9.647260606288909912e-02,5.970528349280357361e-02,-3.891469910740852356e-03,-9.737005829811096191e-02,-6.873832643032073975e-02,5.137242376804351807e-02,-1.013731490820646286e-02,-8.280409127473831177e-02,2.620717696845531464e-02,-1.061097458004951477e-01,8.125774562358856201e-02,-6.727483123540878296e-02,-8.603275567293167114e-02,1.059728413820266724e-01,-1.465741358697414398e-02,-2.881841734051704407e-02
8.390512317419052124e-03,-2.121216356754302979e-01,-3.406884521245956421e-02,-2.458142675459384918e-02,3.158570080995559692e-02,1.496481895446777344e-01,7.159779313951730728e-03,-1.433554571121931076e-02,3.147635236382484436e-02,9.867466054856777191e-03,-6.666195578873157501e-03,-5.846306309103965759e-02,8.648450672626495361e-02,1.775181889533996582e-01,4.464300349354743958e-02,1.217630598694086075e-02,-1.618688851594924927e-01,-1.326457317918539047e-02,3.405041527003049850e-03,7.978456467390060425e-02,-8.591584116220474243e-02,2.137127667665481567e-01,1.595105379819869995e-01,5.023727193474769592e-02,-2.006698399782180786e-01,3.065535426139831543e-02,8.446487784385681152e-02,-1.288616210222244263e-01,2.263845503330230713e-01,3.879329422488808632e-03,-7.328251004219055176e-02,-1.045308485627174377e-01
7.807170599699020386e-02,-9.783151745796203613e-02,-1.273196488618850708e-01,-2.496254630386829376e-02,1.144242361187934875e-01,-5.944234505295753479e-02,1.975629329681396484e-01,5.513272807002067566e-02,1.812746673822402954e-01,-1.078756675124168396e-01,1.400080919265747070e-01,-1.497396230697631836e-01,1.830747351050376892e-02,-1.889805123209953308e-02,-3.852702304720878601e-02,2.990066818892955780e-02,1.104398518800735474e-01,-1.416131295263767242e-02,6.813732534646987915e-02,1.332636773586273193e-01,-8.474873006343841553e-02,1.469889879226684570e-01,5.636907741427421570e-02,4.419872537255287170e-02,7.534416019916534424e-02,6.775842607021331787e-02,-3.185639902949333191e-02,1.019338592886924744e-01,3.497451916337013245e-02,-4.007159918546676636e-02,1.096055954694747925e-01,2.550907246768474579e-02
-4.147316142916679382e-02,-9.656686335802078247e-02,-8.198585361242294312e-02,-4.703134298324584961e-02,5.116508528590202332e-02,-5.348627455532550812e-04,-9.709256142377853394e-02,-4.767882637679576874e-03,7.265169918537139893e-02,1.515656262636184692e-01,-1.288032084703445435e-01,-1.039540246129035950e-01,-1.291204541921615601e-01,-1.191979739814996719e-02,-5.720196291804313660e-02,-9.516390413045883179e-02,-1.783054135739803314e-02,1.557463109493255615e-01,8.514549583196640015e-02,9.545461088418960571e-02,-8.807669579982757568e-02,-1.851446367800235748e-02,-1.374162361025810242e-02,5.315454304218292236e-02,-2.874171733856201172e-02,-3.521587327122688293e-02,-7.504616864025592804e-03,-1.035139858722686768e-01,-2.382032014429569244e-02,-4.755244404077529907e-02,-2.730827033519744873e-02,4.227858781814575195e-02
1.293246168643236160e-02,-7.724580820649862289e-03,9.600882977247238159e-02,-9.994106739759445190e-02,8.945801109075546265e-02,3.001466393470764160e-02,1.176621392369270325e-01,5.498125031590461731e-02,6.257829070091247559e-02,-4.706897214055061340e-02,-3.387256339192390442e-02,-7.783588021993637085e-02,1.260277032852172852e-01,2.137766629457473755e-01,4.687671363353729248e-02,5.334320012480020523e-03,-5.458642914891242981e-02,5.558019131422042847e-02,-3.571260347962379456e-02,1.094016954302787781e-01,1.891163177788257599e-02,1.839507371187210083e-02,4.849399253726005554e-02,8.235103636980056763e-02,8.539026230573654175e-02,-1.593728316947817802e-03,4.057472944259643555e-02,1.715694069862365723e-01,3.968550637364387512e-02,2.435961365699768066e-01,5.826211720705032349e-02,-7.570908963680267334e-02
-8.774270117282867432e-02,8.755221962928771973e-02,-3.769479691982269287e-02,-3.818187490105628967e-02,-7.374732196331024170e-02,2.492857873439788818e-01,9.677202999591827393e-02,1.454918682575225830e-01,5.470978096127510071e-02,-1.718374639749526978e-01,-5.470095574855804443e-02,-1.145216599106788635e-01,-4.711071029305458069e-02,-4.310951754450798035e-02,6.225056946277618408e-03,-1.495069712400436401e-01,1.115595847368240356e-01,1.066070497035980225e-01,1.069593429565429688e-01,-5.243339389562606812e-02,-6.060738861560821533e-02,1.828912496566772461e-01,1.424645483493804932e-01,-1.319254934787750244e-01,1.397822201251983643e-01,-2.784966304898262024e-02,-7.320851832628250122e-02,1.133986636996269226e-01,-1.760579086840152740e-02,-5.866797640919685364e-02,-1.075417473912239075e-01,-3.531290963292121887e-02
-2.826672047376632690e-02,-6.756936758756637573e-02,3.640437964349985123e-03,3.211934491991996765e-02,1.630051620304584503e-02,1.240381449460983276e-01,4.089294001460075378e-03,-4.931800439953804016e-02,-8.412375301122665405e-02,1.463268250226974487e-01,2.355265198275446892e-03,-3.408782556653022766e-02,-8.461116999387741089e-02,1.041034534573554993e-01,-3.092165663838386536e-02,-5.612855404615402222e-02,5.224793404340744019e-02,-4.046010971069335938e-02,1.974715478718280792e-02,-5.355082079768180847e-02,-1.158390492200851440e-01,9.515662491321563721e-02,8.163543790578842163e-02,-1.567660458385944366e-02,-5.918216332793235779e-02,-6.418696045875549316e-02,6.157295405864715576e-02,1.095933988690376282e-01,9.402458369731903076e-02,1.756352372467517853e-02,-4.094206169247627258e-02,7.492611557245254517e-02
1.603964418172836304e-01,1.534225791692733765e-01,-4.237314313650131226e-02,1.177667081356048584e-01,7.226983457803726196e-02,-2.451222389936447144e-02,1.685064136981964111e-01,6.791421771049499512e-02,8.077289164066314697e-02,-4.480832442641258240e-02,5.296888202428817749e-02,-1.001667380332946777e-01,1.268587410449981689e-01,8.984822779893875122e-02,-3.890144079923629761e-02,-6.759166717529296875e-02,-7.895830273628234863e-02,-2.621671743690967560e-02,-8.276876062154769897e-02,1.048484072089195251e-02,-1.100955680012702942e-01,-5.841736868023872375e-02,-6.074556335806846619e-02,8.312416821718215942e-02,8.593006432056427002e-02,-2.430316247045993805e-02,-3.177080303430557251e-02,4.910085350275039673e-02,-2.495511202141642570e-03,8.206128329038619995e-02,1.111869513988494873e-01,8.976529538631439209e-02
1.222628131508827209e-01,6.533811241388320923e-02,-5.782517790794372559e-02,7.900950312614440918e-02,8.056481927633285522e-02,2.094692550599575043e-02,-1.502467393875122070e-01,-8.517134189605712891e-02,1.178945526480674744e-01,-4.802726954221725464e-02,-9.402542561292648315e-02,1.921858638525009155e-03,1.124115735292434692e-01,-2.813847176730632782e-02,-9.374482929706573486e-02,-9.727007895708084106e-02,-1.417016983032226562e-01,-5.863324925303459167e-02,-1.004989072680473328e-01,7.746022194623947144e-02,1.441616863012313843e-01,8.498185873031616211e-02,8.082450926303863525e-02,4.162283614277839661e-03,-6.960996240377426147e-02,1.446025446057319641e-02,8.900152146816253662e-02,3.160659968852996826e-02,2.089508175849914551e-01,2.984996326267719269e-02,4.960776865482330322e-02,1.298590153455734253e-01
-1.014424785971641541e-01,1.029510423541069031e-02,-1.259064525365829468e-01,6.777241826057434082e-02,-8.360178209841251373e-03,-4.077836126089096069e-02,-4.054459277540445328e-03,-3.888270258903503418e-02,-6.334724277257919312e-02,-2.744762413203716278e-02,-2.028566598892211914e-02,-8.957635611295700073e-02,4.538413882255554199e-02,2.365819382248446345e-04,8.615265041589736938e-02,-3.885200247168540955e-02,-2.554735727608203888e-02,-1.691084355115890503e-02,1.119291558861732483e-01,-5.640784278512001038e-02,1.148764491081237793e-01,-9.522259235382080078e-03,2.359298057854175568e-02,-4.580926150083541870e-02,-7.583118230104446411e-02,-7.078053057193756104e-02,-8.722721599042415619e-03,-1.136818155646324158e-02,-6.305110454559326172e-02,3.201588988304138184e-02,-3.497728146612644196e-03,4.093543812632560730e-02
-1.747083514928817749e-01,1.756106913089752197e-01,-4.389614611864089966e-02,6.372287124395370483e-02,1.369832456111907959e-01,9.682117402553558350e-02,1.372029632329940796e-01,7.630772888660430908e-02,-2.259374596178531647e-02,-1.496424246579408646e-02,-1.722182147204875946e-02,-6.290084868669509888e-02,-1.248719170689582825e-01,7.210835069417953491e-02,-6.725386530160903931e-02,-9.975893795490264893e-02,-8.777355402708053589e-02,1.044271290302276611e-01,-1.856853365898132324e-01,-2.135740965604782104e-02,1.465879827737808228e-01,3.062229789793491364e-02,2.053704857826232910e-01,-7.320813089609146118e-02,-2.225214149802923203e-03,-1.147946044802665710e-01,-8.589604496955871582e-02,-2.026006206870079041e-02,1.067263856530189514e-01,1.600923240184783936e-01,1.597425192594528198e-01,1.276670768857002258e-02
2.251959741115570068e-01,1.271746009588241577e-01,7.352881878614425659e-02,-2.057090587913990021e-02,1.205211430788040161e-01,-6.586749106645584106e-02,-2.591787837445735931e-02,-3.474749159067869186e-03,3.943973779678344727e-02,4.201991856098175049e-02,-1.057280153036117554e-01,-5.211855284869670868e-03,1.016394570469856262e-01,1.049410775303840637e-01,-2.448160573840141296e-02,-9.988877922296524048e-02,7.829844951629638672e-02,-3.845790401101112366e-02,-2.914240583777427673e-02,1.196005940437316895e-01,2.850872091948986053e-02,6.360033154487609863e-02,-6.153237540274858475e-03,2.755331806838512421e-02,-6.223274394869804382e-02,-7.201241701841354370e-02,1.668767780065536499e-01,5.428048595786094666e-02,7.439512014389038086e-02,9.072599932551383972e-04,-1.284589618444442749e-01,-7.384723424911499023e-02
-9.067112207412719727e-02,-1.984521001577377319e-02,-1.037332266569137573e-01,-8.683325350284576416e-02,2.627345360815525055e-02,-1.956470124423503876e-02,-2.541306987404823303e-02,3.354473039507865906e-02,1.279733926057815552e-01,6.745968759059906006e-02,-4.034844785928726196e-02,-9.267229586839675903e-02,-3.618997335433959961e-02,5.203086137771606445e-02,-1.321526765823364258e-01,-1.487838476896286011e-02,7.804910093545913696e-02,5.536754056811332703e-02,-1.273059248924255371e-01,-4.581069201231002808e-02,-1.449240930378437042e-02,-2.555661136284470558e-03,7.502434402704238892e-02,-6.349329371005296707e-03,1.189246922731399536e-01,-1.186287775635719299e-02,1.164488377980887890e-03,2.469773031771183014e-02,-8.605759590864181519e-03,5.865219607949256897e-02,5.666472483426332474e-03,-6.481309235095977783e-02
-4.835199564695358276e-02,1.933899223804473877e-01,-1.651980131864547729e-01,-2.562396600842475891e-02,-6.492321938276290894e-02,6.526394188404083252e-02,-1.862879097461700439e-01,3.118198737502098083e-02,1.608195900917053223e-01,2.658179588615894318e-02,4.534957557916641235e-02,-7.905547320842742920e-02,-7.389838248491287231e-02,-7.504207640886306763e-02,-4.220616072416305542e-02,-6.243643909692764282e-02,1.094923093914985657e-01,-2.143685892224311829e-02,2.567795105278491974e-02,7.293319702148437500e-02,-2.932602353394031525e-02,-1.651906371116638184e-01,-2.265702486038208008e-01,-1.480331458151340485e-02,4.921948164701461792e-02,3.742219507694244385e-02,1.342957317829132080e-01,-1.254404038190841675e-01,5.095607042312622070e-02,-7.929576933383941650e-02,-1.461276262998580933e-01,-9.518869966268539429e-02
3.719410626217722893e-03,-2.362855151295661926e-02,3.698345273733139038e-02,3.870279341936111450e-02,-6.172842904925346375e-02,4.892629804089665413e-04,1.087085753679275513e-01,6.171120330691337585e-02,-5.959968641400337219e-02,9.104856289923191071e-03,-3.004059381783008575e-02,1.491081863641738892e-01,-4.612876474857330322e-02,-1.705889403820037842e-02,-1.017316728830337524e-01,6.124613806605339050e-02,-8.388874679803848267e-02,-2.022243663668632507e-02,-7.330806553363800049e-02,-1.736600548028945923e-01,1.613232865929603577e-02,9.359531849622726440e-02,-1.322861313819885254e-01,6.574623286724090576e-02,-1.356759816408157349e-01,-7.644617557525634766e-02,-7.814175635576248169e-02,2.872303873300552368e-02,3.279824927449226379e-02,-9.510133415460586548e-02,1.668124198913574219e-01,9.623897075653076172e-02
-3.868048265576362610e-02,-1.383140236139297485e-01,5.896036326885223389e-02,4.284044355154037476e-02,-3.317838907241821289e-02,7.121832668781280518e-02,3.812385350465774536e-02,1.490510702133178711e-01,9.332938492298126221e-02,4.502419382333755493e-02,1.202016696333885193e-01,-9.875447303056716919e-02,-3.052601218223571777e-02,1.105043366551399231e-01,2.788194641470909119e-02,-5.728622153401374817e-02,-2.392534539103507996e-02,7.406967878341674805e-02,-9.695251286029815674e-02,-7.365864515304565430e-02,3.203700110316276550e-02,6.018316373229026794e-02,8.624526113271713257e-02,-5.270842090249061584e-02,1.297525763511657715e-01,3.432541340589523315e-02,1.974107772111892700e-01,8.297199755907058716e-02,1.067310497164726257e-01,-2.122992277145385742e-02,-1.046726629137992859e-01,-1.266951411962509155e-01
-3.627449646592140198e-02,-1.612492650747299194e-01,-6.840962171554565430e-02,-9.701817296445369720e-03,1.156588867306709290e-01,1.125422418117523193e-01,-4.331208392977714539e-02,1.367185115814208984e-01,-2.823857963085174561e-02,-4.777733236551284790e-02,4.633196815848350525e-02,-7.250573486089706421e-02,-8.035007119178771973e-02,-8.999320678412914276e-03,-3.336206451058387756e-02,-1.613132953643798828e-01,-6.240481045097112656e-03,-8.521053940057754517e-03,1.367158442735671997e-01,1.614834880456328392e-03,2.224958036094903946e-03,1.748735830187797546e-02,3.175927326083183289e-02,-6.181436032056808472e-02,4.427862912416458130e-02,-4.786105081439018250e-02,-3.432679176330566406e-02,1.079511567950248718e-01,-1.696309000253677368e-01,1.347589958459138870e-02,-2.887547202408313751e-02,1.438419613987207413e-02
-5.811040475964546204e-02,-1.355190426111221313e-01,-1.267432570457458496e-01,4.567905515432357788e-02,-8.099359273910522461e-02,-1.287342905998229980e-01,1.598370820283889771e-01,-8.098958432674407959e-02,-3.576475009322166443e-02,3.039504401385784149e-02,1.928095221519470215e-01,-9.071903675794601440e-02,7.982873916625976562e-02,1.615759134292602539e-01,1.520078778266906738e-01,-1.277372241020202637e-01,-1.511652171611785889e-01,8.333909511566162109e-02,-8.401454240083694458e-02,4.035111516714096069e-02,-4.671847075223922729e-02,1.965063065290451050e-01,6.101216189563274384e-03,-1.771809458732604980e-01,1.005091369152069092e-01,-3.364982549101114273e-03,3.135660663247108459e-02,2.122727632522583008e-01,-1.322497427463531494e-01,-7.512237131595611572e-02,-1.039399728178977966e-01,1.711286455392837524e-01
-1.223999913781881332e-02,-1.638403832912445068e-01,-2.329428307712078094e-02,1.359869390726089478e-01,4.692398011684417725e-02,-1.354207694530487061e-01,7.406988646835088730e-03,-4.883692413568496704e-02,1.923565007746219635e-02,1.351179480552673340e-01,-2.977485395967960358e-02,1.063989475369453430e-01,7.406152784824371338e-02,-1.797566264867782593e-01,-1.981095410883426666e-02,-1.115309223532676697e-01,-2.071251161396503448e-02,-3.685976192355155945e-02,-3.926667198538780212e-02,4.314323887228965759e-02,3.397652879357337952e-02,1.551050096750259399e-01,-3.962454199790954590e-02,4.148279502987861633e-02,-1.868467405438423157e-02,-3.899948438629508018e-03,-4.721685126423835754e-02,-6.052571535110473633e-02,3.434199467301368713e-02,-9.853811562061309814e-02,8.847045898437500000e-02,2.157098799943923950e-02
7.821091264486312866e-02,3.666636347770690918e-02,8.243060857057571411e-02,2.092526294291019440e-02,-1.152141541242599487e-01,-3.035211935639381409e-02,-6.420540064573287964e-02,-2.513289265334606171e-02,6.373734679073095322e-03,-1.143981516361236572e-01,6.731255352497100830e-02,-6.973203271627426147e-02,9.318165481090545654e-02,-1.361598074436187744e-01,-1.033534482121467590e-01,2.185497805476188660e-02,1.861688867211341858e-02,-1.210078038275241852e-02,-1.556518394500017166e-02,8.304298855364322662e-03,3.303151205182075500e-02,-8.645127713680267334e-02,8.949523419141769409e-02,-7.097119837999343872e-02,-2.592941187322139740e-02,8.610049262642860413e-03,-4.316229745745658875e-02,-5.277673527598381042e-02,-6.537279486656188965e-02,-1.026255860924720764e-01,6.516025215387344360e-02,-1.380150020122528076e-01
1.639610677957534790e-01,7.183354347944259644e-02,3.163542598485946655e-02,-8.768396079540252686e-02,-3.259500861167907715e-02,-2.862634137272834778e-02,9.073724970221519470e-03,-1.341276764869689941e-01,-9.124591015279293060e-03,-1.497799456119537354e-01,-1.471992209553718567e-02,9.858774393796920776e-02,9.525320678949356079e-02,1.609779596328735352e-01,1.228002738207578659e-02,2.363351173698902130e-02,1.365828067064285278e-01,-1.294684261083602905e-01,-8.219314366579055786e-02,-1.800816878676414490e-02,8.049353957176208496e-02,-4.522239044308662415e-02,-1.725814640522003174e-01,-1.365945637226104736e-01,4.590422660112380981e-02,-1.179919317364692688e-01,1.032300889492034912e-01,2.072049304842948914e-02,1.624678373336791992e-01,5.153340753167867661e-03,8.097388595342636108e-02,-1.714338511228561401e-01
4.880192875862121582e-02,-1.476194523274898529e-02,2.966040372848510742e-02,-3.247521072626113892e-02,-6.065582111477851868e-02,9.964406490325927734e-02,2.088513821363449097e-01,1.841867119073867798e-01,-7.253711670637130737e-02,7.328304648399353027e-02,-3.156739985570311546e-03,1.081292405724525452e-01,-1.598528027534484863e-02,9.827232360839843750e-02,-2.037274092435836792e-02,1.230962201952934265e-01,9.811152517795562744e-02,2.295359224081039429e-02,1.182095482945442200e-01,1.215500012040138245e-01,-9.154175966978073120e-02,-1.151051670312881470e-01,1.651656180620193481e-01,1.719767600297927856e-02,-1.357022225856781006e-01,4.862533882260322571e-02,2.191365808248519897e-01,1.164651848375797272e-02,8.023354411125183105e-02,1.196614503860473633e-01,2.688304148614406586e-02,1.611796915531158447e-01
-7.897470146417617798e-02,-4.878770560026168823e-02,-1.199548915028572083e-01,6.161167472600936890e-02,5.488005280494689941e-02,7.662308961153030396e-02,3.349660336971282959e-02,1.155510470271110535e-01,1.404384821653366089e-01,-1.727320253849029541e-01,3.426311537623405457e-02,-7.656061649322509766e-02,9.835692495107650757e-02,-8.793404698371887207e-02,7.118991017341613770e-02,1.098685339093208313e-01,3.548921272158622742e-02,6.107324734330177307e-02,1.884782612323760986e-01,1.068119406700134277e-01,-1.155599355697631836e-01,5.022324621677398682e-02,1.018323004245758057e-01,1.050725392997264862e-02,1.114654820412397385e-02,-1.288060247898101807e-01,-1.776110678911209106e-01,-1.372311729937791824e-02,4.758855327963829041e-02,8.407352864742279053e-02,4.020346328616142273e-02,3.888293867930769920e-03
7.727117091417312622e-02,-2.958773821592330933e-02,-1.364355534315109253e-01,-2.429893054068088531e-02,-4.258517175912857056e-02,-3.645604476332664490e-02,4.680205509066581726e-02,-8.583515882492065430e-03,-4.680778458714485168e-02,-1.369095593690872192e-01,4.029513522982597351e-02,1.624827682971954346e-01,4.732830077409744263e-02,5.846755206584930420e-02,5.574891716241836548e-02,9.375577419996261597e-02,-4.594694823026657104e-03,-7.873637601733207703e-03,8.636233210563659668e-02,-9.798997640609741211e-02,9.288014471530914307e-02,8.813872188329696655e-02,-5.627807229757308960e-02,-4.091319069266319275e-02,-6.177328526973724365e-02,-1.647833734750747681e-02,1.076312586665153503e-01,-1.051285266876220703e-01,-9.969418495893478394e-02,-1.040736883878707886e-01,-1.219210028648376465e-01,-3.180876001715660095e-02
-6.893421709537506104e-02,1.014823392033576965e-01,1.870585046708583832e-02,1.547897420823574066e-02,1.623875349760055542e-01,-2.509015984833240509e-02,-1.107925847172737122e-01,7.115793228149414062e-02,1.024802960455417633e-02,1.392318606376647949e-01,-8.799397945404052734e-02,-9.921675175428390503e-02,-5.148323252797126770e-02,-8.916258811950683594e-02,1.071921288967132568e-01,1.546178907155990601e-01,1.585503220558166504e-01,7.388915121555328369e-02,1.171356290578842163e-01,-7.211543619632720947e-02,-1.725873351097106934e-02,4.071508347988128662e-02,-1.988938450813293457e-02,-6.035839393734931946e-02,3.694003075361251831e-02,-1.298302412033081055e-01,7.443068549036979675e-03,-9.108504652976989746e-02,-7.256602868437767029e-03,1.325368583202362061e-01,-1.601006537675857544e-01,-1.125108152627944946e-01
9.676188975572586060e-02,-1.635791957378387451e-01,-3.026357479393482208e-02,-2.406577207148075104e-02,-1.333016008138656616e-01,2.311976253986358643e-02,-8.584115654230117798e-02,-6.260290741920471191e-02,2.588608562946319580e-01,9.760140627622604370e-02,4.772123321890830994e-02,1.125573664903640747e-01,9.442215412855148315e-02,-2.154518812894821167e-01,-2.375481650233268738e-02,2.138603106141090393e-02,1.024973019957542419e-01,1.859243363142013550e-01,7.863302528858184814e-02,-4.131282120943069458e-02,-3.719063103199005127e-02,-6.724037975072860718e-02,1.279017329216003418e-01,1.472587510943412781e-02,-1.694089472293853760e-01,-2.094916254281997681e-02,-7.749682664871215820e-02,-4.844877868890762329e-02,1.579905897378921509e-01,1.223998665809631348e-01,-2.726235799491405487e-02,1.550337821245193481e-01
-8.994466811418533325e-02,1.362991034984588623e-01,9.653778374195098877e-02,-1.529681980609893799e-01,3.374424949288368225e-02,2.510951161384582520e-01,-4.319006204605102539e-02,-7.673336565494537354e-02,1.565157622098922729e-01,-4.634989798069000244e-02,-1.132449060678482056e-01,-1.435828059911727905e-01,-6.505524367094039917e-02,-3.206870704889297485e-02,-1.281527131795883179e-01,-7.446228712797164917e-02,1.468065977096557617e-01,1.353306025266647339e-01,-7.912015169858932495e-02,1.250669360160827637e-01,-9.377729147672653198e-02,1.343223005533218384e-01,5.811467766761779785e-02,-4.519873298704624176e-03,2.176773846149444580e-01,1.408422458916902542e-02,1.176337972283363342e-01,1.259014010429382324e-01,9.146587108261883259e-04,1.024619713425636292e-01,5.685476586222648621e-02,1.343277096748352051e-01
7.531380653381347656e-02,6.275545060634613037e-02,-3.856312111020088196e-02,2.658137865364551544e-02,-6.748730689287185669e-02,8.008676767349243164e-02,8.370507508516311646e-02,7.755643129348754883e-02,9.301821887493133545e-02,1.562522351741790771e-02,-4.833596944808959961e-02,-5.717293918132781982e-02,-1.863501220941543579e-01,-9.738000482320785522e-02,-4.838110134005546570e-02,-5.266813933849334717e-02,4.816311970353126526e-02,-1.229538174811750650e-04,-5.784246325492858887e-02,-9.862456470727920532e-02,6.520894169807434082e-02,-9.353308379650115967e-02,1.452386099845170975e-02,-8.964212238788604736e-02,8.660883456468582153e-02,5.901990458369255066e-02,1.183270514011383057e-01,7.756979670375585556e-03,-1.106320023536682129e-01,1.344617903232574463e-01,8.274228870868682861e-02,2.192974835634231567e-01
1.387803703546524048e-01,-6.308666896075010300e-03,-7.830908149480819702e-02,3.579869121313095093e-02,-2.733435481786727905e-02,2.821887843310832977e-02,-6.948047876358032227e-02,2.390255220234394073e-02,5.627046898007392883e-02,-3.179556876420974731e-02,-9.229201078414916992e-02,1.698455810546875000e-01,-3.948714584112167358e-02,2.955552190542221069e-02,6.392742693424224854e-02,1.322069168090820312e-01,-9.968096390366554260e-03,2.671608235687017441e-03,-4.145871475338935852e-02,3.969900682568550110e-02,-2.696146629750728607e-02,-3.277057781815528870e-02,1.254113763570785522e-01,-7.277391105890274048e-02,-1.040477976202964783e-01,6.278339028358459473e-02,1.155164241790771484e-01,-6.209020502865314484e-03,1.399128288030624390e-01,-2.835794165730476379e-02,-6.602553278207778931e-02,-8.192794024944305420e-02
-1.333591807633638382e-02,2.617129385471343994e-01,3.446666523814201355e-02,-1.411344110965728760e-01,1.118353679776191711e-01,-1.085348650813102722e-01,-1.839525103569030762e-01,1.047212928533554077e-01,-2.327345684170722961e-02,-8.209781371988356113e-04,-1.678101271390914917e-01,2.216607928276062012e-01,-2.303667180240154266e-02,1.108634620904922485e-01,-5.625140666961669922e-02,7.909284532070159912e-02,-2.189034968614578247e-02,-8.534929901361465454e-02,-6.555860489606857300e-02,2.262493409216403961e-02,-7.354925572872161865e-02,-5.742374062538146973e-02,-8.792035281658172607e-02,-2.950038388371467590e-02,-1.017633602023124695e-01,-1.278015822172164917e-01,1.169934570789337158e-01,9.935539215803146362e-02,9.936901926994323730e-02,-2.038059197366237640e-02,3.297698125243186951e-02,2.386078611016273499e-02
7.794749736785888672e-02,-1.341900378465652466e-01,1.617682874202728271e-01,7.231996953487396240e-02,-1.406833976507186890e-01,1.471021026372909546e-01,1.087184175848960876e-01,8.990494161844253540e-02,-7.181343436241149902e-02,-6.007802486419677734e-02,-1.902560330927371979e-02,-1.279782652854919434e-01,7.213700562715530396e-02,-7.793498039245605469e-02,4.654949903488159180e-02,-5.016438663005828857e-03,-5.998286977410316467e-02,3.489300608634948730e-03,-5.520166084170341492e-02,7.339335232973098755e-02,-6.726109888404607773e-03,3.454793989658355713e-02,6.403341144323348999e-02,-8.680129051208496094e-02,1.607961952686309814e-01,4.072737414389848709e-03,8.593095093965530396e-02,5.602494627237319946e-02,-9.139220416545867920e-02,-1.410535443574190140e-02,-1.263891458511352539e-01,6.492187827825546265e-02
1.438155919313430786e-01,4.182560741901397705e-02,-7.457341253757476807e-02,-1.034244298934936523e-01,1.895176768302917480e-01,-7.764264196157455444e-02,-2.740568295121192932e-02,5.542385578155517578e-02,1.359424293041229248e-01,-8.318872749805450439e-02,-1.215870492160320282e-02,1.396228820085525513e-01,7.361539453268051147e-02,3.636725246906280518e-02,-4.655941203236579895e-02,2.331938594579696655e-02,-1.439216881990432739e-01,3.223615512251853943e-02,9.067001193761825562e-02,-1.706585288047790527e-02,5.253588035702705383e-02,1.501218974590301514e-01,-5.169121921062469482e-02,-9.296739590354263783e-04,-2.074206434190273285e-02,9.744720906019210815e-02,-5.968157574534416199e-02,-1.464241147041320801e-01,-2.469152770936489105e-02,-3.257074858993291855e-03,3.379863873124122620e-02,5.317912623286247253e-02
2.166882604360580444e-01,-1.693741232156753540e-01,-5.655845254659652710e-02,-2.408694103360176086e-02,-1.173176094889640808e-01,1.091761142015457153e-01,3.286140561103820801e-01,4.542627837508916855e-03,6.252164393663406372e-02,-2.686261385679244995e-02,1.331363916397094727e-01,-6.077771540731191635e-03,-5.362889170646667480e-02,1.061840876936912537e-01,1.315631568431854248e-01,-6.762564927339553833e-02,1.045700237154960632e-01,-6.070591136813163757e-02,-9.355674684047698975e-02,7.804422825574874878e-02,5.297365039587020874e-02,-6.713157147169113159e-02,1.601326912641525269e-01,-9.532662108540534973e-03,9.361395239830017090e-02,-1.763580292463302612e-01,2.110572010278701782e-01,-2.029244601726531982e-01,-4.134755209088325500e-02,-1.087578609585762024e-01,-9.026535600423812866e-02,2.195692062377929688e-01
-4.299573227763175964e-02,-1.113450080156326294e-01,-4.491394385695457458e-03,-1.840995624661445618e-02,-9.046527743339538574e-02,-4.124991595745086670e-02,-6.974795460700988770e-02,5.385259538888931274e-02,1.173378601670265198e-01,1.762256622314453125e-01,-7.368784397840499878e-02,2.804124495014548302e-03,-8.386480621993541718e-03,-1.743104606866836548e-01,-3.993445262312889099e-02,1.972415111958980560e-02,-4.729217290878295898e-02,6.207526661455631256e-03,-3.925832454115152359e-03,5.905050411820411682e-02,-7.981396466493606567e-02,-1.238261163234710693e-02,1.016745045781135559e-01,-3.223110735416412354e-02,3.725057095289230347e-02,-1.781620681285858154e-01,5.946738645434379578e-03,-1.220605373382568359e-01,-8.153866976499557495e-03,-5.060350894927978516e-02,1.012844070792198181e-01,9.417311102151870728e-02
-4.364475980401039124e-02,-4.806505888700485229e-02,-7.151136547327041626e-02,7.614021003246307373e-02,1.435679495334625244e-01,8.923067897558212280e-02,-4.719353280961513519e-03,-1.003830432891845703e-01,-1.506626978516578674e-02,9.738728404045104980e-02,-2.841413486748933792e-03,8.267070353031158447e-02,-1.142561584711074829e-01,-1.803955994546413422e-02,8.848195429891347885e-04,-8.588223904371261597e-02,-2.607056684792041779e-02,-1.340834796428680420e-01,8.819688856601715088e-02,-2.997201122343540192e-02,-1.764505729079246521e-02,1.182991713285446167e-01,6.494614481925964355e-02,-6.235643103718757629e-02,2.096499502658843994e-02,1.652247607707977295e-01,-9.412215650081634521e-02,-4.000163450837135315e-02,-5.964170023798942566e-02,-3.968955017626285553e-03,6.209548562765121460e-02,5.943147838115692139e-02
1.924880594015121460e-01,-6.906717270612716675e-02,-8.023370802402496338e-02,-1.014308407902717590e-01,5.971501395106315613e-02,-1.351240724325180054e-01,-1.181796267628669739e-01,1.263062376528978348e-02,2.267051786184310913e-01,1.397608872503042221e-02,-3.330323472619056702e-02,1.012490764260292053e-01,1.159505769610404968e-01,-6.141300499439239502e-02,-6.846814649179577827e-04,-1.147644892334938049e-01,-2.552511170506477356e-02,7.760471850633621216e-02,-4.701646976172924042e-03,-6.078659743070602417e-02,3.707070369273424149e-03,-1.122139394283294678e-01,-2.186032235622406006e-01,6.169588863849639893e-02,6.832711398601531982e-02,-2.365081198513507843e-02,-6.584796309471130371e-02,-5.547058954834938049e-02,1.752078980207443237e-01,4.742495715618133545e-02,-3.171512484550476074e-02,6.521597504615783691e-02
5.946061760187149048e-02,-1.187748834490776062e-01,-1.826215721666812897e-02,-8.090223371982574463e-02,-1.358209103345870972e-01,-1.101513803005218506e-01,2.116202749311923981e-02,1.156827062368392944e-01,-4.106197133660316467e-02,6.046383082866668701e-02,2.421668916940689087e-02,-6.366563588380813599e-02,-1.439575664699077606e-02,2.624754235148429871e-02,-9.777844697237014771e-02,-9.395374357700347900e-02,1.090193167328834534e-02,-5.562553182244300842e-02,-6.132215727120637894e-03,-3.612801060080528259e-02,5.481000989675521851e-02,-2.420323435217142105e-03,1.019499748945236206e-01,2.971698530018329620e-02,5.707517638802528381e-02,3.053001873195171356e-02,1.540119946002960205e-01,-2.729180641472339630e-02,1.579320579767227173e-01,5.182163789868354797e-02,-4.945575073361396790e-02,1.149316970258951187e-02
7.630939781665802002e-02,1.034414470195770264e-01,1.127360090613365173e-01,5.135202780365943909e-02,1.582399606704711914e-01,3.187723457813262939e-02,5.709432438015937805e-02,2.480920962989330292e-02,1.258969753980636597e-01,8.490931242704391479e-02,1.341037750244140625e-01,-7.166961580514907837e-02,-6.264565140008926392e-02,-6.662143021821975708e-02,7.128718495368957520e-02,-2.545095048844814301e-02,5.741830542683601379e-02,-3.726147860288619995e-02,1.063391044735908508e-01,-1.119737420231103897e-02,-2.603322826325893402e-02,-1.039466587826609612e-03,-1.096967458724975586e-01,5.944750085473060608e-02,1.188118159770965576e-01,1.963063701987266541e-02,7.841486483812332153e-02,-1.558333933353424072e-01,-6.159993633627891541e-02,-4.844042286276817322e-02,7.465462666004896164e-03,6.341322511434555054e-02
-4.184906557202339172e-02,8.963153511285781860e-02,6.992997368797659874e-04,2.956475317478179932e-02,-8.748924732208251953e-02,1.057478114962577820e-01,-1.551410257816314697e-01,-3.453231602907180786e-02,1.433108896017074585e-01,3.902833443135023117e-03,1.045865491032600403e-01,-1.065644696354866028e-01,9.476072154939174652e-03,4.360568895936012268e-02,2.010525949299335480e-02,4.723766818642616272e-02,-7.959871739149093628e-02,1.804545074701309204e-01,-3.367901965975761414e-02,-2.574054896831512451e-02,-3.119387477636337280e-02,1.762771457433700562e-01,-2.100058346986770630e-01,-9.346488863229751587e-02,-9.598404169082641602e-02,-5.580328032374382019e-02,5.069595202803611755e-02,3.186101838946342468e-02,9.880983084440231323e-02,8.936117589473724365e-02,-1.963507384061813354e-02,-1.453649019822478294e-03
1.978206038475036621e-01,1.535215377807617188e-01,4.193928465247154236e-02,-1.529519408941268921e-01,8.265838027000427246e-03,1.609723716974258423e-01,1.973807066679000854e-01,-1.122871711850166321e-01,-3.222338482737541199e-02,-3.338410332798957825e-02,6.919854134321212769e-02,-1.778542846441268921e-01,-1.439074613153934479e-02,-1.459042280912399292e-01,-5.875830724835395813e-02,1.300253868103027344e-01,-8.359996229410171509e-02,9.363943338394165039e-02,3.688688948750495911e-02,-3.856831043958663940e-02,-1.374120358377695084e-02,-4.746923968195915222e-02,-8.786548674106597900e-02,-8.266708254814147949e-02,-1.072036176919937134e-01,-3.481164947152137756e-02,1.692335754632949829e-01,3.792177140712738037e-02,-1.289302017539739609e-02,-2.028641104698181152e-01,5.103167518973350525e-02,8.015031367540359497e-02
-1.935911774635314941e-01,2.692534215748310089e-02,-5.452157557010650635e-02,-3.331274539232254028e-02,3.640482202172279358e-02,1.948934644460678101e-01,-2.775226160883903503e-02,9.659091383218765259e-02,-8.568618446588516235e-02,-7.651755213737487793e-02,8.101335167884826660e-02,-1.758724302053451538e-01,-1.425652205944061279e-01,-2.138846740126609802e-02,-1.143957376480102539e-01,5.234617739915847778e-02,2.722793444991111755e-02,1.697613447904586792e-01,3.917754068970680237e-02,6.791146006435155869e-03,-5.850661918520927429e-02,-2.205768413841724396e-02,1.428440213203430176e-01,1.463411599397659302e-01,2.345922887325286865e-01,-5.223803594708442688e-02,-1.345653925091028214e-02,7.149966061115264893e-02,-1.211019605398178101e-01,4.322703555226325989e-02,-1.216553896665573120e-01,5.756393540650606155e-03
9.813435375690460205e-02,6.930627673864364624e-02,3.331589698791503906e-02,-3.164121881127357483e-02,8.889447897672653198e-02,3.338728845119476318e-02,1.244189515709877014e-01,-7.480123639106750488e-02,-1.666671186685562134e-01,-2.564884535968303680e-02,-2.474050223827362061e-02,-8.675690623931586742e-04,4.463523626327514648e-02,-6.693427264690399170e-02,-3.060636809095740318e-03,3.938541188836097717e-02,1.259014606475830078e-01,-7.349205762147903442e-02,6.772369146347045898e-02,1.279708743095397949e-01,1.563227921724319458e-01,8.005763590335845947e-02,-1.558472514152526855e-01,1.279653012752532959e-01,-1.475107669830322266e-02,-6.852136459201574326e-03,-8.418689668178558350e-02,5.657868459820747375e-02,-1.047529578208923340e-01,-9.077710658311843872e-02,1.418190598487854004e-01,6.325096637010574341e-02
1.775587499141693115e-01,2.047298699617385864e-01,-7.118555903434753418e-02,5.780033301562070847e-03,-9.212874621152877808e-02,-1.033403351902961731e-01,7.199143059551715851e-03,6.724123843014240265e-03,-1.120645320042967796e-03,1.044516786932945251e-01,-2.200589748099446297e-03,-3.413781151175498962e-02,-6.013630703091621399e-02,4.682208225131034851e-02,6.951553374528884888e-02,1.663258820772171021e-01,9.573245048522949219e-02,1.174787133932113647e-01,3.742029517889022827e-02,5.305332317948341370e-02,-9.326607733964920044e-02,4.862872511148452759e-02,-1.536979824304580688e-01,5.227920413017272949e-02,-2.793497592210769653e-02,6.095238029956817627e-02,1.982862949371337891e-01,3.235358372330665588e-02,-5.031476914882659912e-02,1.234312132000923157e-01,-1.690147072076797485e-01,-1.055938079953193665e-01
-1.068371608853340149e-01,-4.281321913003921509e-02,-8.718875050544738770e-02,6.909242272377014160e-02,-3.908843547105789185e-02,7.842546701431274414e-02,1.598162502050399780e-01,-5.210107937455177307e-02,-1.778019778430461884e-02,1.309941262006759644e-01,1.270348429679870605e-01,-5.712337791919708252e-03,1.461808532476425171e-01,-2.430637925863265991e-02,-1.185127124190330505e-01,7.976911962032318115e-02,8.672504127025604248e-02,5.253669619560241699e-02,1.044486835598945618e-01,1.191684678196907043e-01,-1.635699272155761719e-01,1.150556206703186035e-01,1.445938348770141602e-01,6.725356448441743851e-03,6.970724463462829590e-02,-2.000575140118598938e-02,-3.105651400983333588e-02,1.166893541812896729e-01,-1.218753233551979065e-01,1.777248084545135498e-01,-1.702115982770919800e-01,9.376147389411926270e-02
1.373620145022869110e-02,1.055639833211898804e-01,3.985228762030601501e-02,-2.065839618444442749e-02,1.396117508411407471e-01,1.286481171846389771e-01,1.568276584148406982e-01,-7.720799744129180908e-02,-1.657243520021438599e-01,4.958245530724525452e-02,1.449180096387863159e-01,6.647674739360809326e-02,4.340619593858718872e-02,5.101639777421951294e-02,1.363462209701538086e-01,-6.504294276237487793e-02,5.035130679607391357e-02,3.705760836601257324e-02,9.784132242202758789e-03,-1.637555211782455444e-01,1.688264310359954834e-02,-1.316253468394279480e-02,-7.745869457721710205e-03,1.046119481325149536e-01,-9.557475894689559937e-02,-1.489772051572799683e-01,-1.527356803417205811e-01,-1.735026761889457703e-02,7.697460055351257324e-02,3.727412596344947815e-02,4.317483864724636078e-03,-1.947912760078907013e-02
-5.056194216012954712e-02,1.382949668914079666e-02,1.192394569516181946e-01,-2.015074156224727631e-02,4.249623417854309082e-02,-1.034745499491691589e-01,1.404702216386795044e-01,-1.024420484900474548e-01,7.570341974496841431e-02,5.119727924466133118e-02,-7.611753046512603760e-02,1.972779780626296997e-01,4.083391651511192322e-02,1.365086883306503296e-01,-1.206317991018295288e-01,-6.606604903936386108e-02,7.523489743471145630e-02,7.185972481966018677e-02,-9.303183108568191528e-02,1.489065885543823242e-01,-8.747872896492481232e-03,-7.785643637180328369e-02,1.454634219408035278e-01,-4.455078393220901489e-02,1.819299012422561646e-01,4.900190606713294983e-02,7.836212217807769775e-02,-8.069983869791030884e-02,-3.606750816106796265e-02,1.564039289951324463e-01,1.316056549549102783e-01,9.034983068704605103e-02
6.246996298432350159e-02,6.326665729284286499e-02,5.042245984077453613e-02,-1.795196905732154846e-03,5.890018492937088013e-02,-1.182416826486587524e-01,-1.576108336448669434e-01,1.333671659231185913e-01,-8.053577691316604614e-02,-9.909117221832275391e-02,1.118937507271766663e-01,1.251665055751800537e-01,-4.473619535565376282e-02,-1.892005801200866699e-01,-7.095561921596527100e-02,4.299798235297203064e-02,-3.844919055700302124e-02,-1.186570748686790466e-01,2.654096782207489014e-01,3.286963328719139099e-02,1.143298298120498657e-01,-8.521673269569873810e-03,-2.486780434846878052e-01,-4.811753332614898682e-02,-7.493171840906143188e-02,1.469819396734237671e-01,3.910229727625846863e-02,5.651955679059028625e-02,7.084918022155761719e-02,-2.682029306888580322e-01,-2.034451067447662354e-02,9.518642723560333252e-02
1.722002476453781128e-01,-2.050760947167873383e-02,-1.864679530262947083e-02,-3.490578383207321167e-02,6.024407222867012024e-02,-1.043528541922569275e-01,5.128721892833709717e-02,-6.943004578351974487e-02,-6.257605552673339844e-02,-2.094538696110248566e-02,-5.931122601032257080e-02,1.125378608703613281e-01,-1.621067672967910767e-01,5.835182592272758484e-02,4.066817089915275574e-02,3.468075022101402283e-02,5.815491825342178345e-02,-1.193275302648544312e-01,-1.644887924194335938e-01,-2.884181775152683258e-02,-3.074569813907146454e-02,-4.451645165681838989e-02,1.248839870095252991e-01,8.332467824220657349e-02,9.969385340809822083e-03,2.006998471915721893e-02,-2.192402025684714317e-03,-9.330736100673675537e-02,-8.691538125276565552e-02,1.432862728834152222e-01,7.317212224006652832e-02,5.985806509852409363e-02
-1.325215250253677368e-01,-5.937047675251960754e-02,-2.266705781221389771e-02,-9.046199917793273926e-02,-5.709180235862731934e-02,-1.746589094400405884e-01,3.309620544314384460e-02,1.757618486881256104e-01,1.510681211948394775e-01,-9.445731341838836670e-02,6.713301688432693481e-02,8.725263178348541260e-02,9.130132943391799927e-02,-1.765819825232028961e-02,-6.847348064184188843e-02,1.506772916764020920e-02,1.650317013263702393e-01,8.362136781215667725e-02,1.733988821506500244e-01,-7.638317346572875977e-02,4.718486964702606201e-02,9.818087331950664520e-03,-5.590550601482391357e-02,4.914206638932228088e-02,-5.599900614470243454e-04,-5.816285964101552963e-03,-9.108348935842514038e-02,1.315937489271163940e-01,1.859766393899917603e-01,-1.489961426705121994e-02,3.326522558927536011e-02,-7.513667456805706024e-03
-1.242208108305931091e-01,-5.272095277905464172e-02,9.842834621667861938e-02,1.522853784263134003e-02,2.052718214690685272e-02,-2.249522507190704346e-01,1.710621267557144165e-02,1.067151129245758057e-01,1.864905208349227905e-01,-1.471932232379913330e-01,5.119527131319046021e-02,1.734643429517745972e-01,8.513165265321731567e-02,5.723870918154716492e-02,2.155239135026931763e-02,-8.721140772104263306e-02,-1.217280849814414978e-01,1.589298993349075317e-02,-3.176736831665039062e-02,-2.703692764043807983e-02,-3.199730813503265381e-02,4.033078625798225403e-02,-2.091988027095794678e-01,5.881900712847709656e-02,2.200990021228790283e-01,9.585730731487274170e-02,1.908760890364646912e-02,9.641926735639572144e-02,9.900047443807125092e-03,1.482232064008712769e-01,2.150361426174640656e-02,-8.800714276731014252e-03
6.406041234731674194e-02,2.604562044143676758e-01,4.113978892564773560e-02,-1.233709827065467834e-01,-9.593217074871063232e-02,5.664262548089027405e-02,-8.738742023706436157e-02,-1.199897229671478271e-01,-8.468671143054962158e-02,-1.425779461860656738e-01,-4.491845902521163225e-05,4.892338067293167114e-02,4.807981848716735840e-02,2.101034224033355713e-01,4.990572109818458557e-02,-7.579091191291809082e-02,1.774205267429351807e-01,2.339473515748977661e-01,5.362060666084289551e-02,1.227866262197494507e-01,1.015864219516515732e-02,2.798142470419406891e-02,2.756444923579692841e-02,-1.874018833041191101e-02,1.187535449862480164e-01,1.035404391586780548e-02,-9.126631170511245728e-02,7.120663672685623169e-02,1.245366334915161133e-01,4.413842037320137024e-02,-1.084884926676750183e-01,-5.072794854640960693e-02
-1.239691600203514099e-01,4.268172755837440491e-02,-9.601347148418426514e-02,3.633799403905868530e-02,1.752182096242904663e-01,4.565079137682914734e-02,1.742805168032646179e-02,6.500557065010070801e-02,9.115962684154510498e-02,-2.250590734183788300e-02,-4.937811195850372314e-02,2.281926758587360382e-02,7.468626368790864944e-03,1.754553169012069702e-01,-6.629989296197891235e-02,-1.531179249286651611e-01,-6.833404302597045898e-02,1.270889192819595337e-01,-3.751790896058082581e-02,9.681269526481628418e-02,-4.315665736794471741e-02,-9.970811754465103149e-02,3.374702483415603638e-02,1.101180631667375565e-02,4.440235905349254608e-03,-1.328273564577102661e-01,-3.342992439866065979e-02,-1.777044832706451416e-01,-9.170705825090408325e-02,4.652740061283111572e-02,3.706745058298110962e-02,-6.878770142793655396e-02
2.533247172832489014e-01,1.294844448566436768e-01,3.079457953572273254e-02,-7.564641535282135010e-02,1.381716281175613403e-01,2.201678454875946045e-01,9.313467144966125488e-02,-2.664956822991371155e-02,4.034797102212905884e-02,-1.073071956634521484e-01,-3.704309836030006409e-02,1.724116206169128418e-01,8.001174777746200562e-02,4.005847126245498657e-02,1.085781902074813843e-01,-6.015756633132696152e-03,-1.520776003599166870e-02,8.952834457159042358e-02,-5.740839615464210510e-02,5.829608812928199768e-02,-2.704348228871822357e-02,-2.655269019305706024e-02,-1.615349799394607544e-01,1.835570670664310455e-02,-1.490359604358673096e-01,-9.574957937002182007e-02,9.176153689622879028e-02,-1.278002709150314331e-01,8.713728189468383789e-02,-6.305290758609771729e-02,4.429284855723381042e-02,-4.614636674523353577e-02
-4.878062009811401367e-02,-1.633120477199554443e-01,-1.428912300616502762e-02,2.968544885516166687e-02,7.269281148910522461e-02,-9.742706082761287689e-03,-6.170318927615880966e-03,-1.758742630481719971e-01,5.884227901697158813e-02,3.351064771413803101e-02,1.295994371175765991e-01,3.178575262427330017e-02,9.390496462583541870e-02,7.476034760475158691e-02,-1.398224965669214725e-03,-4.276331514120101929e-03,-8.166611194610595703e-02,-8.236455917358398438e-02,-8.416941016912460327e-02,6.928389519453048706e-02,1.623933576047420502e-02,5.928694456815719604e-02,-1.547745801508426666e-02,2.009642543271183968e-03,6.819672137498855591e-02,1.930547058582305908e-01,-1.712105423212051392e-01,-1.519632190465927124e-01,1.315189599990844727e-01,-1.524550169706344604e-01,-2.840770222246646881e-02,8.301208168268203735e-02
-8.246354758739471436e-02,-7.585112750530242920e-02,3.657138347625732422e-02,7.437216490507125854e-02,-2.827133983373641968e-02,-1.224945578724145889e-02,1.084766909480094910e-01,-1.044146865606307983e-01,5.760925263166427612e-02,-6.532233953475952148e-02,-8.052613586187362671e-02,1.529153734445571899e-01,2.137487195432186127e-02,-4.255118966102600098e-02,-5.191601067781448364e-02,7.373362779617309570e-02,2.803655155003070831e-02,-2.375441789627075195e-02,-3.832455724477767944e-02,5.927999503910541534e-03,1.481545865535736084e-01,-4.170382395386695862e-03,4.967101383954286575e-03,1.694313809275627136e-02,-2.312757819890975952e-02,3.391736373305320740e-02,-1.412105187773704529e-02,7.340902835130691528e-02,-4.276966676115989685e-02,1.506223380565643311e-01,3.338992223143577576e-02,-1.915980130434036255e-02
1.384625025093555450e-02,4.457237571477890015e-02,3.010536730289459229e-02,1.176937147974967957e-01,1.020174175500869751e-01,1.369943190366029739e-02,-4.554666951298713684e-02,-9.333387762308120728e-02,-9.043698757886886597e-02,1.253304332494735718e-01,-4.898836091160774231e-02,3.276721981819719076e-04,-8.843761682510375977e-02,1.740553677082061768e-01,6.301028281450271606e-02,-3.404799103736877441e-02,7.213776558637619019e-02,1.816643625497817993e-01,-2.001601457595825195e-01,-1.729555614292621613e-02,-9.946689009666442871e-02,-1.461182348430156708e-02,-8.801734447479248047e-02,-3.482659906148910522e-02,1.602004915475845337e-01,-1.730859577655792236e-01,5.837531387805938721e-02,1.536132693290710449e-01,-1.993070170283317566e-02,1.289351005107164383e-02,1.684786379337310791e-01,-3.258130326867103577e-02
3.013293724507093430e-03,1.468271464109420776e-01,-1.460955291986465454e-01,-1.199464201927185059e-01,4.171090200543403625e-02,4.618837684392929077e-02,-1.143171265721321106e-01,8.959916234016418457e-02,9.290402382612228394e-02,-1.427845954895019531e-01,1.697907596826553345e-02,-8.454896509647369385e-02,1.549880951642990112e-01,-2.918304875493049622e-02,1.100200489163398743e-01,2.977396920323371887e-02,-1.214620620012283325e-01,3.112766891717910767e-02,7.659229636192321777e-02,1.287444978952407837e-01,-1.566176861524581909e-01,6.924063712358474731e-02,8.734721690416336060e-03,-1.720921695232391357e-02,1.207372099161148071e-01,1.701647937297821045e-01,-3.194332867860794067e-02,3.736970573663711548e-02,3.402554616332054138e-02,-4.700031876564025879e-02,9.525750763714313507e-03,-8.092467486858367920e-02
-1.057142540812492371e-01,2.087757587432861328e-01,-3.025256656110286713e-02,-2.628370374441146851e-02,-2.515704371035099030e-02,2.212204486131668091e-01,1.162395775318145752e-01,9.241826832294464111e-02,2.092186547815799713e-02,1.193477138876914978e-01,-1.995591819286346436e-02,-1.278681457042694092e-01,-1.725114136934280396e-01,-9.204523265361785889e-02,7.483370602130889893e-02,3.564549982547760010e-02,7.321042567491531372e-02,-2.164077758789062500e-02,2.105230242013931274e-01,1.039851754903793335e-01,5.948518589138984680e-02,2.179962247610092163e-01,1.703715175390243530e-01,-7.987190783023834229e-02,2.093910612165927887e-02,-3.591483831405639648e-02,1.153694838285446167e-01,-1.141123194247484207e-02,-2.078632563352584839e-01,1.106639131903648376e-01,8.504446595907211304e-02,1.198489591479301453e-01
1.023290827870368958e-01,-1.093306392431259155e-01,-1.257102750241756439e-02,-1.052186563611030579e-01,8.614836260676383972e-03,-1.436163147445768118e-04,-2.583752200007438660e-02,7.303582131862640381e-02,-3.758977726101875305e-02,-8.101126551628112793e-02,-3.796860948204994202e-02,-4.410478472709655762e-02,1.225638911128044128e-01,-1.036151275038719177e-01,-1.965324766933917999e-02,-1.021759957075119019e-01,-5.203457176685333252e-02,-1.102373301982879639e-01,-3.739835694432258606e-02,-1.240838095545768738e-01,6.713984906673431396e-02,-8.244673162698745728e-02,-5.123595893383026123e-02,1.121453121304512024e-01,-1.142502501606941223e-01,-5.214242637157440186e-02,-1.087519600987434387e-01,-1.091290935873985291e-01,5.936896428465843201e-02,4.908095672726631165e-02,-9.996172785758972168e-02,1.911588944494724274e-02
-1.434923559427261353e-01,-1.449810415506362915e-01,5.637662857770919800e-02,6.995853036642074585e-02,-6.688315421342849731e-02,-9.069301187992095947e-02,-1.108111962676048279e-01,1.310043483972549438e-01,1.775278337299823761e-02,-2.293281070888042450e-02,-6.181808561086654663e-02,1.017127931118011475e-01,-7.369600236415863037e-02,2.805153653025627136e-02,2.955468744039535522e-02,-3.346462547779083252e-02,-1.535505172796547413e-03,-5.593865737318992615e-02,3.584328293800354004e-02,9.110846370458602905e-02,5.116317886859178543e-03,8.546028286218643188e-02,-4.555716738104820251e-02,1.213213056325912476e-01,-1.689969599246978760e-01,5.640543252229690552e-02,3.345012292265892029e-02,-1.050712838768959045e-01,-5.295729264616966248e-02,-4.393235780298709869e-03,-5.023357272148132324e-02,-6.616672128438949585e-02
4.320446774363517761e-02,-2.224423550069332123e-02,5.143685266375541687e-02,-1.073820218443870544e-01,4.460994526743888855e-02,-1.220064889639616013e-02,7.969231158494949341e-02,8.792155236005783081e-02,9.839575737714767456e-02,-7.620558142662048340e-02,-8.023209124803543091e-02,6.329531967639923096e-02,7.189690321683883667e-02,7.408820092678070068e-03,3.189039975404739380e-02,2.031663991510868073e-02,8.086784183979034424e-02,2.688462100923061371e-02,5.392966326326131821e-03,-3.012399375438690186e-02,4.458123445510864258e-02,1.097848564386367798e-01,-7.277383655309677124e-02,7.558616995811462402e-02,6.563658826053142548e-03,-3.982408344745635986e-02,1.624988042749464512e-03,8.384440839290618896e-02,1.573335751891136169e-02,-9.734699875116348267e-02,4.278047382831573486e-02,-4.091093689203262329e-02
-8.462227880954742432e-02,4.749292135238647461e-02,-2.183054387569427490e-02,-1.694489642977714539e-02,-1.415835171937942505e-01,2.282826416194438934e-02,8.751316368579864502e-02,2.101003974676132202e-01,1.326483339071273804e-01,-1.599346250295639038e-01,1.742865890264511108e-01,2.980325743556022644e-02,-1.523852930404245853e-03,-1.743359416723251343e-01,3.652871027588844299e-02,3.320217877626419067e-02,5.938580259680747986e-02,5.224760249257087708e-02,8.567093312740325928e-02,8.775993436574935913e-02,7.984526455402374268e-02,9.843140095472335815e-02,-2.252747863531112671e-02,2.387539483606815338e-02,6.289268285036087036e-02,-2.324588783085346222e-02,-5.936466157436370850e-02,1.556219160556793213e-01,1.498870551586151123e-04,-3.812281414866447449e-02,-1.696888543665409088e-02,2.426752075552940369e-02
9.679318964481353760e-02,-2.629757858812808990e-02,-1.434109210968017578e-01,-1.312700510025024414e-01,2.816251479089260101e-02,8.671022206544876099e-02,1.240333020687103271e-01,1.441499143838882446e-01,-2.984585054218769073e-02,-8.349339477717876434e-03,7.074609398841857910e-02,1.394665986299514771e-01,1.192534193396568298e-01,-3.285423666238784790e-02,-9.782998263835906982e-02,-1.533511728048324585e-01,-7.350905239582061768e-02,-2.388441115617752075e-01,2.991608381271362305e-01,-1.791777089238166809e-02,-1.497292816638946533e-01,1.150594875216484070e-01,2.317565530538558960e-01,-7.338515669107437134e-02,-3.074907325208187103e-02,-1.152126193046569824e-01,1.514441817998886108e-01,1.946273446083068848e-01,1.866391450166702271e-01,-2.973560430109500885e-02,3.796324506402015686e-02,1.149164438247680664e-01
9.247421287000179291e-03,-2.270553447306156158e-02,-4.604176059365272522e-02,-7.890004664659500122e-03,1.092110499739646912e-01,1.445708610117435455e-02,3.908267989754676819e-02,-1.889357417821884155e-01,1.189975962042808533e-01,3.730469197034835815e-02,2.793461829423904419e-02,-3.330079838633537292e-02,1.762096732854843140e-01,2.448315732181072235e-03,3.022901713848114014e-03,-6.032597273588180542e-02,5.021573603153228760e-02,3.709875047206878662e-02,7.732328772544860840e-02,-1.333377957344055176e-01,2.949793450534343719e-02,2.014835923910140991e-01,2.422748319804668427e-02,6.888375431299209595e-02,1.113122776150703430e-01,-4.068721458315849304e-02,-1.263618916273117065e-01,-4.143363609910011292e-02,2.062919363379478455e-02,-2.056689746677875519e-02,-7.927883416414260864e-02,3.015154786407947540e-02
-3.329376131296157837e-02,-4.734864458441734314e-02,8.471676707267761230e-02,3.842319548130035400e-02,1.102288439869880676e-01,7.287692278623580933e-02,8.198946714401245117e-02,1.911345422267913818e-01,1.851251125335693359e-01,-5.083002895116806030e-02,6.094328686594963074e-02,8.338394016027450562e-02,9.971643239259719849e-02,9.929394349455833435e-03,5.728468298912048340e-02,5.858422722667455673e-03,-1.642721742391586304e-01,-3.182860463857650757e-02,6.937161833047866821e-02,-9.507074207067489624e-02,1.661184579133987427e-01,-6.266614049673080444e-02,6.315071135759353638e-02,3.081307001411914825e-02,-3.931026533246040344e-02,-9.769450128078460693e-02,1.921846717596054077e-01,-1.463727932423353195e-02,-2.288625983055680990e-04,-1.416003406047821045e-01,-5.180723220109939575e-02,-2.700652182102203369e-02
1.945971697568893433e-01,3.562812879681587219e-02,-6.010555103421211243e-02,7.098665088415145874e-02,3.713889745995402336e-04,1.199147477746009827e-01,9.324004501104354858e-02,1.205698866397142410e-02,5.060625821352005005e-02,1.291048154234886169e-02,-7.136961072683334351e-02,1.401583105325698853e-01,-1.351156365126371384e-02,-7.384866476058959961e-02,-9.630779176950454712e-02,-2.186139114201068878e-02,-2.537620812654495239e-02,1.099367663264274597e-01,9.602382779121398926e-03,-2.365503311157226562e-01,-6.530481576919555664e-02,6.821744889020919800e-02,7.114972174167633057e-02,-9.833121299743652344e-02,-9.732603793963789940e-04,-5.498362705111503601e-02,-1.114214509725570679e-01,-1.547669470310211182e-01,1.704889535903930664e-01,-7.298570871353149414e-02,-3.878993168473243713e-02,1.968043297529220581e-02
-8.900269865989685059e-02,-1.050336435437202454e-01,2.509919553995132446e-02,1.116532385349273682e-01,-3.529011830687522888e-02,-1.346390396356582642e-01,1.050742715597152710e-01,1.570079475641250610e-01,1.243958696722984314e-01,6.393306702375411987e-02,8.004190027713775635e-02,1.502892673015594482e-01,2.720185518264770508e-01,2.925011515617370605e-02,-1.233004629611968994e-01,-3.575694933533668518e-02,-4.853424057364463806e-02,-2.575317770242691040e-02,1.373425573110580444e-01,2.040546834468841553e-01,4.552162066102027893e-02,1.988838016986846924e-01,1.186453178524971008e-01,-2.475047111511230469e-02,-1.700463145971298218e-01,5.411549657583236694e-02,-7.674424350261688232e-02,1.359259635210037231e-01,1.218207776546478271e-01,1.129964441061019897e-01,-1.893608598038554192e-03,-2.390584850218147039e-04
-5.190341174602508545e-02,4.978639539331197739e-03,-1.022530049085617065e-01,-5.058549717068672180e-02,1.490228325128555298e-01,-1.611096784472465515e-02,-4.762803018093109131e-02,-1.448202729225158691e-01,-8.389304578304290771e-02,1.277049910277128220e-02,-1.253235992044210434e-02,-1.825184561312198639e-02,7.726223021745681763e-02,1.631102263927459717e-01,-1.032246649265289307e-01,-1.500592827796936035e-01,-4.242125898599624634e-02,1.158783808350563049e-01,1.176855191588401794e-01,3.316505253314971924e-02,5.131132528185844421e-02,1.275079846382141113e-01,-1.642948389053344727e-01,7.207177579402923584e-02,2.642381191253662109e-02,1.391174048185348511e-01,-7.279802113771438599e-02,2.172999270260334015e-02,-2.504657581448554993e-02,7.717224955558776855e-02,-7.255997043102979660e-03,1.454250328242778778e-02
1.998549513518810272e-02,-1.874991506338119507e-02,-7.467536628246307373e-02,-4.724223539233207703e-02,9.458077698945999146e-02,1.389713883399963379e-01,3.142825514078140259e-02,8.687974512577056885e-02,2.707512350752949715e-03,2.490768209099769592e-02,-1.905955933034420013e-02,-1.181842535734176636e-01,3.706104587763547897e-03,1.399213261902332306e-02,5.830146744847297668e-02,4.455963149666786194e-02,2.035163715481758118e-02,3.941701352596282959e-02,5.836094543337821960e-02,-5.154780671000480652e-02,1.004586834460496902e-02,-7.899207621812820435e-02,-1.474032271653413773e-02,-6.823918316513299942e-03,-5.416851118206977844e-02,-6.887862086296081543e-02,-1.748028248548507690e-01,8.191857486963272095e-04,-1.011828482151031494e-01,-9.902442805469036102e-03,-4.168843477964401245e-02,-6.305473297834396362e-02
-2.533094026148319244e-02,-1.587545499205589294e-02,-9.077794849872589111e-02,5.967739969491958618e-03,-5.396095663309097290e-02,6.317990273237228394e-02,-1.939089270308613777e-03,2.162224426865577698e-02,-9.223823435604572296e-03,1.170843318104743958e-01,5.294290184974670410e-02,-7.242067158222198486e-02,9.963221848011016846e-02,-1.992823332548141479e-01,-3.785070776939392090e-02,-1.103819608688354492e-01,2.377391420304775238e-02,-7.615794241428375244e-02,-5.377694591879844666e-02,2.557138167321681976e-02,-1.499310284852981567e-01,-7.204857468605041504e-02,2.482618391513824463e-01,9.974814206361770630e-02,-1.434389129281044006e-02,2.288591116666793823e-02,-2.059331834316253662e-01,3.511714190244674683e-02,-1.673471629619598389e-01,-6.249785050749778748e-02,6.687034666538238525e-02,5.611509829759597778e-02
5.402519367635250092e-03,5.539461970329284668e-03,-4.520955495536327362e-03,5.118973553180694580e-02,-5.713450908660888672e-02,3.382598981261253357e-02,-2.196931093931198120e-02,-8.647473156452178955e-02,1.423503458499908447e-01,-7.847972214221954346e-02,8.050199598073959351e-02,-2.253677994012832642e-01,2.015066444873809814e-01,-6.613593548536300659e-02,9.910164773464202881e-02,-2.698298916220664978e-02,-1.998655498027801514e-03,2.302679717540740967e-01,-5.453201755881309509e-02,-4.467324912548065186e-02,2.660130895674228668e-02,1.713332906365394592e-02,6.909708678722381592e-02,-3.818857669830322266e-02,1.631588786840438843e-01,1.939744502305984497e-01,-9.974588453769683838e-02,2.575157769024372101e-02,7.835775613784790039e-02,5.846113339066505432e-02,-7.921453565359115601e-02,-5.346778035163879395e-02
8.562996983528137207e-02,1.673321723937988281e-01,-6.376496702432632446e-02,-1.468968540430068970e-01,4.172245413064956665e-02,-1.089256405830383301e-01,2.749290131032466888e-02,-2.683497592806816101e-02,1.418498624116182327e-02,4.506878182291984558e-02,-4.071918874979019165e-02,1.131104901432991028e-01,-2.723574452102184296e-02,8.317288011312484741e-02,1.675847731530666351e-02,-6.326264142990112305e-02,8.129055798053741455e-02,4.063526913523674011e-02,6.234068423509597778e-02,1.225721314549446106e-01,1.245772913098335266e-01,1.240824759006500244e-01,-1.549695581197738647e-01,-7.152822799980640411e-03,1.012601256370544434e-01,-2.407702058553695679e-02,1.089603155851364136e-01,2.411913871765136719e-01,-1.363198272883892059e-02,1.626664213836193085e-02,-1.086578816175460815e-01,3.422840312123298645e-02
2.012705430388450623e-03,-3.620341420173645020e-03,-1.001323107630014420e-02,5.445620417594909668e-02,-1.158979907631874084e-01,3.409062698483467102e-02,1.182236224412918091e-01,-8.199321478605270386e-02,1.880437284708023071e-01,-4.381980374455451965e-02,-3.909726068377494812e-02,2.757271751761436462e-02,5.747721344232559204e-02,2.112216502428054810e-01,-1.268587708473205566e-01,1.464345902204513550e-01,-1.188951916992664337e-02,1.067409887909889221e-01,-1.131488159298896790e-01,-9.463136643171310425e-02,-1.891424320638179779e-02,8.177996426820755005e-02,1.337170600891113281e-01,1.555908564478158951e-02,1.422576755285263062e-01,1.170928999781608582e-01,4.461960121989250183e-02,1.527654286473989487e-02,6.319693475961685181e-02,5.729454383254051208e-02,1.532776560634374619e-02,-1.074564233422279358e-01
6.973432004451751709e-02,-1.181027144193649292e-01,2.577877417206764221e-02,-5.273563414812088013e-02,-2.839187392964959145e-03,5.789296701550483704e-02,1.546332612633705139e-02,5.613463744521141052e-02,-9.250778704881668091e-03,-5.789616331458091736e-02,-5.080488976091146469e-03,-2.974299900233745575e-02,8.481207489967346191e-02,-1.162805035710334778e-01,5.013658851385116577e-02,1.409049034118652344e-01,-1.256358325481414795e-01,-1.094535812735557556e-01,-6.834530830383300781e-02,-8.383539319038391113e-02,-1.275839358568191528e-01,-1.052572652697563171e-01,3.348636627197265625e-02,-2.433712221682071686e-02,-4.329425469040870667e-02,1.005061715841293335e-01,-8.933670073747634888e-02,-5.900013446807861328e-02,-1.285199224948883057e-01,3.237207978963851929e-02,-1.235354170203208923e-01,-6.160586327314376831e-02
5.989388376474380493e-02,-1.008971929550170898e-01,1.510607078671455383e-02,1.156615908257663250e-03,1.347529441118240356e-01,-4.841691628098487854e-02,-4.664984717965126038e-02,9.434503503143787384e-03,-2.334343455731868744e-02,-2.935812994837760925e-02,4.055243916809558868e-03,1.286868304014205933e-01,8.466874249279499054e-03,-1.047186776995658875e-01,-1.103460565209388733e-01,7.554967887699604034e-03,-1.111695617437362671e-01,-2.607136070728302002e-01,-3.663572715595364571e-03,-6.387228518724441528e-02,-1.154500842094421387e-01,-3.077841736376285553e-02,1.054965797811746597e-02,2.776353806257247925e-02,2.569209039211273193e-02,-3.395035117864608765e-02,2.079929709434509277e-01,-5.310783162713050842e-02,1.235562413930892944e-01,-6.140859052538871765e-02,-2.172976545989513397e-02,1.417490839958190918e-01
-5.131879076361656189e-02,1.959969848394393921e-02,1.099058091640472412e-01,5.722033604979515076e-02,-6.356383860111236572e-02,-5.138025805354118347e-02,-6.336897611618041992e-02,1.071361545473337173e-02,1.164951696991920471e-01,4.443159699440002441e-02,-5.788094550371170044e-02,-6.926840543746948242e-02,1.069125086069107056e-01,1.015025470405817032e-02,-1.965532079339027405e-02,1.101488769054412842e-01,-7.583313435316085815e-02,6.299734581261873245e-03,-9.098508954048156738e-02,7.420176267623901367e-02,4.460579529404640198e-02,-3.148150444030761719e-02,-7.107794284820556641e-03,2.343695797026157379e-02,8.147735893726348877e-02,6.560294330120086670e-02,-1.195267513394355774e-01,1.130294278264045715e-01,-7.662084535695612431e-04,-9.304755367338657379e-03,2.603008411824703217e-03,-4.514895007014274597e-02
